#include "CPUACNetProcessor.hpp"

#ifdef ENABLE_OPENCV_DNN

namespace Anime4KCPP::CPU::detail
{
    cv::Mat processImpl(cv::dnn::Net& net, cv::Mat&& blob, int scaleTimes, int width)
    {
        for (int i = 0; i < scaleTimes; i++)
        {
            net.setInput(blob);
            blob = net.forward();
            width <<= 1;
        }
        return blob.reshape(1, width);
    }
}

Anime4KCPP::CPU::ACNetHDN::ACNetHDN(std::string modelPath)
{
    try
    {
        net = cv::dnn::readNet(modelPath);
    }
    catch (const std::exception&)
    {
        throw ACException<ExceptionType::IO>(
            R"(Failed to load models file in "./models/" for OpenCV DNN module, )"
            R"(make sure you copy it correctly from Anime4KCPP source code)");
    }
    net.setPreferableBackend(cv::dnn::DNN_BACKEND_OPENCV);
    net.setPreferableTarget(cv::dnn::DNN_TARGET_CPU);
}

void Anime4KCPP::CPU::ACNetHDN::process(const cv::Mat& src, cv::Mat& dst, int scaleTimes)
{
    int w = src.rows;
    cv::Mat tmp;
    cv::extractChannel(src, tmp, 0);

    switch (src.depth())
    {
    case CV_8U:
        detail::processImpl(net, cv::dnn::blobFromImage(tmp, 1.0 / 255.0), scaleTimes, w).convertTo(dst, CV_8UC1, 255.0);
        break;
    case CV_16U:
        tmp.convertTo(tmp, CV_32FC1, 1.0 / 65535.0);
        detail::processImpl(net, cv::dnn::blobFromImage(tmp), scaleTimes, w).convertTo(dst, CV_16UC1, 65535.0);
        break;
    case CV_32F:
        dst = detail::processImpl(net, cv::dnn::blobFromImage(tmp), scaleTimes, w);
        break;
    default:
        throw ACException<ExceptionType::RunTimeError>("Unsupported image data type");
    }
}

#else

#define ACNET_PROCESS_IMPL                         \
    cv::Mat tmpMat, tmp = src;                     \
    for (int i = 0; i < scaleTimes; i++)           \
    {                                              \
        conv1To8(tmp, kernelsL1, biasL1, tmpMat);  \
        conv8To8(kernels[0], biases[0], tmpMat);   \
        conv8To8(kernels[1], biases[1], tmpMat);   \
        conv8To8(kernels[2], biases[2], tmpMat);   \
        conv8To8(kernels[3], biases[3], tmpMat);   \
        conv8To8(kernels[4], biases[4], tmpMat);   \
        conv8To8(kernels[5], biases[5], tmpMat);   \
        conv8To8(kernels[6], biases[6], tmpMat);   \
        conv8To8(kernels[7], biases[7], tmpMat);   \
        convTranspose8To1(tmp, kernelsL10, tmpMat);\
    }                                              \
    dst = tmp;

void Anime4KCPP::CPU::ACNetHDNL0::process(const cv::Mat& src, cv::Mat& dst, int scaleTimes)
{
    ACNET_PROCESS_IMPL
}

alignas(32)
const float Anime4KCPP::CPU::ACNetHDNL0::kernelsL1[9 * 8] =
{
 0.0609167f,  0.0088709f, -0.1937400f,  0.0263619f,  0.2054345f,  0.0558480f, -0.0319790f, -0.0039509f,  0.1026869f,  0.1539806f,  0.7258638f, -0.9421819f,
-0.0392909f, -0.2887183f,  0.0583938f, -0.9121528f, -0.0446562f, -0.8588956f,  0.0118686f,  0.1257891f,  0.1494267f, -0.1666377f, -0.0193412f,  0.0181378f,
-0.1422654f,  0.0447586f, -0.8265947f, -0.0542900f,  0.3106026f,  0.3122742f, -0.0135322f,  0.0365112f,  0.7196311f,  0.8659100f,  0.4147095f,  0.1281520f,
 0.5721686f, -0.3097007f,  1.0649008f,  0.8946607f,  0.1803083f, -0.2420293f,  0.0087535f,  0.7101893f,  0.2640297f, -0.2281357f, -0.1245574f, -0.0419530f,
 0.0841538f, -0.0364230f, -0.0452930f, -0.0105978f,  0.1708098f,  0.2879600f,  0.0282651f, -0.0199097f,  0.0696245f,  0.0584637f, -0.0451417f,  0.0385919f,
-0.1640398f,  0.3001047f, -0.3030245f,  0.0217237f,  0.0081500f,  0.0124604f, -0.0181979f, -0.0140545f, -0.0212399f,  0.0526150f, -0.6377528f,  0.0060134f
};

alignas(32)
const float Anime4KCPP::CPU::ACNetHDNL0::kernels[8][9 * 8 * 8] =
{
{
 2.0611274e-01f,  4.0687494e-02f, -6.1337698e-02f, -7.4142069e-02f, -4.9163457e-03f,  1.4239949e-01f,  6.1802115e-02f, -5.6150883e-02f,  6.6864632e-02f,
 1.1005230e-01f, -3.4042824e-02f,  5.5000752e-02f,  7.4148692e-02f,  1.5104282e-01f, -1.5299967e-01f,  8.1211865e-02f, -9.9123396e-02f,  9.9577820e-03f,
 4.0473066e-02f,  4.3741494e-02f,  6.3345291e-02f,  6.9623768e-02f, -1.8209465e-02f, -7.5770184e-02f,  8.5278727e-02f,  1.6939083e-01f,  6.3821420e-02f,
-2.2446564e-03f, -1.7888252e-02f,  2.2308995e-01f, -9.2786169e-03f,  2.7871937e-02f, -4.5548521e-02f,  5.0871539e-01f,  1.7626384e-01f,  1.1940717e-01f,
-9.1875568e-02f,  2.5687799e-01f,  1.6622430e-01f,  9.4644435e-02f, -2.9491195e-02f,  8.9876130e-02f, -5.8111981e-02f, -1.6134940e-02f,  1.3727856e-01f,
 9.4766282e-02f,  1.1354207e-01f,  1.1174638e-02f, -1.0357865e-01f,  6.9561325e-02f, -9.5001832e-02f, -1.4764207e-02f, -9.6098118e-02f,  6.2560312e-02f,
 9.5865093e-03f, -6.1538957e-02f, -2.4844442e-02f,  1.1910304e-01f,  1.3326514e-02f, -1.0193720e-02f, -3.4814149e-02f,  7.1346514e-02f, -2.4225568e-02f,
 7.7395342e-02f, -8.1538605e-03f, -1.8091079e-02f,  1.2241844e-01f,  3.2540143e-02f, -1.0862498e-02f,  4.1432384e-02f, -1.4749884e-03f, -3.2494646e-02f,
-1.1308111e-01f, -3.5738576e-02f,  4.9008004e-02f, -1.0588069e-01f,  4.8030596e-03f, -3.1828914e-02f, -5.5293977e-02f, -5.1639650e-02f, -6.4227507e-02f,
-7.5299814e-02f, -4.3677576e-02f, -2.3000216e-01f,  2.5205731e-01f,  1.5207450e-01f, -1.1838871e-01f,  2.1027590e-03f, -8.8081352e-02f, -1.6788144e-02f,
 2.2362361e-02f, -1.1557269e-02f,  8.0316022e-02f,  2.0574873e-02f,  3.8866820e-03f,  1.5825370e-02f,  2.7810307e-02f,  3.0315913e-02f, -7.7902816e-02f,
-9.0254329e-02f,  1.5101741e-01f, -1.2505957e-01f,  1.7261933e-01f, -1.1004422e-01f, -1.6053538e-01f,  1.5942498e-01f, -3.8251676e-02f,  2.3351814e-01f,
 4.1235633e-02f,  2.9274392e-01f,  4.2742911e-01f,  2.3153359e-01f, -1.1985321e-01f, -9.0878010e-02f, -5.2270800e-02f, -1.3622423e-01f,  2.2338992e-01f,
 9.4712317e-02f,  6.8969756e-02f, -6.1653145e-02f, -2.8678828e-01f, -6.3736714e-02f, -1.8883517e-02f, -1.9256059e-03f,  2.8500298e-01f, -2.0519890e-01f,
-2.0232359e-01f, -2.6497081e-02f, -1.7784528e-02f,  2.6141034e-02f, -1.2858826e-01f, -5.3372208e-02f,  1.5105639e-01f,  4.9894332e-04f, -1.4563614e-01f,
 5.9461176e-01f,  1.1559485e-01f,  8.8039692e-03f,  4.1172199e-02f,  1.0314423e-01f,  9.6320623e-04f,  5.6171294e-02f,  2.3025347e-02f,  4.0865399e-02f,
 2.1614095e-02f,  3.4953735e-03f, -3.1181239e-02f, -2.0100452e-02f, -6.0741458e-02f, -4.1567073e-03f, -2.6138737e-03f, -1.9956293e-02f, -6.8870276e-02f,
-6.6706851e-02f,  3.2347832e-02f,  1.0699534e-01f,  3.5758704e-02f,  6.6752560e-02f, -1.6907116e-02f,  7.9328284e-02f, -2.4707472e-01f,  1.4550507e-01f,
-4.9081039e-02f,  1.6108464e-01f, -1.8828525e-01f, -1.5766764e-01f,  1.1693247e-01f, -1.7001908e-02f,  9.6867457e-02f,  7.6257996e-02f, -6.7966007e-02f,
 2.8422397e-02f, -1.1295470e-03f,  6.3768350e-02f, -9.4871437e-03f, -5.5930209e-03f, -1.6560923e-01f,  1.4892691e-01f, -2.4895711e-02f,  2.7908605e-01f,
-6.2322069e-02f,  8.3007999e-02f,  3.8487699e-02f,  5.2014548e-02f,  2.8280975e-02f, -1.5255217e-01f, -6.5323479e-02f,  3.8342318e-01f,  8.4973907e-01f,
-3.5639119e-01f, -4.8350871e-02f,  7.7945017e-04f, -8.2469150e-02f,  6.2441673e-02f,  8.0742493e-02f,  1.4025498e-02f, -3.9817341e-02f,  4.4660065e-02f,
-9.2171289e-02f,  1.0135520e-02f, -9.8553956e-02f,  2.2165664e-01f,  2.6092592e-01f,  9.0965390e-02f, -2.0666006e-01f,  2.6996452e-01f,  4.8226677e-02f,
-9.0110652e-02f, -1.7146984e-02f,  7.5326525e-02f, -2.4637882e-01f,  2.0217584e-01f,  2.2960672e-01f, -6.4014055e-02f,  9.7378418e-02f, -1.1175320e-01f,
 3.3710209e-01f,  5.4785423e-02f, -8.0881082e-02f,  3.3562379e-03f,  3.6856651e-02f,  8.5475132e-02f, -1.0292070e-01f, -3.1781081e-02f,  9.2126280e-02f,
-1.4502628e-02f, -2.9642764e-02f,  7.6652467e-02f, -2.0211378e-02f,  1.7854378e-02f, -1.2084293e-01f,  1.4685585e-01f,  3.6879770e-02f, -1.5188033e-03f,
-7.9626776e-02f,  4.5973528e-02f, -9.3341537e-02f, -6.4078681e-02f, -9.6675500e-02f, -7.5718150e-03f,  5.7004150e-02f,  1.6747940e-01f,  1.4019974e-01f,
-1.3617082e-02f,  2.0827314e-02f,  1.8760207e-01f,  1.8102726e-02f,  1.1035904e-02f,  4.0174935e-02f, -5.2731065e-03f,  2.1575093e-01f, -1.4014395e-01f,
 6.8874151e-02f,  1.5285061e-01f,  3.0657732e-01f,  2.4617712e-01f,  1.6116048e-01f, -1.9899718e-02f,  8.1243645e-03f, -1.9253111e-02f, -6.0286891e-02f,
-3.5614464e-02f, -7.7754624e-02f,  8.5950643e-02f,  2.5628844e-01f,  4.4785976e-02f,  2.1561250e-01f,  1.1020370e-01f, -6.9723949e-02f,  1.0746998e-02f,
-2.4361629e-02f,  3.4775134e-02f,  5.1153773e-01f, -1.0669351e-01f, -2.9305238e-01f, -1.9677532e-01f,  1.4422984e-01f, -3.1330255e-01f, -1.9861686e-01f,
-1.2183504e-01f,  2.4119334e-02f,  1.3192308e-01f, -2.5534978e-02f,  6.7123368e-02f, -7.6016657e-02f, -4.8663877e-02f, -6.9665253e-02f,  1.8010257e-01f,
 1.9494833e-02f,  1.9961381e-02f, -8.5537523e-02f, -3.3293728e-02f,  1.4717522e-02f,  7.2150029e-02f,  8.2943877e-03f, -3.6781278e-02f,  2.6939672e-01f,
-8.1014611e-02f, -1.4455959e-01f, -1.3005522e-01f,  1.8990210e-01f,  1.7569813e-01f, -1.4679594e-01f, -1.3911927e-01f, -1.4050080e-01f, -3.2263763e-02f,
-7.5664394e-02f, -1.0110953e-01f,  1.1789497e-01f,  1.6716321e-01f, -1.7370705e-02f, -4.9172372e-02f,  5.0325479e-02f,  1.0544255e-01f, -3.9920505e-02f,
 5.5812713e-02f, -1.5018484e-01f,  6.2431380e-02f, -1.6534033e-01f,  3.3063672e-02f, -4.5920055e-02f,  1.8843850e-01f,  4.0659487e-02f,  2.1126609e-01f,
-2.3070857e-01f,  2.3754600e-01f,  2.5751764e-01f,  5.0582105e-01f, -1.3585755e-01f,  7.4273990e-03f,  1.7811893e-01f,  2.0247899e-02f,  1.7511174e-01f,
 2.8553781e-01f,  1.1128662e-01f,  1.0712571e-02f,  5.9458438e-02f,  6.6728592e-02f,  1.1579520e-01f, -9.6385519e-04f, -7.7604845e-02f,  3.5790563e-02f,
-9.4150856e-02f, -1.2933886e-02f,  1.3859843e-01f, -7.8317657e-02f,  5.6628462e-02f, -5.2496782e-03f,  5.0621018e-02f,  2.8184727e-01f, -1.3224922e-01f,
-1.7696817e-01f, -2.1065369e-01f,  3.0775301e-02f,  9.0007804e-02f,  1.1133643e-01f, -1.0380596e-01f,  1.5810312e-01f,  1.5932706e-01f, -1.4953516e-01f,
-1.0743882e-01f, -8.6108623e-03f, -2.2384124e-02f,  2.8909538e-02f,  8.6844772e-02f, -4.0886339e-02f,  9.0723030e-02f,  2.2228844e-02f, -1.5914845e-01f,
 7.4977301e-02f, -1.9787718e-02f,  1.2229078e-01f, -1.2410197e-01f,  1.8832870e-02f,  5.5469304e-02f, -5.8568325e-03f, -1.1528093e-02f,  9.4078556e-02f,
-4.0547486e-02f,  1.8438831e-01f, -4.4668919e-01f, -8.2902834e-03f, -1.4091212e-01f, -5.0186161e-02f, -1.1470046e-01f, -1.2725933e-01f,  1.0069712e-01f,
 1.6413022e-02f,  2.7929604e-02f,  1.3994373e-02f,  8.3403960e-02f,  1.9647736e-02f,  6.3454933e-02f, -2.9663622e-01f,  2.9580963e-01f,  1.5870455e-01f,
-5.4713272e-02f, -1.0845962e-01f,  1.3740662e-01f, -1.1302033e-01f, -5.5557668e-02f,  7.8153051e-03f,  1.9936329e-01f, -1.1615703e-01f, -7.7922516e-02f,
 3.5314642e-02f, -3.5438437e-02f,  1.5628764e-02f, -6.9920428e-02f, -4.8412595e-02f, -1.1956886e-01f, -1.6031854e-03f,  8.6000204e-02f, -6.2673628e-02f,
 3.2681089e-02f, -3.5015006e-02f, -3.0141853e-02f, -1.8450002e-01f, -8.6507604e-02f, -6.8257754e-03f, -2.6371403e-02f,  6.2805571e-02f,  2.8491333e-02f,
 9.5031962e-02f, -4.9058750e-02f, -7.1065322e-02f, -8.2542864e-04f, -2.1882830e-02f, -8.6541355e-02f,  2.2167807e-02f,  1.4277550e-02f, -2.9677028e-02f,
 3.6421070e-01f, -8.7609500e-02f, -5.2879181e-02f,  1.2051901e-01f, -1.1521357e-01f, -3.6235866e-01f,  2.3789306e-01f,  9.5172882e-02f,  3.0251893e-01f,
-7.7191882e-02f,  1.5486275e-01f, -2.1982200e-02f,  1.4389336e-01f, -2.5325638e-01f, -2.3687084e-03f, -3.0329855e-02f, -1.3562344e-01f,  5.0918706e-02f,
 1.0829140e-02f, -1.3088070e-01f,  5.0507363e-02f,  5.6331281e-02f, -5.3264005e-03f, -3.7651628e-02f,  1.5238233e-01f, -1.4021036e-01f,  1.4715903e-01f,
 2.8664455e-02f, -1.6618127e-02f,  9.8761529e-02f, -1.1161143e-01f, -2.6096595e-03f, -1.9867910e-01f,  3.5695869e-01f,  3.4256729e-01f, -5.0670072e-02f,
-2.5150406e-01f,  3.8049287e-01f,  1.9351313e-02f,  7.4722916e-01f, -3.2643657e-02f,  1.2079123e-02f, -3.2057855e-03f,  2.2926724e-01f, -4.9759451e-02f,
 5.9884958e-02f,  5.0831523e-02f, -7.6234210e-03f, -4.2849079e-02f, -2.0317663e-02f, -2.1686969e-02f,  2.0460572e-02f,  7.7166393e-02f, -3.0540904e-02f,
 8.2245981e-03f, -3.8826112e-02f,  1.3676575e-02f, -1.8827353e-02f,  5.8640800e-02f,  7.7249566e-03f,  4.5033437e-03f,  7.9854913e-02f,  2.9891673e-02f,
 1.0191368e-01f,  7.3854409e-02f,  3.9083645e-02f, -6.3806057e-02f, -2.6630325e-02f, -5.4649133e-02f, -5.8639303e-02f, -3.7197329e-02f,  3.6588733e-03f,
 7.6609038e-02f, -2.8654145e-02f, -3.2607190e-02f, -9.0405859e-02f,  2.8548450e-03f,  1.1104289e-03f,  4.8236448e-02f, -2.6503293e-02f, -1.0121230e-01f,
-6.4165793e-02f,  7.3328346e-02f, -1.4174370e-01f, -2.8077888e-03f,  1.7147498e-02f,  1.6944939e-01f, -1.1132765e-01f,  3.6318511e-02f,  5.4888882e-02f,
-6.4737727e-03f,  9.8969162e-02f,  8.1128627e-02f,  3.3115398e-02f,  1.3673036e-01f, -2.2029122e-02f,  9.3536496e-02f,  8.2689412e-02f, -1.0031421e-01f,
-6.6572770e-02f, -4.5973420e-02f, -3.3663232e-02f,  1.1235667e-01f, -1.9101100e-01f,  6.0386293e-02f,  8.4463157e-02f, -1.7697702e-01f, -2.4424663e-01f,
 3.6739546e-03f,  7.4614681e-02f,  7.2317827e-01f, -2.1107988e-01f,  1.0086185e-01f,  2.2338852e-02f, -9.4201103e-02f, -3.5125513e-02f,  2.0745865e-01f,
 6.4211354e-02f, -4.1617639e-02f, -7.4370764e-02f, -2.6630214e-01f,  1.0804537e-01f, -3.3643737e-02f,  9.3859442e-02f, -9.8191127e-02f, -7.3440857e-02f,
 2.7493921e-01f, -7.9349332e-02f,  2.5874684e-02f, -1.2566438e-01f, -3.5860151e-01f,  1.9057637e-01f,  1.2807105e-01f, -1.5567532e-01f,  1.0081172e-01f,
-1.0405058e-01f, -1.9225247e-01f,  1.7108674e-01f, -9.3199998e-02f, -1.6569500e-01f,  8.1950407e-03f,  7.6546013e-02f, -8.5399486e-03f,  5.0314724e-02f
}
,
{
-4.2606443e-02f, -8.2546875e-02f, -3.7514608e-02f, -1.2315719e-02f, -6.5729260e-03f, -3.8821477e-02f, -1.5749709e-01f, -4.8259640e-01f, -8.9000799e-02f,
 1.9249143e-01f,  3.0461065e-02f, -1.3907029e-01f, -1.8931860e-02f, -1.5780093e-02f, -8.6182937e-02f, -2.1328764e-01f, -6.4006418e-02f,  1.5590687e-01f,
-2.7542699e-02f, -1.4445768e-01f, -3.4590960e-02f,  1.2548833e-02f, -1.4194028e-01f,  1.5890183e-02f,  1.1132056e-01f,  1.4536420e-01f,  8.6148441e-02f,
-2.7899048e-01f,  1.1066058e-01f, -3.8231675e-02f,  1.1931916e-01f, -2.6599905e-01f,  7.6609068e-02f, -1.0409022e-01f, -6.1486438e-02f, -8.5968979e-02f,
 9.3978517e-02f, -2.8870022e-01f, -3.9174905e-01f, -8.8518813e-02f,  8.6416580e-02f,  1.2381577e-01f,  1.2610026e-02f, -1.0870460e-01f,  2.6059156e-02f,
 2.6216397e-02f, -5.4495264e-02f, -4.3800469e-02f,  7.6477448e-03f,  1.8188962e-01f,  2.9748064e-03f, -2.6157370e-01f, -1.2395170e-01f,  1.0374569e-01f,
-1.4000679e-02f, -1.7299135e-01f, -1.6415942e-02f,  9.2917033e-02f,  1.1777997e-01f,  8.9532085e-02f, -2.4768178e-01f, -2.9620729e-02f, -2.0593722e-01f,
-2.0756611e-01f, -8.2093865e-02f, -1.4394158e-01f,  2.9031763e-02f,  3.0958414e-02f, -1.6303951e-01f,  1.8478915e-03f, -8.2682654e-02f, -2.6658136e-01f,
 1.0778642e-01f, -5.6260001e-02f, -2.1706389e-02f, -1.5393347e-01f,  8.8328552e-03f,  5.0207350e-02f,  8.6156338e-02f,  6.9707260e-02f,  2.1836609e-01f,
-2.7043188e-01f, -2.2405794e-02f, -4.2780891e-02f, -2.1605769e-02f,  1.5188795e-01f,  2.1499220e-02f, -4.4700056e-02f,  1.8093568e-01f,  1.5391695e-02f,
 2.6768943e-02f, -2.0951447e-01f, -4.0877946e-02f,  1.2532604e-01f,  2.2079770e-01f,  6.5570243e-02f, -2.6306473e-02f, -1.4304596e-02f, -3.6965083e-02f,
 2.0327772e-01f, -1.5580663e-02f,  1.8297692e-01f,  5.5703025e-02f,  2.3992075e-01f, -1.2452172e-01f,  1.1130749e-01f,  2.2179751e-01f,  4.5316938e-01f,
-1.4829203e-02f, -1.2869698e-01f, -3.6307332e-01f,  1.5077537e-01f,  1.2661634e-02f, -8.5913122e-02f, -4.0928833e-02f, -3.0466832e-02f, -1.5958797e-02f,
 3.0680865e-01f,  8.3129421e-02f,  2.8712898e-02f,  3.1632572e-02f,  7.7914171e-02f, -3.2629049e-03f, -6.1345965e-02f, -1.0462585e-04f, -1.9571071e-02f,
 8.9280434e-02f, -9.1196656e-02f,  1.8717475e-02f, -6.5483674e-03f,  8.3419181e-02f,  1.0381162e-01f, -4.2902995e-03f, -8.6302131e-02f, -3.5897326e-02f,
 1.9765334e-02f,  3.1042511e-02f, -1.8375452e-01f, -1.4587341e-01f, -1.3718565e-01f, -4.6656668e-02f,  9.1121145e-02f,  1.6106234e-01f, -1.8750863e-02f,
 4.0926661e-02f, -1.4058591e-01f, -1.3908776e-02f, -9.8571628e-02f,  2.2995012e-02f,  1.0113080e-01f,  9.1170564e-02f, -9.9276572e-02f,  5.0310634e-02f,
-5.7338995e-01f, -2.0166017e-02f, -1.4035404e-01f,  1.7916836e-02f, -1.8361762e-01f, -3.1101772e-01f, -3.1436649e-01f,  1.1648115e-01f, -3.9073411e-02f,
-1.0029185e-01f, -1.9431500e-02f, -9.1404185e-02f,  3.2641705e-02f,  1.2424850e-01f,  4.0730439e-02f,  2.2428855e-01f, -1.1700591e-01f,  7.6359503e-02f,
 2.5541635e-02f, -1.2326014e-01f,  1.7033857e-01f,  1.0277783e-01f,  2.4207972e-02f,  2.0757061e-01f, -3.1805836e-02f,  8.0818921e-02f,  3.2608610e-01f,
 1.4581989e-01f, -3.1077102e-01f, -3.1014168e-01f, -8.8322178e-02f,  4.3662372e-03f,  7.7726357e-02f, -1.0933376e-01f,  1.7983356e-03f, -7.0959166e-02f,
-4.8737198e-02f, -6.9137841e-02f, -1.6245162e-01f,  3.6340587e-02f,  2.1687692e-02f, -5.8919333e-02f, -1.0800424e-01f, -1.8057954e-02f,  5.9144035e-02f,
 8.0839142e-02f,  1.3037172e-02f, -4.7637492e-02f,  9.9297479e-02f,  2.4744870e-02f, -2.9021911e-02f, -8.5227877e-02f,  5.6051607e-03f, -3.6183029e-02f,
-3.4707621e-02f,  8.3645076e-02f,  3.8223840e-02f,  3.7375297e-02f,  6.2691253e-03f,  4.2798933e-02f,  3.2359865e-02f,  1.0340918e-01f, -4.4285055e-02f,
-8.9260107e-03f,  7.9883546e-02f, -1.1332964e-02f,  2.8936597e-02f, -2.2828772e-03f, -9.0123333e-02f, -1.8333910e-01f, -1.3591568e-01f,  1.8506711e-02f,
 5.2461438e-02f,  1.4747202e-02f, -1.3483186e-01f,  8.6577043e-02f,  7.7996075e-02f, -5.3699538e-02f, -1.3574868e-01f,  7.9069078e-02f,  1.0317913e-01f,
-7.8958362e-02f, -4.1655097e-02f, -1.1908817e-01f,  3.6296930e-02f,  2.3336048e-01f, -7.4545972e-02f, -1.9410785e-01f,  4.0054418e-02f, -3.1535093e-02f,
 2.0172074e-01f, -1.8061453e-01f, -3.4388506e-01f, -1.4463727e-01f,  1.4670312e-01f, -8.6846583e-02f,  1.4695200e-01f,  1.7403398e-01f,  1.4283241e-02f,
 1.1165768e-01f,  1.1841299e-01f, -5.0319844e-01f, -1.3365920e-01f, -3.6639471e-03f,  1.2577170e-01f,  1.3946223e-02f,  9.6200332e-02f, -8.2254849e-02f,
-2.0900492e-02f, -2.9836491e-02f,  2.1552958e-03f,  4.0328309e-02f, -1.8790417e-03f, -3.2037579e-02f,  1.9027187e-02f, -1.3189635e-01f,  9.4930030e-02f,
-1.7224705e-01f,  8.1234919e-03f, -3.6820948e-02f, -4.9420543e-02f,  5.1151343e-02f,  3.1239858e-01f,  7.7123448e-02f, -9.1504276e-02f, -3.9498773e-01f,
-1.2068240e-01f, -8.5387051e-02f,  2.3235267e-02f, -6.1063360e-02f, -2.9553145e-02f,  2.3224175e-02f, -4.5307808e-02f, -1.7320573e-01f, -5.7286907e-02f,
 5.8172762e-02f, -8.9819930e-02f, -8.6471839e-03f,  6.2775806e-02f,  1.8661125e-02f,  3.7723351e-03f,  1.7509519e-01f,  1.8015239e-01f,  5.9990533e-02f,
-1.6994281e-01f, -6.9688730e-02f,  1.3845165e-01f,  2.4461361e-02f, -3.7580211e-02f,  1.7896725e-01f,  2.1389513e-01f, -3.1398132e-02f, -1.5986261e-01f,
 5.6845709e-03f,  4.5833666e-02f,  3.6060389e-02f, -6.6410147e-02f, -2.6518413e-01f,  8.6923270e-03f,  1.5818293e-01f,  2.3436166e-01f,  5.7913829e-02f,
-2.3854457e-01f, -4.5224160e-02f,  5.2500632e-02f,  2.3638448e-01f,  2.8833300e-01f,  3.0860931e-01f, -1.5345733e-01f, -1.9818087e-01f, -4.0267348e-02f,
-1.7671531e-01f, -1.2529755e-01f,  5.0269634e-01f,  6.6344917e-02f, -2.3817852e-02f,  1.5013995e-02f, -7.5321041e-02f,  1.5634170e-02f,  1.6080329e-01f,
 3.5943557e-02f, -4.9731173e-03f,  1.4578408e-01f,  1.2175642e-01f, -3.9138757e-02f,  8.7452896e-02f, -1.9245903e-01f, -4.2174932e-01f,  3.8378023e-02f,
 2.2602534e-01f,  2.2337779e-01f,  6.7519821e-02f, -7.9387560e-02f,  7.8354038e-02f, -3.2332394e-02f, -2.2556652e-01f,  9.5188498e-02f,  2.5317344e-01f,
 2.6452735e-01f,  8.9401200e-02f, -4.9057048e-02f,  2.1997314e-02f,  3.2442100e-03f, -1.0719057e-01f,  2.1951904e-03f,  2.4078776e-01f, -2.9112453e-02f,
-2.8859384e-02f, -1.1192654e-01f, -4.7606427e-02f, -6.1880060e-02f, -2.9505901e-02f, -2.4332890e-02f, -1.3159075e-01f,  1.4017707e-01f, -1.2237438e-01f,
-2.5705376e-01f,  1.3915367e-01f, -8.8191986e-02f,  9.5019631e-02f,  2.7976647e-01f,  1.5638219e-01f, -9.2823692e-02f, -1.0625185e-01f,  1.1995409e-01f,
 1.1653132e-01f, -6.0171913e-02f, -6.6464640e-02f,  5.6961056e-02f,  1.2480135e-01f, -2.2795174e-02f,  3.1675141e-02f,  5.7929419e-02f,  9.6050344e-02f,
 2.5001708e-01f, -7.2627306e-02f, -3.0604992e-03f, -6.2163714e-02f,  1.2360450e-01f,  1.4172021e-01f,  2.4987678e-01f,  4.0099356e-01f,  1.5148051e-01f,
 3.1235895e-01f,  8.3684422e-02f,  7.9458132e-02f,  2.2526805e-01f, -1.4372580e-01f, -4.9405592e-03f,  1.5631142e-01f,  6.4459316e-02f,  5.5764060e-02f,
 4.4847885e-03f, -9.4803922e-02f, -1.1816996e-01f,  1.4653366e-02f, -3.9363116e-02f,  3.1492297e-02f, -2.1022399e-01f, -2.8788933e-01f, -7.8934617e-02f,
 8.5690143e-03f, -3.8872469e-02f,  1.0205489e-01f, -1.1690835e-02f,  2.4797155e-01f, -8.3893090e-02f, -1.8915468e-01f, -1.9543786e-01f,  7.4971342e-03f,
-1.9982474e-02f,  6.2556520e-02f, -1.2236316e-03f,  6.8715908e-02f,  6.9553950e-03f,  9.0824611e-02f, -5.3311404e-02f,  8.6629950e-02f, -7.7513702e-02f,
-8.7292425e-02f, -2.0520802e-01f, -6.2663672e-03f,  7.0243709e-02f, -5.8618408e-02f, -2.6595268e-02f, -1.3148220e-02f,  1.7744055e-03f, -2.1254756e-02f,
 2.1900624e-01f,  9.1754355e-02f, -2.9550754e-02f,  6.4082265e-02f,  1.2278312e-01f,  6.8659544e-02f,  3.1735774e-02f,  3.6829624e-02f,  1.5956886e-01f,
-5.7243770e-03f,  1.6480625e-02f,  4.8461230e-03f, -3.1659123e-02f, -7.4229795e-03f,  4.5882016e-02f, -5.4416817e-02f,  2.1061550e-01f,  1.3537571e-01f,
-3.1035757e-02f, -5.9405163e-02f, -1.0102583e-02f,  2.9702041e-02f, -2.5221735e-02f,  3.0500606e-01f, -1.4157344e-01f,  1.5366164e-01f, -2.0026381e-01f,
 3.2643548e-01f,  4.7763112e-01f,  1.2035983e-01f,  2.4297985e-01f,  1.6896525e-01f, -3.4340349e-01f,  9.4915994e-02f, -8.4748477e-02f, -7.1277939e-02f,
 2.5358813e-02f,  9.5503606e-02f, -3.8595956e-02f, -2.2186793e-02f,  3.8520414e-02f, -4.2114578e-02f, -1.3107564e-01f, -1.8084078e-01f,  8.1396610e-02f,
-3.2694482e-03f,  1.2544771e-02f, -8.9608900e-02f, -2.0820168e-01f, -3.6584699e-01f, -1.3783938e-01f,  2.0857872e-02f,  3.0548042e-01f,  8.6722270e-02f,
 3.1872176e-02f, -2.2830158e-02f,  2.4569575e-03f, -1.4558578e-01f,  9.4899692e-02f, -9.3690343e-03f,  9.7097442e-02f, -6.2433105e-02f,  7.1925186e-02f,
 4.9845785e-02f,  1.7211485e-01f,  9.1549881e-02f, -2.1256322e-01f, -7.6564639e-03f,  3.6231898e-02f,  3.2527372e-01f,  7.9781964e-02f,  3.3395401e-01f,
 2.0214239e-01f, -5.4007471e-02f, -4.1767210e-02f, -9.6854180e-02f, -1.1091465e-01f,  3.2086754e-01f, -1.5533397e-01f, -3.1560600e-02f,  1.3820900e-01f,
 6.7482345e-02f,  8.4664680e-02f,  7.6121329e-03f,  1.2840812e-01f, -9.4429037e-05f, -1.4619247e-02f, -1.3191023e-02f, -7.1520008e-02f, -1.8687049e-01f,
-4.0235397e-01f,  1.4791493e-01f,  1.9276798e-01f,  1.3556276e-01f, -1.2223020e-01f,  4.2662835e-01f,  1.4847168e-01f,  3.2119599e-01f,  1.0603659e-01f,
 4.5612448e-01f,  2.9321560e-01f, -7.0412561e-02f, -1.8630892e-03f, -6.9726579e-02f, -1.3819803e-01f,  5.1031196e-03f, -3.1827256e-02f,  1.9888720e-02f,
-1.6739747e-01f,  2.9382532e-02f, -9.8832004e-02f,  1.4569649e-02f, -2.4711832e-02f, -6.1205432e-02f, -4.9824566e-02f, -5.5498365e-02f,  1.2107470e-01f,
 2.0616906e-02f, -1.6815215e-02f, -4.0002454e-02f, -1.5925234e-02f, -5.1780373e-02f, -9.1266673e-04f, -1.1266126e-01f, -6.2883258e-02f,  3.3217777e-02f,
-8.1439897e-02f,  5.6393858e-02f,  1.7402701e-02f,  1.6441634e-02f,  1.5527448e-02f,  2.2790385e-02f,  4.0603090e-02f,  4.4897810e-02f,  6.8038017e-02f
}
,
{
 2.3897849e-02f, -8.7544350e-03f, -1.2397184e-03f, -2.6178872e-02f, -5.2395869e-02f, -8.1871841e-03f, -6.5405676e-03f,  2.6727386e-40f,  1.2410557e-02f,
-4.3522093e-02f, -1.4685136e-02f,  2.6720585e-02f,  1.2309609e-01f,  1.1690287e-02f,  7.2665900e-02f, -5.2704096e-40f, -3.2770380e-02f,  7.3822327e-02f,
-1.0192070e-02f,  1.1706749e-02f, -5.2917302e-02f, -4.0178832e-02f, -5.7348385e-02f, -4.5038013e-40f, -2.6028562e-01f, -1.4523454e-01f,  1.6045403e-01f,
-4.8024457e-02f, -4.3708081e-03f, -1.0835440e-01f, -1.9100362e-01f, -3.3108339e-40f,  3.2690135e-01f,  1.1433391e-01f,  3.6330938e-02f, -2.3365656e-01f,
 1.9560432e-01f,  3.6111751e-01f, -7.4448802e-02f,  5.2329669e-40f, -1.8246035e-01f,  4.4108707e-02f,  1.2219373e-01f, -1.6978389e-01f, -2.4309009e-02f,
-4.5990132e-02f, -1.2495892e-01f, -1.2724070e-40f,  1.1223870e-02f, -1.6025401e-03f,  1.3122609e-01f, -2.4401754e-01f, -6.7388050e-02f, -1.2354623e-01f,
 1.5298563e-01f, -3.2957279e-40f,  8.0193378e-02f,  2.5458848e-02f,  5.7578381e-02f, -2.8571594e-01f, -8.8838883e-02f, -1.3372457e-01f, -8.8046677e-02f,
-5.8613232e-40f, -5.0411999e-02f, -9.3561701e-02f,  1.0290913e-01f, -2.4052802e-02f, -2.0907091e-02f,  3.8136289e-02f, -2.1810189e-02f,  2.1617551e-40f,
-9.3848526e-02f, -2.9192228e-02f,  1.7424396e-01f, -2.7451273e-03f,  4.6550352e-02f, -9.1529749e-03f, -3.0240962e-02f, -4.3881802e-40f,  2.0325186e-02f,
-1.0974560e-01f,  1.0687964e-01f,  7.1958810e-02f,  3.4118772e-02f,  3.5432175e-02f, -7.4309548e-03f, -3.3950099e-40f,  2.6309254e-02f, -5.0942823e-02f,
 1.4262910e-01f,  4.4706326e-02f,  6.0977403e-02f,  4.3949574e-02f, -8.7681852e-02f,  5.9372035e-40f,  1.2266116e-02f, -1.1214585e-01f,  8.9941561e-02f,
-1.9899997e-01f, -1.0053652e-02f, -8.6859450e-02f, -2.2478752e-02f,  2.7276555e-40f,  1.7698115e-01f,  1.9906631e-01f, -2.7141320e-02f,  2.1353404e-01f,
 1.4410780e-01f,  1.5887028e-01f,  9.6008249e-02f, -1.3741273e-40f,  2.7048627e-01f,  7.9934023e-02f,  3.1237716e-02f,  1.0625365e-01f,  1.5621510e-01f,
 1.2796207e-02f, -8.4539287e-02f, -3.3596691e-40f,  1.2918079e-01f,  3.7065960e-02f, -4.0239945e-02f,  4.0245578e-01f,  1.7401192e-02f,  1.3553760e-02f,
-2.8914995e-02f,  5.0687348e-40f,  2.0189531e-01f,  3.0796301e-01f, -1.0929944e-01f,  4.2323238e-01f,  2.5685048e-01f, -1.5669261e-01f,  1.7538187e-01f,
 4.7873400e-40f,  2.7352238e-01f, -1.4034481e-01f, -2.1275847e-01f,  3.4045845e-02f, -9.1852602e-03f, -1.4371076e-02f, -3.7734956e-02f, -3.2115659e-40f,
-7.2099566e-02f, -8.2315445e-02f,  1.0356743e-01f, -1.6943005e-01f, -4.4529509e-02f, -4.6608765e-02f, -9.8463399e-03f, -6.1388223e-40f,  1.3357350e-01f,
-2.0181522e-02f,  5.7672542e-02f, -2.0220535e-01f, -1.8623178e-01f,  1.7113675e-01f, -6.9617800e-02f, -6.0790009e-40f, -1.3701807e-01f, -1.2824363e-02f,
 1.0355531e-02f, -1.6368710e-01f, -8.4556721e-02f, -7.8283727e-02f, -2.6094815e-01f, -5.2666962e-40f,  2.2527084e-01f, -4.8006899e-03f, -2.0863795e-01f,
 1.3881795e-01f,  9.5961757e-02f,  1.7611480e-01f,  9.9950217e-02f, -5.6523616e-40f,  1.5821376e-01f,  1.2655246e-01f, -1.9404656e-01f,  2.1716844e-01f,
 2.6490980e-01f,  4.1204053e-01f,  5.0533527e-01f, -6.1696089e-40f, -2.3104292e-01f, -2.5157355e-02f,  2.5094286e-01f, -1.3580784e-01f,  1.7854139e-01f,
 9.3281224e-02f, -1.8811952e-01f, -5.9795928e-40f,  1.0181771e-02f,  2.7796252e-02f, -4.8276535e-03f,  1.3975227e-01f, -2.0547386e-02f,  1.1420259e-01f,
-1.1986354e-01f,  1.5823602e-40f, -1.5499026e-01f, -4.3031849e-02f, -1.3758132e-01f,  1.1980049e-01f, -1.2023412e-01f,  1.2950727e-01f,  7.1165763e-02f,
-5.2002466e-40f,  7.1906097e-02f,  2.5397008e-02f,  1.1562110e-01f,  1.8887892e-02f, -7.6896854e-02f, -7.6024570e-02f, -2.4768533e-02f, -5.8960193e-40f,
 1.5864910e-01f,  6.9377251e-02f, -1.0358322e-01f, -1.8109627e-01f, -1.3418414e-01f, -5.4831360e-02f,  8.8529371e-02f, -5.9860247e-40f,  7.0950218e-02f,
 2.3642009e-01f,  2.0631124e-01f, -2.6143119e-01f, -1.4959897e-01f,  9.7573824e-02f,  9.8347865e-02f,  3.6419046e-40f, -6.3335918e-02f,  1.2713285e-01f,
-9.1445306e-03f, -1.0108607e-01f,  1.6292378e-01f,  3.2838911e-02f,  2.1135699e-02f,  2.9975456e-40f,  2.2661312e-01f,  2.7877582e-02f, -1.7601845e-01f,
 5.5844281e-02f, -1.7275190e-01f,  3.8475331e-02f, -9.0336725e-03f, -5.8987659e-40f, -4.2996976e-01f, -1.5324742e-01f,  1.0200272e-01f, -1.2174727e-01f,
-6.0180999e-02f, -6.0246646e-02f,  1.3679069e-01f,  3.3994099e-40f, -4.2012775e-01f, -1.4871414e-01f,  3.0031759e-02f,  3.4446750e-02f, -2.7033612e-02f,
-2.9627198e-02f, -1.2114578e-01f, -5.0610837e-40f,  1.7549008e-02f,  1.5800148e-02f, -1.1494518e-02f,  8.9688472e-02f, -7.4188650e-02f, -2.4367053e-02f,
-6.2477565e-03f,  3.6410499e-40f, -1.3142434e-01f, -4.5934767e-02f, -4.5076679e-02f,  2.4641426e-01f, -3.5566054e-02f,  1.3143408e-02f,  1.1435527e-01f,
 2.9549601e-40f, -3.1662655e-01f,  1.7369623e-01f, -6.4747579e-02f,  2.3287089e-01f,  1.3994871e-01f,  4.7017347e-02f, -3.4609798e-02f,  4.7467864e-40f,
 1.3616571e-01f,  4.8057877e-02f, -2.3071658e-02f, -5.8259107e-02f,  3.0758232e-02f,  2.3800226e-02f, -2.7350286e-02f,  2.7503145e-40f,  1.4229499e-01f,
-1.8725455e-01f, -3.2341555e-02f, -1.3656296e-01f,  3.3476301e-02f, -2.4045916e-02f,  1.0701974e-01f, -3.4102840e-40f, -1.0706632e-02f, -6.7048110e-03f,
 1.4502989e-02f, -1.3935710e-02f,  6.9837328e-03f, -5.7044178e-02f,  1.6220082e-02f,  6.0339491e-40f, -1.0986277e-02f, -1.3931952e-01f, -3.7052348e-02f,
-8.3429217e-03f, -6.1088629e-02f,  2.7280014e-02f,  1.0911611e-02f, -1.7691113e-40f,  2.8816438e-01f, -6.0768023e-02f, -1.2205661e-01f,  2.3025629e-01f,
-9.6021041e-02f,  7.8573269e-01f,  1.0952865e-01f,  6.7169841e-41f, -3.6239058e-01f, -1.6976106e-01f,  5.5394717e-02f,  1.2302379e-01f,  7.1715540e-03f,
 1.0079283e-02f,  8.6761720e-02f,  1.7100746e-40f,  2.2579081e-02f, -2.1189358e-02f,  2.8330749e-02f, -2.2968922e-02f,  1.0388794e-01f,  6.4099833e-02f,
 2.9348435e-03f,  2.7166413e-40f, -1.4331734e-02f,  1.0310592e-02f, -4.2811818e-03f,  6.0932163e-02f,  4.7963191e-02f,  5.1584303e-02f, -2.2034593e-02f,
 4.3022806e-40f,  7.1338764e-03f, -2.2969821e-02f,  6.9806665e-02f,  3.4748800e-02f,  9.5920868e-02f,  7.9653002e-03f,  1.2376034e-01f,  2.7735340e-40f,
-1.4357051e-01f, -7.0546139e-03f,  4.3593302e-02f,  1.2910300e-01f,  4.4568527e-02f, -8.9479595e-02f,  7.0101887e-02f, -3.1936993e-40f, -9.7607970e-02f,
 7.9481117e-02f, -6.7372844e-03f,  2.4008359e-01f,  1.2229933e-01f, -1.6207178e-01f, -1.0945470e-01f, -4.9246953e-40f,  1.4646409e-01f,  1.2146032e-02f,
 1.2760337e-02f,  1.8908246e-01f, -1.4417425e-01f, -8.9418381e-02f, -1.6640274e-01f, -6.2494969e-40f, -5.3855717e-02f,  4.2665780e-02f,  3.2895638e-03f,
-5.8776196e-02f, -1.2825066e-02f, -3.5588782e-02f, -3.9916253e-03f,  5.2937833e-40f,  3.3897713e-01f,  3.5383317e-01f, -2.4007252e-01f,  3.8121310e-01f,
 3.1979939e-01f,  3.5902819e-01f, -2.6657924e-02f, -3.3701789e-40f, -2.4935906e-01f,  1.4381324e-01f, -5.2919783e-02f,  8.1312336e-02f, -3.5904524e-01f,
-1.8380859e-01f, -9.7031027e-02f,  1.4975677e-41f, -2.9500319e-02f,  5.4384019e-02f,  2.5192646e-02f,  9.1174804e-02f, -1.2556539e-01f,  9.2355594e-02f,
-3.0046986e-02f,  1.4030921e-40f,  2.1799129e-02f, -9.3862452e-02f, -2.1479999e-01f, -1.8729476e-02f, -7.5282857e-02f,  8.8046387e-02f,  1.6630735e-03f,
-4.6995487e-40f,  1.1900918e-02f,  4.8870253e-03f,  8.4653668e-02f, -4.6156276e-02f, -1.2342733e-01f, -5.0228652e-02f, -5.5030752e-02f, -5.2409123e-40f,
 3.6996182e-02f,  2.1140894e-02f,  2.2642041e-02f,  3.7492961e-02f,  1.9791029e-01f,  1.8609161e-02f, -7.9624318e-02f,  2.5459912e-40f,  2.1290679e-02f,
-6.6826202e-02f,  8.2131781e-02f, -3.5877038e-02f,  7.9002619e-02f,  1.1243375e-01f,  1.9976357e-01f,  2.6669933e-40f,  3.2149710e-02f, -1.8526019e-01f,
-2.3864118e-02f, -9.9650547e-03f,  3.1163156e-02f,  5.2599117e-02f,  1.9581787e-01f, -4.5339152e-40f,  9.8374791e-02f,  1.3308842e-01f, -2.9726076e-01f,
 1.5864299e-01f,  1.0968540e-01f, -1.3373924e-02f,  2.1376994e-01f,  4.2895848e-40f,  2.4475910e-01f,  3.3451682e-01f,  8.0405302e-02f,  1.3611378e-01f,
 1.6839375e-01f, -3.3096823e-01f,  3.5834971e-01f, -5.7140747e-40f,  2.2895741e-01f,  1.1057679e-02f, -1.3189927e-02f,  6.7879647e-02f, -2.5815785e-01f,
 6.5346047e-02f,  1.7012259e-01f, -1.7002515e-40f,  1.8391767e-01f, -1.6967081e-02f, -1.1310174e-01f,  2.2215918e-01f, -1.2616719e-01f,  2.6759678e-01f,
-9.7751431e-02f,  2.3597025e-40f, -7.4509777e-02f,  1.1093508e-01f, -4.4342339e-01f,  9.3697317e-02f,  1.3685985e-01f, -1.0280886e-01f,  4.9143401e-01f,
 1.3748419e-40f, -1.0152327e-01f,  5.3229623e-02f, -6.3535534e-02f,  7.4782267e-02f, -2.1078487e-01f,  1.1607029e-02f,  1.0987522e-01f,  4.6162975e-40f,
 4.4757400e-02f,  3.0408643e-02f, -6.7090295e-02f, -1.0861103e-01f, -2.1869542e-02f,  7.6576187e-03f,  8.4055029e-02f,  4.0679694e-41f, -4.8052701e-03f,
-4.7613353e-02f,  1.1796878e-01f, -2.5823969e-01f, -1.8378417e-01f, -3.5957079e-02f, -7.3187482e-03f, -6.1641998e-40f, -6.7253806e-02f, -1.7736533e-01f,
 1.5315251e-01f,  6.6454567e-02f, -2.8893262e-01f,  3.1924050e-02f, -9.8808102e-02f,  2.7304301e-41f, -4.8369952e-02f, -1.6677961e-02f,  7.7829070e-02f,
 9.2238344e-02f, -8.2522765e-02f, -7.0088379e-02f,  5.0589703e-02f,  5.2249655e-40f, -7.8974508e-02f, -7.8644335e-02f, -1.4494205e-01f, -2.3448476e-01f,
-3.0474892e-02f,  9.1241039e-02f, -8.9291126e-02f, -3.9481444e-40f, -3.6007437e-01f,  1.1742587e-01f,  1.0233229e-01f, -3.4056616e-01f,  9.6007079e-02f,
 1.2826760e-02f, -6.6856608e-02f, -6.1808192e-40f, -3.8159639e-02f,  7.3321976e-02f,  9.7058862e-02f, -2.9658309e-01f,  1.0668643e-01f,  3.7164547e-02f,
 9.6737288e-02f,  1.9462074e-40f,  8.7706573e-02f, -1.1354180e-01f,  1.2771919e-01f,  9.4698360e-03f, -1.4580553e-03f,  7.0273373e-03f, -3.0699402e-01f,
 2.6005297e-40f, -1.4986241e-01f, -1.5737118e-02f, -2.4393870e-02f,  1.9315258e-01f,  3.2441261e-01f, -7.3944946e-04f,  2.2888644e-01f, -2.7280759e-40f
}
,
{
 1.3625197e-02f,  2.2686549e-01f, -4.2968906e-02f,  1.7989181e-01f, -4.0294487e-02f,  9.3125828e-02f, -8.8843564e-03f, -9.1935456e-02f, -8.5593842e-02f,
-5.8992203e-02f, -1.0995115e-01f,  2.3787251e-02f, -9.1436524e-03f, -1.3236430e-01f,  1.0100612e-03f, -2.2665842e-04f, -1.9901396e-01f,  4.7796443e-03f,
 1.3020848e-01f,  5.7447152e-03f, -2.4926471e-02f,  9.9350102e-02f, -6.0190480e-02f, -6.2820703e-02f, -6.4635694e-02f,  6.0603046e-01f,  1.0142408e-01f,
 4.8747516e-01f, -2.1268755e-01f, -1.3307542e-01f, -1.8851246e-01f, -1.8604741e-01f, -1.9030051e-02f,  2.7961227e-01f,  5.2225357e-01f,  3.0151859e-01f,
 1.1602455e-01f,  3.5030103e-01f, -7.6662116e-02f,  3.0237553e-01f,  4.1962765e-02f,  1.5973378e-02f, -5.5485964e-02f,  3.5516515e-02f,  1.4382520e-02f,
 9.2221260e-02f, -1.4561526e-01f,  3.2758545e-02f, -7.5507276e-02f,  2.3034742e-01f, -7.2348639e-02f,  2.2154526e-01f,  5.1455874e-02f,  1.1783294e-01f,
 2.9982993e-02f, -5.0771434e-02f, -2.4474363e-01f,  1.3030638e-01f,  8.5470453e-02f,  1.8812126e-01f,  6.9047309e-02f,  1.6647577e-01f, -8.1533350e-02f,
 1.4585068e-02f, -4.2621467e-02f, -9.9279992e-03f,  2.3438416e-02f,  3.0994043e-02f,  1.6518686e-02f, -7.9149716e-02f,  1.1255961e-02f, -1.0871799e-01f,
 2.8194854e-02f, -4.7234926e-02f, -1.0690151e-01f,  7.8656696e-02f,  6.3736871e-02f,  2.2654296e-01f,  1.0205387e-01f,  2.5511330e-02f,  7.3101699e-02f,
 5.1772539e-02f, -1.4369671e-01f, -7.1134731e-02f, -9.0180993e-02f, -1.2545843e-01f,  6.7850247e-02f, -9.3394130e-02f, -9.3331441e-02f, -4.8586294e-02f,
-1.2631921e-01f, -5.8292668e-02f,  7.0715755e-02f, -1.2354074e-01f, -1.0911033e-01f,  1.4809713e-02f,  7.7093124e-02f, -1.4509687e-01f,  2.8753897e-02f,
-1.4219892e-01f,  7.0061378e-02f, -1.6456950e-01f, -1.2845847e-01f, -6.2906250e-02f,  1.7800464e-01f, -1.7336310e-01f,  1.1661551e-01f,  1.6004054e-02f,
 7.9045847e-02f, -6.0739622e-02f, -5.4605436e-02f,  9.2471637e-02f, -7.6451108e-02f,  1.0981040e-01f,  5.6515142e-02f, -2.5180057e-02f, -4.3924946e-02f,
-3.1069193e-02f,  6.2182076e-02f,  1.2844716e-02f,  2.8565252e-02f, -2.0302826e-01f, -1.5726116e-01f, -1.6810572e-01f,  7.4395612e-02f, -8.3203278e-02f,
-1.0796586e-01f, -2.9041389e-01f, -1.3540167e-01f, -1.6008049e-02f, -1.4945485e-01f, -2.3440629e-01f, -5.2796904e-02f, -1.8064290e-01f, -5.1281050e-02f,
-9.6489470e-03f, -1.9168507e-01f, -1.8524367e-03f, -4.4956084e-02f,  1.4810050e-02f,  3.8125191e-02f,  4.6899863e-02f, -1.2036454e-02f, -2.7276969e-02f,
-1.8582653e-02f, -2.3440078e-01f,  1.6573893e-01f,  5.3140473e-02f,  7.5999171e-02f,  1.2058521e-01f, -8.1692904e-02f, -6.9896333e-02f,  3.0135456e-02f,
-3.2373477e-02f, -5.6893770e-02f, -1.2904342e-01f, -5.1306617e-02f, -1.0569388e-01f, -7.0431933e-02f, -1.1645231e-01f,  8.1093637e-03f, -6.7910954e-02f,
-2.0851007e-01f, -1.5105464e-02f,  2.4326371e-03f, -7.1196221e-02f,  1.6989906e-01f, -5.9870243e-02f, -1.2835190e-01f, -1.6256127e-01f,  8.1498483e-03f,
 5.4524627e-02f, -3.1715788e-02f, -9.2990875e-02f, -1.7328738e-01f, -2.8036535e-02f, -1.8041447e-01f,  1.2316062e-01f, -2.5441137e-01f, -1.5417601e-01f,
-1.2566829e-01f, -1.7587197e-01f, -2.2084332e-01f, -2.2648869e-01f, -8.9019626e-02f,  2.7858917e-02f, -1.4412007e-01f,  6.6506535e-02f, -3.3897728e-02f,
 1.3099881e-03f, -3.0976662e-02f,  5.1780988e-02f, -8.2731076e-02f,  8.5089431e-04f, -1.0958611e-02f,  8.3947018e-02f,  8.4925026e-02f, -1.5491560e-01f,
 8.2770772e-02f, -1.4588452e-02f,  3.7861224e-02f, -3.7400611e-02f, -2.5810694e-02f, -1.1975108e-01f, -5.2404050e-02f, -1.3849500e-01f, -3.3089459e-01f,
 4.8753310e-02f, -9.4014041e-02f, -1.8671554e-02f,  8.8933997e-02f,  5.3901538e-02f,  2.8534712e-02f,  1.2245304e-01f, -1.4842179e-01f, -2.8255960e-02f,
 4.6595424e-02f, -1.0418264e-01f,  6.3593686e-02f,  8.0834433e-02f,  9.6844295e-03f, -5.5275749e-02f,  1.9576086e-02f, -1.6461551e-02f,  2.2052323e-02f,
-7.8406669e-02f, -9.3314476e-02f, -2.4321237e-01f,  4.6980150e-02f, -9.7867064e-02f, -1.5953341e-01f,  8.0794550e-02f, -1.5866986e-01f, -1.8412871e-02f,
 7.8247122e-02f, -1.0282279e-03f,  3.8552359e-02f,  3.5550155e-02f, -1.0348380e-01f,  3.6222454e-02f, -1.0937020e-02f,  8.2833737e-02f,  4.6794739e-02f,
 3.1275616e-03f, -5.7110034e-02f, -6.0263854e-02f,  6.6013984e-02f,  8.0391996e-02f,  1.0030232e-01f,  2.3128462e-01f, -2.2773883e-01f,  3.2495317e-01f,
 3.2163430e-02f,  4.7759574e-02f,  6.0093510e-01f,  3.0117759e-01f, -1.3017906e-01f,  3.2982763e-02f,  7.1040764e-02f, -1.3237670e-02f,  1.5218869e-02f,
 6.0242172e-02f, -6.9891190e-04f,  2.0020691e-01f, -9.1843545e-02f,  3.1098992e-02f,  1.4830047e-01f,  4.5284756e-02f,  6.6905484e-02f, -5.4096170e-03f,
 7.4969433e-02f,  1.0393625e-01f, -1.7508252e-01f, -6.4484999e-02f,  1.9910926e-01f,  5.8776639e-02f, -2.7934175e-02f,  2.4646074e-01f, -1.4250118e-01f,
 6.4195806e-01f,  2.2087181e-01f, -8.1658714e-02f,  5.1977545e-02f, -1.3230973e-01f,  1.4184206e-03f,  6.3591683e-01f,  4.3220583e-02f,  4.9545133e-01f,
-9.3080342e-02f,  1.9151528e-01f,  7.4936397e-02f, -6.0927696e-03f, -2.4239123e-02f,  5.8559254e-02f,  1.6795546e-02f,  2.1241674e-02f,  9.8068736e-02f,
-1.9609028e-02f,  2.3103956e-02f,  8.7144554e-02f, -8.6316839e-03f,  6.1116692e-02f, -6.8125064e-03f, -1.2514031e-01f, -7.0154123e-02f,  2.7363745e-02f,
 6.3927613e-02f,  6.2030859e-02f, -2.3294794e-03f,  8.0333687e-02f,  4.7028430e-02f,  1.0065945e-01f, -6.6063315e-02f,  1.0457686e-02f, -1.3117520e-02f,
-5.3919381e-01f, -2.3064706e-02f, -4.4582020e-03f, -3.3421442e-01f, -4.7675889e-02f, -2.2142230e-01f, -1.2507083e-01f,  6.7544468e-02f, -6.8810135e-02f,
 1.0075792e-01f, -1.2028386e-01f, -2.2987360e-01f, -2.0735983e-02f,  4.1058356e-01f,  4.1333720e-02f,  7.9513662e-02f, -1.0754545e-01f,  2.1561652e-03f,
 8.7394223e-02f,  4.2935640e-02f, -5.6951391e-03f, -6.5947168e-02f, -4.6214808e-02f,  2.2335280e-02f, -2.2570856e-02f, -1.3647404e-02f, -2.5880150e-02f,
 9.3984645e-04f, -8.3021022e-02f, -5.4662373e-02f,  5.6943953e-02f, -9.9442489e-02f,  2.6236644e-02f, -3.4261722e-02f, -1.2205610e-01f,  9.0827137e-02f,
 4.6763308e-02f,  9.9412180e-02f,  2.1476852e-02f,  6.8069929e-03f, -6.8730703e-03f,  2.5776744e-02f,  1.2198533e-01f,  2.4210623e-01f,  1.7550842e-01f,
-5.1937919e-02f, -1.4934161e-01f,  2.4394793e-02f, -6.6771448e-02f,  7.6601118e-02f,  4.1989680e-02f, -8.1571475e-02f,  2.0038383e-02f,  3.0931619e-03f,
-6.8382613e-02f, -3.3576317e-02f, -2.0585558e-01f,  1.3653859e-01f, -1.3283381e-01f, -1.0275572e-01f,  1.8083982e-01f,  1.8125752e-01f,  2.7957242e-02f,
 5.5507772e-02f,  4.7721531e-02f,  2.1457996e-03f,  4.9047269e-02f,  1.9092189e-01f,  1.3244174e-02f,  3.6701292e-02f, -3.6845809e-01f, -4.0872402e-02f,
-3.4968159e-01f,  1.4542158e-01f, -4.9531974e-02f,  2.1112305e-01f,  1.0279881e-02f, -3.0349255e-01f,  4.8765585e-01f,  5.4501489e-02f,  3.0911905e-01f,
 3.6310437e-01f,  2.7688387e-01f,  2.6837137e-02f,  2.8739870e-01f,  9.9838793e-02f,  6.3999586e-02f, -5.7050928e-02f,  2.4486855e-01f,  1.6266315e-01f,
-4.6063950e-03f, -2.5822058e-01f,  8.9836800e-03f,  2.5810177e-02f, -3.9621338e-02f,  8.6621204e-03f, -4.9536765e-02f, -5.8465425e-02f, -2.8812308e-03f,
-1.3289507e-01f, -2.9436516e-02f,  2.3644115e-01f, -8.1667081e-03f, -1.5360542e-01f, -5.2778987e-04f,  4.3750994e-02f, -2.4404198e-01f,  1.6135338e-01f,
-3.7365606e-01f, -2.4461101e-01f,  4.5996755e-02f,  1.2629792e-01f,  6.7839667e-02f,  1.9227115e-02f,  5.8614478e-02f, -2.7671603e-02f, -1.1861292e-01f,
 2.1053770e-01f, -6.1391227e-02f, -2.2343574e-01f,  1.7582966e-02f,  9.1782818e-03f, -1.4262336e-01f,  3.4464815e-01f, -4.8248423e-03f,  1.5629566e-01f,
 1.2975582e-02f,  1.3334548e-01f,  3.3221558e-02f, -5.9546664e-02f, -1.2809739e-03f, -8.3286185e-03f, -1.2969863e-01f, -1.9587174e-01f, -3.2151848e-02f,
-1.1688397e-01f, -5.7069872e-02f, -1.8233659e-02f, -1.2060056e-01f, -6.1935548e-02f, -1.8679507e-02f,  5.0145529e-02f,  7.5767472e-02f, -2.4231543e-01f,
-2.3250043e-01f, -5.3398501e-02f, -8.3595403e-02f,  2.7405518e-01f,  1.8458073e-01f, -1.8844290e-02f,  1.2930930e-01f,  3.3318964e-01f,  1.4470278e-01f,
 1.9217817e-01f,  5.6531664e-02f, -6.8356581e-02f,  5.6509100e-02f,  3.6675015e-01f, -2.3498423e-02f, -1.2580203e-01f, -4.9895234e-02f, -4.6237577e-02f,
-7.7556185e-02f,  1.7425810e-01f,  1.2734321e-01f, -4.0388945e-03f,  4.0320199e-02f, -2.2168577e-02f,  3.3146873e-02f, -1.9051687e-01f, -1.3364486e-01f,
-9.0872303e-02f,  1.9422856e-01f,  3.1595838e-01f,  1.3876445e-02f,  2.0594281e-01f,  8.6319439e-02f,  1.4634711e-02f, -1.3883430e-01f,  1.2998955e-01f,
-3.6959937e-01f,  3.6771249e-03f,  1.1022149e-02f,  2.6521172e-02f,  4.4718903e-02f,  2.9535977e-02f, -1.2334825e-01f,  7.2365709e-02f, -2.5554676e-02f,
-2.2255843e-40f, -6.2401222e-41f,  4.1882569e-40f, -6.9453957e-41f,  1.4620588e-40f, -1.3273379e-40f,  3.0943753e-40f,  6.7958772e-41f,  1.4271945e-40f,
 5.8563766e-40f, -3.4540326e-40f,  2.0308038e-40f, -5.5131566e-40f,  6.5184201e-41f, -1.2807868e-40f, -3.2250884e-40f, -2.0731650e-40f,  3.9473036e-40f,
 4.9151805e-40f, -1.1977178e-40f, -4.6214823e-40f, -4.6945601e-40f,  2.9335623e-40f, -3.0631263e-40f,  5.5912650e-40f, -5.6890195e-40f, -1.5710658e-40f,
 5.9045112e-40f,  4.3948083e-40f, -4.0031454e-40f,  5.5561484e-42f, -4.0700994e-40f, -6.0538196e-40f, -2.6021832e-40f,  3.3926697e-40f, -2.6129452e-40f,
-2.7284963e-40f, -1.2807027e-40f,  3.0977524e-40f,  9.7398651e-41f,  1.2790772e-40f, -2.9841492e-40f, -5.5068647e-40f,  4.8297994e-40f, -5.5708901e-40f,
-3.1584006e-40f,  1.0026991e-40f,  2.2916835e-40f,  4.5825262e-41f, -4.2456261e-40f,  5.5831374e-40f,  4.7288358e-40f,  1.9427602e-41f,  1.3008534e-40f,
-1.5881196e-40f,  2.0168609e-40f,  4.1080466e-41f, -1.1545718e-40f, -5.2010594e-41f,  6.0736059e-40f, -4.0332733e-40f,  2.4187392e-40f, -2.9858307e-40f,
 5.7891283e-40f, -1.8211135e-40f,  4.4955196e-40f,  1.0351111e-40f,  2.2461974e-40f, -5.4469032e-40f, -1.4202020e-40f,  3.1599280e-41f, -4.1286036e-40f
}
,
{
 5.6252774e-02f, -6.4272821e-02f, -2.4346244e-02f,  5.1413471e-04f,  2.9732045e-02f, -4.0843438e-02f,  6.0021255e-02f, -3.3540599e-02f,  1.0117986e-02f,
-6.2177602e-02f, -6.5546319e-02f,  1.5098450e-01f,  9.9960141e-02f, -7.8149317e-03f,  2.2520229e-01f,  3.2089151e-02f, -8.2748696e-02f, -7.7223241e-02f,
-4.6065124e-03f, -1.1548950e-01f, -7.7407919e-02f, -6.1463650e-02f, -5.3971663e-02f, -1.8915791e-02f, -6.4073607e-02f, -1.0331546e-01f,  2.2298381e-01f,
 1.6874863e-01f,  3.4939897e-01f, -7.9363674e-02f,  1.6225605e-01f,  1.0563868e-01f,  4.0722597e-02f, -2.1072251e-01f,  2.8810427e-01f,  1.8039730e-01f,
-5.6048167e-01f, -5.9646707e-02f, -2.1918051e-01f, -7.5319342e-02f,  1.1656567e-02f, -2.2843459e-03f,  1.4070731e-02f, -1.3162400e-01f,  2.9053003e-02f,
-5.4058824e-03f, -5.2117392e-02f, -5.4281872e-02f, -1.1560428e-01f,  3.2716557e-02f, -1.7314951e-01f,  7.7100530e-02f, -2.6990563e-02f,  1.9553398e-01f,
-6.2363371e-03f, -6.9387937e-03f, -3.5595561e-03f, -6.3754156e-02f, -5.7961281e-02f,  2.0815980e-01f,  4.9637094e-02f, -2.4079141e-01f,  2.0266233e-01f,
-2.0873228e-02f, -2.6712839e-02f,  5.0359257e-02f, -9.9135682e-02f,  7.6288737e-02f, -3.9322417e-02f, -7.9538487e-03f, -7.3322975e-03f,  5.6099575e-02f,
-7.9090171e-02f, -5.2566264e-02f,  3.6456160e-02f, -1.7527862e-02f, -1.0417531e-02f,  5.3620026e-02f,  1.1137457e-01f,  2.3523577e-02f, -2.9223093e-01f,
 6.2090464e-02f, -1.5518444e-02f,  1.4407944e-02f,  1.0930717e-01f,  1.4197604e-01f, -1.9300269e-02f, -6.4296305e-02f,  1.5758705e-01f, -1.5613544e-02f,
 6.4489879e-02f,  3.7499975e-02f, -6.1608747e-02f,  6.5650926e-03f, -5.4983474e-02f,  5.8949780e-02f,  6.8755813e-02f,  1.4570219e-02f,  4.6982594e-02f,
 3.8646542e-02f,  3.6056936e-02f,  2.3511855e-02f, -1.8338211e-01f, -3.1415429e-03f,  1.5738398e-01f, -1.0243244e-01f,  5.2743413e-02f,  1.6849592e-01f,
 9.3865767e-02f, -2.6609318e-02f,  6.2511432e-01f, -4.1202821e-02f,  1.5413308e-01f,  1.3090543e-01f,  3.0801907e-01f,  1.7535405e-02f, -1.0339423e-01f,
-4.6435494e-02f, -1.7908517e-01f,  1.0781002e-01f, -6.1287887e-02f, -2.9987937e-02f,  6.7940108e-02f, -2.8204881e-02f, -1.8571502e-02f,  1.2499021e-02f,
 1.7003237e-01f,  1.7848469e-02f, -1.2535669e-01f, -7.5896807e-02f,  5.8776909e-03f,  1.0272533e-02f, -2.0889228e-02f,  5.1079210e-02f,  1.7901589e-01f,
-2.9534729e-02f, -1.5965898e-01f, -9.4541319e-04f,  3.1154564e-01f,  1.6687876e-01f, -7.4531227e-02f, -2.2712661e-02f,  5.4462396e-02f, -1.6412014e-02f,
 1.1164647e-01f, -2.7998754e-01f,  9.9509984e-02f,  4.3675747e-02f, -7.3235653e-02f, -7.1554057e-02f,  5.6847032e-02f, -4.6649199e-02f,  5.0210979e-02f,
-4.7415416e-03f,  2.7974168e-02f,  6.9894575e-02f, -4.5907687e-02f,  1.0607649e-01f, -7.4696027e-02f,  8.1277348e-02f, -1.0337628e-01f,  5.6419324e-02f,
-6.6716328e-02f,  8.1062717e-03f,  2.2705210e-02f,  5.8972422e-02f, -1.1353950e-02f, -5.9917692e-02f, -5.2363623e-04f,  7.0565328e-02f,  3.7042007e-01f,
-2.6116672e-01f, -1.5148015e-02f,  1.8637531e-01f,  1.0543952e-01f,  8.1522264e-02f,  1.7659833e-01f, -4.9272820e-01f,  2.0812677e-01f, -1.0920399e-01f,
 2.1734875e-01f, -2.1053287e-01f, -1.4918475e-01f, -9.2037499e-02f, -2.2504281e-03f, -1.2935962e-01f, -3.1581365e-02f,  5.2208804e-02f,  2.2477033e-02f,
-6.4008869e-02f,  4.8207901e-02f,  8.1039071e-03f, -1.7697306e-01f,  5.5685028e-02f,  7.9064429e-02f, -5.2748885e-02f, -3.4152895e-02f,  1.0851169e-01f,
-5.6261621e-02f, -6.5540768e-02f,  1.8499864e-02f, -5.8923983e-03f, -1.3699155e-01f, -1.7062137e-02f, -2.6939312e-02f,  7.2187223e-02f, -2.3303014e-01f,
 5.1810771e-02f,  2.0692538e-02f, -3.1967282e-02f, -4.4722401e-02f, -9.6807957e-02f, -5.0166864e-03f,  8.9722261e-02f, -2.9916035e-02f, -1.4380034e-03f,
-2.5907267e-02f,  8.8601753e-02f, -8.4752701e-03f,  2.7323667e-02f,  6.6774376e-02f, -4.5365025e-04f, -3.3260752e-02f,  5.0418790e-02f, -1.4200535e-01f,
 2.9336801e-01f,  8.0675654e-02f,  9.1342270e-02f,  2.0167929e-01f,  1.0826492e-01f,  1.3287006e-01f,  9.3090869e-03f,  8.4467150e-02f,  1.3753408e-01f,
 1.5770788e-01f, -5.0968438e-02f, -7.5083070e-02f, -6.4140983e-02f,  1.9831397e-02f, -2.8054310e-02f,  1.1137878e-02f,  1.0063050e-02f, -1.1466584e-01f,
 1.0689424e-01f,  5.6608390e-02f, -2.3873951e-02f, -1.3907190e-01f, -3.0978888e-02f,  2.1769424e-01f,  1.6348219e-02f,  5.6269106e-02f,  5.0565034e-01f,
 2.2799049e-01f, -4.6306726e-02f, -1.6180013e-01f, -2.5365893e-02f, -4.2422339e-01f,  1.0062621e-01f,  1.1368898e-01f,  4.6003768e-01f, -3.7473339e-01f,
-2.7812546e-02f, -7.2322576e-03f,  3.5265293e-02f,  6.5046363e-02f,  3.6230322e-02f, -1.4727304e-02f, -6.6861529e-03f, -7.2335780e-02f,  1.8385056e-02f,
-5.1689111e-02f, -3.7730146e-02f,  2.6834106e-02f,  1.7968036e-02f,  3.7263427e-02f,  3.4161874e-03f,  4.4329196e-02f,  9.4687179e-02f,  6.3120857e-02f,
 5.7574406e-02f,  2.9047246e-03f, -1.1624333e-01f, -2.0554313e-01f,  3.3559242e-01f, -3.6746927e-02f,  6.8374455e-02f, -1.4479892e-01f,  3.4683462e-02f,
-1.2130270e-01f, -2.2488344e-02f,  8.3382845e-02f,  3.5084113e-02f,  3.5354748e-02f,  9.4526105e-02f,  1.1142575e-01f,  4.8819073e-03f, -5.1772892e-01f,
 1.3473533e-01f,  4.5848124e-02f,  1.9123428e-02f,  1.8671381e-01f,  1.4432489e-02f,  4.9624816e-02f, -2.9519364e-02f, -8.0393426e-02f, -1.1418749e-01f,
-1.1732377e-02f,  1.0073103e-02f, -4.0167321e-02f,  1.5937188e-01f, -5.4368973e-02f,  3.7739791e-02f,  3.0203706e-02f,  2.8576408e-02f,  4.5493994e-02f,
 1.6995014e-01f,  1.2870544e-01f,  1.1291566e-01f, -3.9246693e-01f,  6.4546362e-02f,  3.5952076e-01f, -7.4794076e-02f, -2.1405946e-01f,  3.4098971e-01f,
 3.5050470e-01f, -3.4273556e-01f,  2.3412223e-01f, -3.7271583e-01f,  1.6680716e-01f, -7.7261053e-02f,  6.0591169e-02f, -4.0847206e-01f,  1.8090457e-01f,
-1.0813173e-01f, -3.6726367e-02f, -8.5392922e-02f, -9.4719831e-04f,  5.8873698e-02f,  4.6503134e-02f, -5.5316794e-03f, -6.2428672e-02f, -7.4636233e-03f,
-1.1468449e-02f, -3.0223446e-02f,  7.7290654e-02f, -2.9447780e-03f, -1.0362189e-01f,  4.0230226e-02f,  6.2184416e-02f,  3.7100658e-02f,  3.4045313e-02f,
-7.7899486e-02f,  8.3039142e-02f,  6.0207352e-02f,  3.8794056e-02f, -2.0305032e-01f,  6.8803512e-02f,  3.7225801e-02f,  6.6454090e-02f,  2.7365435e-03f,
 3.4689406e-01f,  1.4642358e-01f, -4.6633306e-01f, -8.9785926e-02f, -8.0163538e-02f,  3.7079293e-02f, -5.0103180e-02f,  2.2281898e-02f, -1.2389345e-01f,
 1.2321228e-01f,  1.4503752e-01f,  1.9666621e-01f, -2.4386600e-02f, -3.9168969e-02f,  6.1740112e-02f, -3.3439539e-02f, -2.0665962e-01f, -2.4935955e-01f,
 1.4998852e-01f,  3.8110830e-02f, -5.0309096e-03f, -3.7751812e-02f,  4.2921859e-03f,  1.9047597e-02f, -2.9650196e-02f,  2.2609347e-02f,  2.9642317e-01f,
 3.0607317e-02f,  1.0089059e-01f, -7.9021372e-02f,  1.7668629e-01f,  2.3274885e-02f,  1.1102121e-01f, -2.8170750e-01f, -4.8806602e-01f, -1.9084141e-02f,
-3.0007532e-02f,  8.5977733e-02f, -8.1250221e-03f, -2.1153249e-02f, -1.4782280e-01f,  1.1509787e-01f, -1.6011551e-01f, -6.5113723e-02f,  1.7251307e-02f,
 1.0958258e-02f,  6.3693756e-03f, -2.0385366e-02f,  3.2192726e-02f,  2.6056079e-02f,  1.6708115e-01f,  8.5393503e-02f, -9.4662178e-03f, -5.8575552e-02f,
-6.7723036e-02f, -4.6244517e-02f, -3.9861541e-02f, -2.7531901e-02f,  9.5312782e-02f, -1.3991570e-01f, -1.4760484e-02f,  5.5931166e-02f,  7.4576318e-02f,
 2.2443298e-02f,  1.6440127e-02f, -4.7505047e-02f, -7.5981118e-02f,  1.4988223e-02f,  7.3433872e-03f,  4.8300948e-02f,  1.0112696e-02f, -3.0205740e-02f,
-8.4263660e-02f, -2.8762447e-02f, -4.2654663e-02f, -1.5925860e-02f,  7.3290244e-02f, -1.3401645e-01f,  1.1263797e-01f, -2.5302054e-02f,  1.0191529e-01f,
-1.2610405e-02f,  9.2470482e-02f, -9.1200024e-03f,  2.2546407e-02f, -3.3809185e-01f, -4.4690907e-02f, -1.1417696e-02f, -6.4255647e-02f, -8.3766237e-02f,
-7.7241749e-02f, -7.2328322e-02f, -2.9015133e-02f, -4.4369470e-02f, -5.3575367e-02f,  4.8227906e-02f,  2.2950148e-02f, -5.0991967e-02f, -2.1021377e-01f,
 1.3547772e-01f,  7.9944164e-02f,  1.4262038e-01f,  3.4691479e-02f,  5.8367152e-02f, -6.6510536e-02f, -5.7268860e-03f,  1.2422813e-01f,  7.1039975e-01f,
-2.6971537e-01f,  6.5253571e-02f, -1.2200621e-02f, -4.3062244e-02f, -6.3814178e-02f, -7.0981279e-02f,  1.4966602e-02f, -9.4208449e-02f,  7.1349055e-02f,
-3.3366090e-01f, -8.4220767e-02f,  2.2813817e-02f,  4.3744117e-02f, -9.6191213e-02f, -5.4129113e-02f,  2.5410976e-03f, -1.7025771e-02f,  1.2415620e-02f,
 2.3677249e-01f, -4.6279032e-02f, -1.0556931e-01f, -9.2383966e-02f,  7.4355133e-02f, -7.2158843e-02f,  1.1460926e-01f, -9.0492398e-02f,  3.9072818e-01f,
 5.0052088e-02f, -1.2044692e-02f, -5.3328287e-02f, -4.7068492e-02f,  1.0848425e-01f, -4.1287765e-02f, -5.8205139e-02f,  2.4710484e-02f,  2.2960749e-02f,
 1.6330105e-01f,  2.3988600e-01f, -1.6047761e-01f, -8.9028656e-02f, -5.3731911e-02f, -1.4885692e-01f, -8.4579811e-02f, -5.4983649e-02f,  6.6130286e-01f,
 3.9819279e-01f,  9.8742202e-02f, -8.6339347e-02f, -2.4617720e-01f,  4.0598199e-02f, -1.0747091e-01f,  1.4773281e-01f,  1.5496667e-01f,  1.8451400e-01f,
 4.4282116e-02f, -2.7545813e-02f, -1.2889807e-02f, -1.4219402e-01f, -6.5695301e-02f, -2.5545636e-02f,  1.7102659e-01f,  3.6888372e-02f, -6.0187284e-02f,
 6.0378116e-02f,  8.6133413e-02f,  2.0223483e-03f,  1.5385550e-01f,  3.3024859e-02f,  1.5072572e-01f,  1.1023191e-01f,  1.9495329e-01f,  2.8401056e-01f,
 1.9503281e-01f, -2.8672606e-01f,  1.4041199e-01f, -1.0138378e-01f,  1.7400445e-01f,  4.4804229e-03f,  8.3290912e-02f, -6.6549622e-02f,  8.2202330e-02f,
-3.3621868e-01f,  6.9960901e-03f,  6.3886426e-02f,  9.0985181e-04f, -4.4139796e-03f, -7.5190015e-02f, -3.0486360e-02f, -1.0060413e-03f,  1.9191494e-02f,
 2.6137812e-02f,  1.2402514e-02f,  1.0917095e-02f, -4.8274742e-03f, -6.8429016e-02f,  5.0306503e-02f, -4.5930763e-04f, -2.2104176e-02f,  2.3149054e-02f,
 1.6215336e-02f, -1.3322388e-02f,  2.0018216e-02f,  3.7390646e-02f, -1.1084008e-02f, -1.8789193e-02f,  1.9047892e-02f, -1.8819552e-02f,  1.0783415e-02f
}
,
{
 2.5041785e-02f, -6.5982141e-02f, -1.2730505e-02f, -1.4535949e-40f,  2.5151992e-02f,  5.2301363e-40f, -5.4027202e-40f, -3.5156511e-02f, -5.3265825e-02f,
 1.1384965e-01f,  5.4326035e-02f, -1.7049038e-40f, -3.2877993e-02f, -2.9923047e-40f,  4.4355300e-41f,  6.8336941e-02f,  3.8484145e-02f,  3.0091312e-03f,
-2.6581405e-02f, -2.6780775e-40f,  2.1626445e-02f,  3.8688449e-41f, -3.2143545e-40f,  1.6149249e-02f,  3.7189065e-03f,  1.2329969e-01f,  5.1752903e-02f,
 4.5791631e-40f,  1.9879234e-01f,  3.1575318e-40f, -4.8838054e-41f, -5.8649774e-03f,  1.0492724e-01f,  6.1875838e-01f,  6.8199714e-03f,  1.4488585e-40f,
 2.9080117e-02f,  1.1503679e-40f, -3.8595403e-40f,  6.0604906e-01f,  1.4458691e-01f,  5.7144679e-02f,  4.3246346e-03f,  1.3644723e-40f, -3.0330720e-03f,
 5.5654811e-40f,  2.5064465e-40f,  3.1738453e-02f, -3.7441913e-02f, -4.3835077e-02f, -6.9962665e-02f, -5.8774381e-40f, -2.3380142e-01f, -3.4499268e-40f,
 4.0364823e-40f,  9.3305632e-02f, -1.5744446e-01f, -6.8185687e-01f, -1.5617506e-01f, -2.2505134e-40f, -2.3577729e-02f,  2.3049818e-40f, -1.0194727e-40f,
 2.1498536e-01f,  1.9956563e-01f, -1.0917002e-01f,  2.5192460e-01f, -4.7570580e-40f,  1.1870588e-01f, -6.3766087e-41f,  4.8355587e-40f,  1.3609004e-01f,
-1.9203061e-02f,  3.2006439e-02f,  2.2890471e-02f,  3.3670119e-40f, -3.1823598e-02f,  1.3282348e-40f,  4.4498513e-40f,  6.4042695e-02f,  1.6255967e-02f,
-2.0627251e-03f,  6.1421473e-02f,  1.5397608e-40f, -5.5094764e-02f,  4.5849225e-40f, -4.4871118e-40f, -1.0253264e-02f,  4.2906115e-03f, -6.9043458e-02f,
 5.2832119e-02f, -3.3819498e-40f,  3.1338103e-02f,  3.5308377e-40f, -2.4560979e-40f, -6.2812911e-04f, -3.1636998e-02f,  7.2219409e-02f, -9.8368652e-02f,
 2.6302512e-40f, -3.2198917e-02f, -2.6656901e-41f,  4.1686527e-40f,  4.6827879e-02f,  5.0286674e-01f, -3.2392579e-01f, -1.1451651e-01f, -1.9433768e-40f,
-4.3819591e-01f,  5.9828578e-40f,  5.2238865e-40f, -3.9618507e-01f, -6.9504164e-02f, -2.6657131e-02f,  1.7419514e-01f, -5.5555038e-40f,  4.1391086e-02f,
 3.2790664e-40f, -5.7603176e-41f, -9.2632733e-03f,  1.4677315e-03f,  1.3522972e-02f,  2.0392132e-01f, -4.3830094e-40f, -4.1207481e-02f, -2.8347988e-40f,
-1.5210534e-40f, -8.1751615e-02f, -8.9983910e-02f,  1.8099450e-01f, -1.1321687e-01f, -2.8749740e-40f,  3.7475491e-01f,  2.5810096e-40f, -3.5768143e-40f,
 9.9082567e-02f, -9.0375543e-02f,  4.9167655e-02f,  9.8461740e-02f, -3.0787929e-41f, -1.8548319e-01f,  5.5790737e-40f,  3.6385135e-40f,  4.4295932e-03f,
 4.0577605e-02f,  7.1367003e-02f, -3.3546947e-02f,  5.6364288e-40f, -1.4459976e-02f,  4.2613346e-40f,  1.6088588e-40f,  7.1594156e-02f,  2.4004072e-02f,
 9.8283410e-02f, -2.8993055e-01f,  3.1306549e-40f, -8.7834269e-02f,  3.2607374e-40f,  4.1623609e-40f,  3.9860073e-02f,  3.4043649e-03f,  1.0424790e-01f,
 7.0079908e-02f, -2.3063971e-41f, -3.2342855e-02f, -2.0788543e-40f,  4.5114384e-40f,  8.1088439e-02f,  7.5915784e-02f,  2.2286132e-01f,  8.2477681e-02f,
 2.8908647e-40f,  2.4023436e-01f, -3.9053768e-40f,  1.6438352e-40f,  1.7750321e-01f, -1.3563825e-01f, -5.9373814e-01f, -1.9880660e-01f, -5.8114930e-40f,
 7.1916467e-01f, -2.5607889e-40f, -3.6331045e-40f, -1.2381018e-01f, -9.0295963e-02f,  1.0014252e-01f,  1.2848821e-01f,  2.9851861e-41f, -1.8559264e-01f,
-2.7637529e-40f,  6.4961394e-41f,  1.4476427e-01f,  3.4156039e-02f,  6.5699503e-02f, -2.7802280e-01f, -1.9272758e-40f, -6.7635034e-03f,  4.5026943e-40f,
 5.0899224e-40f,  2.3416379e-02f,  7.2493739e-02f,  1.3618147e-02f, -1.5621495e-01f, -7.5503363e-41f, -9.4409496e-02f,  2.7064679e-40f,  6.1036497e-40f,
 1.2818941e-01f, -2.0037143e-02f, -7.4045315e-02f,  6.2712438e-02f, -6.0335147e-40f, -1.7890459e-02f, -4.5593347e-40f,  2.4827926e-40f,  1.0815686e-02f,
-6.4613678e-02f,  1.0481483e-01f,  1.3027579e-02f,  5.8073452e-40f, -5.8334090e-02f,  1.6336337e-40f,  5.8681055e-40f,  5.5296235e-02f, -1.7300802e-03f,
 3.0734237e-02f,  1.4715979e-01f,  2.9251825e-40f,  1.8886134e-01f, -2.0391415e-40f, -5.7259017e-40f,  5.5199184e-02f, -3.3443954e-02f,  1.0431332e-02f,
 2.0434275e-02f, -1.3037541e-40f,  6.1546762e-02f, -5.9017086e-41f, -1.5370563e-40f, -2.1253174e-02f, -2.7949584e-01f, -2.1314062e-01f, -4.4070843e-01f,
 5.2260305e-40f, -2.6151818e-01f, -7.9899236e-41f,  5.2654070e-40f,  1.7214134e-01f,  7.1350670e-01f, -7.2817355e-02f,  3.8359004e-01f,  3.8172351e-40f,
 6.6721767e-01f, -2.9869658e-40f,  4.7411813e-40f,  2.0542084e-01f,  4.2825423e-02f,  1.2036048e-01f, -1.6655218e-03f, -2.0388753e-40f, -1.2486084e-01f,
 5.6389932e-40f, -2.0264738e-40f, -3.7858838e-03f,  2.4796631e-02f, -5.4179851e-02f, -2.0297199e-01f, -2.1905098e-41f, -4.8128262e-02f, -2.5559684e-41f,
-4.8620853e-41f,  1.2831248e-01f,  5.4161908e-04f,  1.0500120e-01f,  1.5630953e-01f,  1.8472897e-40f,  1.0510026e-01f, -1.9786054e-40f,  4.9496804e-40f,
 3.2086983e-02f, -8.9676343e-02f,  2.7821494e-02f,  7.7085726e-02f, -2.9226322e-40f, -4.2619310e-02f,  9.4699750e-41f,  3.0175841e-40f, -5.1851425e-02f,
 3.8001880e-02f, -5.0656971e-02f,  9.6714245e-03f,  2.9956959e-41f,  3.0101391e-03f, -7.4048815e-41f,  4.2235136e-40f, -2.3685569e-02f, -2.7691580e-02f,
 8.7701522e-02f, -5.5841696e-03f,  2.6068215e-40f,  9.6379526e-02f, -2.3902368e-40f,  4.5380771e-40f,  1.2271500e-01f, -1.7757444e-02f,  7.0234463e-02f,
 7.9154661e-03f,  6.1323904e-40f,  6.6139840e-02f, -2.8496525e-40f,  4.6500688e-40f, -1.6009307e-02f,  1.9356470e-01f,  9.0348981e-02f,  1.4524657e-01f,
-4.3012856e-41f,  1.0201253e-01f, -1.8911924e-40f, -1.6123901e-40f, -2.0176086e-01f,  1.9598292e-02f,  1.4904740e-01f, -3.2228029e-01f,  5.1421208e-40f,
-2.3239583e-01f, -1.5589025e-40f, -1.9448902e-40f,  7.4756616e-01f, -1.0862394e-01f,  1.1612191e-01f,  1.1453922e-01f, -4.1156977e-40f, -1.8355577e-01f,
 5.5462693e-40f,  5.1497158e-40f, -3.4525897e-02f,  2.5734218e-02f,  5.9923988e-02f,  1.4526561e-01f,  2.1416044e-41f,  4.0018767e-02f, -2.1782484e-40f,
-1.2890825e-40f, -4.7055073e-02f,  1.1702522e-02f,  2.4928254e-01f, -3.0398875e-02f, -1.6613935e-40f,  2.2985104e-01f, -1.9532139e-40f, -1.6548774e-40f,
-3.7098673e-01f, -7.3912360e-02f,  1.7077827e-01f, -6.7042708e-02f, -3.0842579e-42f, -1.2979656e-01f, -2.3784939e-40f,  4.8348160e-40f, -1.9215767e-01f,
-6.0212979e-04f, -5.9109751e-02f,  9.4233043e-03f, -4.3402417e-40f, -1.1399693e-01f,  2.7539158e-40f, -2.0734873e-40f, -8.8029727e-02f,  1.6024414e-01f,
-7.4251570e-02f, -1.1296176e-02f,  2.8507035e-40f, -1.9220804e-01f,  4.0213903e-40f,  1.3423038e-41f, -2.5852691e-02f, -6.4591197e-03f,  9.8240655e-03f,
-1.0927092e-01f,  1.1559591e-40f, -3.4158431e-02f,  2.0731790e-40f, -4.4109372e-40f, -1.7086670e-02f,  3.1778868e-02f, -1.2005734e-01f,  7.9299718e-02f,
 3.8826197e-40f,  2.2871224e-02f,  7.0119574e-41f, -5.4217919e-40f, -2.0532818e-01f, -3.1048989e-01f,  1.3878509e-01f,  5.5286124e-02f, -3.0797177e-40f,
-6.8683642e-01f, -4.4199616e-40f, -1.1536750e-40f,  1.5214410e-01f,  1.2684223e-02f, -1.4322108e-02f, -1.1558233e-01f, -6.0684912e-40f, -1.0856264e-02f,
 7.3786772e-41f, -1.1663848e-40f, -1.8639421e-03f, -1.0097529e-01f, -7.5462624e-02f,  3.8172564e-01f,  5.4169995e-40f,  2.6311385e-02f,  2.6451891e-40f,
 5.6006256e-40f, -1.1236091e-01f, -1.8838634e-01f,  1.4406553e-02f, -5.4351479e-02f, -6.1857658e-40f,  2.5421828e-02f,  1.1970032e-40f,  3.4109286e-40f,
-2.4611884e-01f,  5.1387236e-02f, -6.9202008e-03f, -1.7889902e-01f,  9.3049021e-41f, -1.5189867e-02f,  2.8298101e-40f, -3.1433507e-40f,  6.3094124e-02f,
 5.2004304e-02f,  7.0279151e-02f,  5.4882083e-02f, -1.9491361e-40f,  3.2181736e-02f,  5.2720632e-40f,  3.4969123e-40f,  2.3828804e-02f,  3.1488973e-01f,
 1.7064835e-01f,  1.5118575e-01f, -1.9211382e-40f, -5.6346387e-02f,  1.9304007e-40f, -5.3458696e-40f, -5.0078100e-03f,  5.9716022e-01f, -2.5150070e-01f,
 1.8363079e-01f, -6.2722680e-40f,  3.2655276e-02f, -3.8489185e-40f,  3.9244765e-41f,  5.3854253e-02f, -7.2237901e-02f, -2.6289290e-02f, -8.8223256e-02f,
 3.9905897e-40f, -1.6912241e-02f, -3.9759041e-40f,  2.4028345e-40f, -9.6933628e-03f,  3.4332040e-01f,  3.8421464e-01f, -9.0083361e-02f,  1.2355529e-40f,
 8.4264271e-02f,  2.6184383e-40f,  5.7774275e-40f,  3.7047278e-02f, -2.0655061e-01f, -2.2051316e-01f,  4.8221102e-01f,  3.8682143e-40f, -7.9520501e-02f,
 1.2593609e-40f, -6.2972812e-40f,  4.7324622e-01f,  1.1013029e-03f, -2.8917538e-02f,  4.0890045e-02f,  2.8630489e-40f,  1.2788241e-03f,  1.5831310e-40f,
 1.8802343e-40f,  5.6975167e-03f, -5.0328072e-02f,  4.0073857e-02f,  5.6428820e-02f,  6.2303131e-40f, -7.1109615e-02f,  3.7178690e-40f, -4.6258264e-41f,
-8.6107545e-02f, -4.6117965e-02f, -7.1296327e-02f, -2.8537515e-01f,  5.3033962e-40f,  8.6585052e-02f, -3.4914893e-40f, -5.0716214e-40f,  6.5568604e-02f,
 9.4442285e-04f,  1.0357302e-01f,  1.2102051e-02f, -4.1904289e-40f, -4.2828579e-02f, -1.7681444e-40f,  3.4961976e-40f, -3.9768144e-03f,  2.7964298e-02f,
-1.8884659e-01f, -1.8176682e-02f,  4.8915826e-40f,  1.0777531e-01f, -6.9657145e-41f, -6.2312940e-41f,  2.0579619e-02f,  1.7671712e-02f,  2.3780046e-02f,
-3.1642658e-03f, -3.6125334e-40f, -6.8129495e-02f, -4.0745555e-40f, -2.7290007e-40f, -4.1930761e-02f, -8.6021975e-02f, -1.8883955e-01f, -6.9064476e-02f,
-5.5392628e-40f,  5.8156038e-03f,  8.0894158e-41f, -5.2709001e-40f,  6.9577128e-02f, -3.8280234e-02f, -4.3325594e-01f,  3.1852751e-04f, -2.4979827e-40f,
-2.3997793e-01f,  1.6950106e-40f, -3.2225381e-40f, -1.0415726e-01f,  2.8016826e-04f, -1.1465462e-01f, -7.0112780e-02f, -6.1876576e-40f,  1.9051774e-01f,
-1.0574058e-40f,  2.4244565e-40f, -2.5036654e-03f,  3.3824470e-02f,  3.3496987e-02f,  9.7308196e-02f,  2.7289447e-40f, -4.1854657e-02f, -1.0589893e-40f,
-3.6300497e-40f, -1.9197807e-02f, -6.7882732e-02f, -1.3461788e-01f,  1.0690749e-01f, -1.8348462e-40f,  1.0140304e-01f,  2.8465977e-41f, -2.0794288e-40f,
 6.2026851e-02f,  1.0528900e-02f, -3.4126531e-02f, -6.5919019e-02f, -5.6663185e-40f, -1.7139038e-02f, -2.7557936e-40f,  4.0541106e-40f, -1.0832650e-02f
}
,
{
-5.3429829e-40f, -5.9107617e-02f, -6.5220542e-02f,  3.0708755e-40f,  7.7037543e-02f,  8.8716848e-03f,  3.4851810e-01f, -3.2399952e-02f,  2.5716629e-41f,
 3.5468034e-02f,  8.8059336e-02f, -4.4880367e-40f, -1.6317300e-02f,  3.0912673e-02f, -3.1090707e-01f, -1.7328827e-01f,  5.7503684e-40f, -2.8771527e-02f,
 5.7933792e-03f, -2.7529910e-41f, -2.4118340e-02f,  6.6908658e-03f,  8.1154212e-02f, -2.7994657e-02f,  7.1679219e-41f,  6.8601882e-01f, -1.7280054e-01f,
-1.2649241e-40f, -4.3085791e-02f, -8.1790522e-02f, -3.2205322e-01f, -5.3679794e-02f,  6.2076401e-40f,  1.4232181e-01f,  1.5303352e-01f, -5.3936258e-40f,
-2.1512334e-01f, -4.7883263e-01f,  1.7102948e-01f,  4.1310295e-01f, -8.4201222e-41f,  1.1953865e-02f,  1.7662761e-01f,  5.0994652e-41f,  1.2288394e-01f,
 7.4919567e-02f,  2.4161664e-01f, -9.4691217e-02f, -4.2110700e-40f, -3.8233828e-02f, -1.2907626e-01f,  4.4003014e-40f,  1.8236832e-01f,  4.5842534e-01f,
-2.6892261e-03f,  7.6938011e-02f,  3.4850853e-40f,  7.1837105e-02f, -1.1748907e-01f, -2.1210754e-40f, -1.5438338e-01f, -1.0409750e-01f,  2.4141693e-02f,
-4.9596466e-02f,  1.3008534e-40f, -1.8832413e-02f,  5.7887193e-02f, -6.6421547e-43f, -1.1346355e-01f,  1.6655226e-01f,  5.5540007e-02f,  1.9649333e-01f,
 3.3016414e-40f,  4.7972292e-02f,  1.0684513e-01f, -1.8989136e-40f, -4.6141203e-02f, -4.7094361e-03f, -4.5752641e-02f,  3.2593880e-02f, -7.6473061e-41f,
 1.1622759e-02f,  2.2762591e-01f, -3.6630923e-40f, -4.0749788e-02f,  3.4768790e-02f, -5.0097060e-01f,  1.1543741e-01f, -1.8392182e-40f, -2.1686694e-03f,
 3.3796262e-02f,  4.1392395e-40f, -5.6413939e-04f, -1.3291297e-02f,  1.7503136e-01f, -1.8501421e-02f,  2.2772501e-41f, -4.9744481e-01f,  1.7629091e-01f,
-3.9056711e-40f, -1.5639928e-01f, -8.5570049e-03f,  1.4058004e-01f,  7.0248023e-02f,  1.2086760e-40f,  2.7751428e-01f,  3.8881510e-01f, -5.5599039e-40f,
-3.4505567e-01f, -4.0038288e-01f,  1.1311384e-01f, -6.9837898e-02f,  1.1564636e-40f,  1.7861910e-02f,  6.3539773e-02f,  6.9979444e-41f, -1.4440735e-02f,
 1.8417624e-01f,  1.5944572e-01f, -5.4278065e-02f,  6.5189806e-41f,  7.4286401e-02f,  6.4706631e-02f,  3.8983002e-40f, -2.0277530e-01f, -1.4695744e-01f,
-5.3975120e-02f, -2.9317096e-02f,  2.0074581e-40f,  3.1309195e-03f,  1.0045629e-01f,  5.6737174e-41f, -3.1402576e-01f,  3.2279050e-01f,  5.2325591e-02f,
-1.4890413e-01f,  2.5796083e-40f,  1.1029604e-03f, -8.1910603e-02f,  2.3997236e-40f, -6.2542252e-02f,  2.5712350e-02f, -6.2381994e-02f,  7.8661449e-02f,
 5.0574964e-40f, -6.1083597e-01f, -3.9717560e-03f, -9.4862301e-41f, -1.9622257e-02f, -2.6206899e-01f,  9.4113514e-02f,  3.7684884e-02f, -2.6260613e-40f,
-8.5678594e-03f,  4.6415888e-02f,  2.4255916e-40f,  1.6348271e-02f, -4.6149798e-02f, -5.6812453e-01f,  5.9594285e-02f, -2.5486256e-40f,  9.4955554e-03f,
 4.7357082e-02f, -3.7039962e-40f,  6.9859177e-03f, -6.4099073e-02f, -1.2081423e-01f,  8.9526683e-02f, -3.9885579e-40f, -4.5245528e-01f,  7.3693871e-02f,
 1.6373612e-40f, -9.3141988e-02f, -3.2623053e-01f, -8.5808694e-02f,  2.2956541e-01f, -6.0643854e-40f, -1.2125622e-01f, -1.6443729e-01f,  3.5438838e-42f,
 1.0367712e-02f, -1.8984447e-01f, -9.8660607e-03f, -2.9681227e-01f,  2.9263596e-40f, -3.7368149e-02f,  2.4784310e-02f, -1.0385023e-40f, -5.6585282e-02f,
-5.7891142e-02f, -2.3064399e-02f, -1.6328749e-01f,  8.9627050e-41f,  2.5624435e-02f, -3.0807815e-03f,  3.6145233e-40f,  8.4212720e-02f, -2.2087558e-01f,
-1.6453209e-03f, -1.3206440e-01f, -3.0549848e-40f,  1.2086682e-02f,  2.7398532e-02f, -2.4341956e-41f,  1.0775508e-01f, -4.2041991e-02f, -1.8327547e-02f,
-4.3807741e-02f, -2.3455915e-40f, -1.5430645e-02f, -2.9215650e-04f, -3.0115165e-40f, -1.0314784e-01f, -2.5307018e-02f,  2.4281763e-03f,  3.8853910e-02f,
-4.8855430e-40f,  6.0313147e-40f,  2.4427995e-40f, -6.0008505e-40f,  8.7872624e-41f,  1.0260167e-40f,  1.5942713e-40f,  1.7529403e-40f, -4.8866921e-40f,
 1.8403813e-40f, -3.0160147e-40f, -5.2386142e-41f, -5.3947469e-40f,  5.0442681e-40f,  4.6894173e-40f, -3.8429209e-41f, -5.0492007e-40f, -7.2005722e-41f,
 2.3183502e-40f, -1.2503786e-40f,  1.1714435e-40f,  7.5150235e-41f, -6.2729686e-40f,  1.4443323e-40f, -1.0706201e-40f,  6.0696542e-40f, -4.9114110e-40f,
 2.9236551e-40f,  7.5534191e-41f,  1.4402405e-40f,  3.8054362e-40f, -4.0828793e-40f,  5.3826536e-40f, -9.1199307e-41f,  5.6685045e-40f, -1.2289948e-40f,
-1.1871100e-40f, -5.1951879e-40f, -3.7913531e-41f, -2.5643482e-40f, -1.6413409e-40f,  5.8964678e-40f, -3.6020237e-40f, -1.1502278e-40f, -5.4011928e-40f,
-5.3809861e-40f, -1.4429170e-40f, -5.4820898e-40f,  1.4713634e-40f,  5.4829726e-40f,  2.2618218e-40f, -3.5886693e-40f,  3.8269461e-41f,  6.2239512e-40f,
 1.6924743e-40f,  1.6826792e-40f, -3.4023527e-40f,  1.3014419e-40f, -2.8145220e-40f, -6.1809874e-40f, -1.4913319e-40f,  1.8661092e-40f,  5.1566382e-41f,
-1.1628255e-40f, -4.4880927e-40f,  1.5585242e-41f,  2.1148957e-40f, -1.6288693e-41f, -3.1801768e-40f, -8.2983494e-41f, -1.7908594e-40f,  2.2440954e-40f,
 3.2361447e-40f, -3.6026515e-02f,  2.3559442e-02f,  2.5437771e-41f, -3.4707408e-02f,  7.1850076e-02f, -3.7919912e-02f,  5.2451134e-02f,  2.0857627e-40f,
-6.3004340e-03f, -8.6948976e-02f,  5.1228950e-40f,  1.2517557e-02f,  4.8769929e-02f,  2.4697715e-01f,  1.0179149e-01f,  3.8836006e-40f,  1.5237190e-02f,
-3.8350023e-02f, -2.4915367e-40f,  9.4678989e-03f, -1.5081064e-02f,  5.0019044e-02f,  4.8486907e-02f,  2.0948711e-40f,  6.0743016e-01f, -2.9547009e-01f,
 1.3515804e-40f,  1.2253532e-01f,  4.8071510e-01f, -1.4245978e-02f, -2.1019706e-01f,  5.9633097e-40f,  9.2522740e-02f,  7.0186996e-01f,  3.3553391e-40f,
 1.9394447e-01f,  2.5477251e-01f,  2.8738841e-01f, -4.4344521e-01f, -1.7877766e-41f, -4.7369795e-03f, -8.3978824e-02f,  8.5830932e-41f,  2.6530012e-02f,
 3.8197130e-02f, -5.4704092e-02f, -8.7641925e-02f, -4.1979539e-40f,  3.4406550e-02f, -2.8576387e-02f, -8.5121875e-41f,  2.2413187e-01f,  2.6011381e-01f,
 7.9436414e-02f,  7.0958287e-02f, -4.4383186e-40f, -8.3822921e-02f, -1.6537851e-01f,  3.7624864e-41f, -1.6298205e-01f,  2.4609578e-01f, -2.7837671e-02f,
 1.9934252e-01f,  2.7858514e-40f,  1.6897561e-02f, -5.2464839e-02f,  2.5507416e-40f, -6.1445743e-02f, -3.6166705e-02f, -3.4190595e-02f, -2.1089969e-02f,
 7.0317157e-42f,  5.7527085e-40f, -1.6016001e-40f, -1.5828087e-40f, -1.1042232e-42f,  3.8901447e-40f, -3.3564601e-40f, -3.0794935e-41f, -8.9973170e-41f,
-5.0620506e-40f, -1.4759737e-40f,  2.1990857e-40f, -2.7254695e-40f,  1.6759530e-41f,  2.1367560e-40f,  2.7920592e-40f,  5.8700393e-41f, -2.9034904e-42f,
-2.1976984e-40f, -1.5627981e-40f, -5.5066826e-40f,  2.8470741e-40f,  6.7346404e-42f,  2.8490640e-40f,  1.8410680e-40f,  3.8198555e-40f,  4.3179751e-40f,
-5.3110053e-40f,  3.8272404e-40f,  3.1983096e-40f,  5.6681402e-40f, -2.1153721e-40f, -3.6097448e-42f, -2.2912911e-40f,  4.1723802e-40f,  5.1394583e-40f,
 4.9955870e-40f,  1.2459785e-40f, -5.5776303e-40f,  9.8875620e-41f,  2.7362174e-40f, -5.0895020e-40f, -1.2968877e-40f, -5.8161874e-40f, -3.2074321e-41f,
-4.3961395e-40f, -2.7705212e-40f, -8.8824106e-41f,  5.4341233e-40f,  4.0079098e-40f, -1.3022827e-40f, -3.1570694e-40f,  2.8350790e-40f,  3.9186751e-40f,
-2.2965600e-40f,  2.6552364e-40f,  6.0305020e-40f,  5.1743506e-40f, -1.0094674e-40f, -5.5138572e-40f,  4.2501382e-40f,  2.7818297e-40f,  1.1691594e-40f,
 2.5766656e-40f,  5.9004194e-40f, -3.3005904e-40f, -1.5965414e-40f,  1.2299056e-40f,  3.9389099e-41f, -9.1500586e-41f, -2.5187079e-40f, -3.8369234e-40f,
 5.2691765e-40f,  6.1447778e-40f, -4.0720612e-40f,  4.8854730e-40f,  6.1941316e-40f, -2.3320409e-40f,  4.4806378e-40f,  6.1348146e-40f, -6.3449393e-41f,
 1.2346841e-40f, -4.1747484e-40f, -9.3940246e-41f, -4.8789990e-40f, -1.9997650e-40f, -4.8424251e-40f, -3.4169822e-40f,  1.2075409e-40f, -3.1673409e-40f,
-4.3705939e-40f, -6.2534065e-40f, -3.4137312e-40f, -2.8131907e-40f, -9.1436126e-41f, -1.7109294e-40f,  7.5297372e-41f,  7.3213641e-41f, -4.2838255e-40f,
-3.3274813e-40f,  2.2577441e-40f, -2.9552264e-40f, -4.3249536e-40f, -3.3080173e-40f,  8.9266916e-41f,  5.2143297e-40f, -4.5507448e-40f, -2.4982069e-40f,
-5.7183207e-40f, -3.9643434e-40f, -2.0721281e-40f,  5.4199422e-41f,  4.9138633e-40f, -2.6070738e-40f, -4.6023126e-40f, -1.2955705e-40f, -8.6860887e-41f,
-5.1374825e-40f, -2.0049778e-40f, -1.7511887e-40f, -1.4608817e-40f,  1.6108626e-40f, -3.7434848e-40f, -6.0047040e-40f,  5.7020796e-40f, -1.6685541e-40f,
-5.1060654e-40f,  1.8362615e-40f,  3.1820686e-41f, -2.0298369e-40f, -3.9888802e-40f, -1.8711538e-41f, -3.2349395e-40f, -5.3137938e-40f,  2.6404527e-40f,
-4.4080366e-40f,  2.3288179e-40f,  9.5816585e-41f, -4.2248588e-40f, -7.3273897e-42f,  1.9654612e-40f, -2.6988028e-40f, -3.0913345e-40f, -2.5508116e-40f,
 3.1747818e-41f,  6.9875516e-02f, -1.2429155e-01f, -2.8518526e-40f,  9.1179654e-02f,  2.5622778e-02f, -1.2078179e-01f, -4.0716115e-02f, -3.8052260e-40f,
-2.9290335e-02f, -3.5061774e-01f,  3.5541133e-40f,  5.6664731e-02f,  2.6941620e-02f,  3.1948468e-01f, -2.8530794e-01f, -2.4321777e-40f,  3.2293673e-03f,
-1.1418000e-01f,  2.4485168e-40f, -6.5437082e-04f,  2.4342369e-02f,  1.0081899e-02f,  3.9980911e-02f, -5.7958826e-40f, -4.2631829e-01f, -4.0786676e-02f,
-8.1435059e-41f,  1.1759026e-01f, -9.9083699e-02f, -1.0781434e-02f,  2.2277515e-02f,  6.1966119e-40f,  1.5788782e-01f,  6.1689830e-01f, -2.7090743e-40f,
 2.7517268e-01f,  5.2973574e-01f,  8.0720313e-02f,  5.6661296e-01f,  3.4964078e-40f,  3.6809336e-02f, -1.0085389e-01f,  7.1205580e-41f,  1.9143414e-01f,
-6.7982756e-02f, -4.6329763e-02f, -8.3890475e-02f, -5.6776130e-40f,  2.1220421e-02f,  1.6097626e-02f, -5.9518751e-41f,  9.7904831e-02f, -2.2454447e-01f,
-1.8084491e-02f, -7.7331029e-02f, -6.8327313e-41f,  1.6530568e-04f,  8.5099533e-02f, -2.5551837e-40f,  6.6706978e-02f,  1.1507004e-01f, -2.2845926e-02f,
-9.3842953e-02f, -3.3776898e-41f,  6.8501765e-03f, -1.1621037e-02f, -3.6189093e-40f,  8.6535096e-02f,  2.0364199e-02f, -5.5861329e-03f,  1.5583591e-02f
}
,
{
-3.6750594e-40f, -4.9225933e-40f, -5.5592313e-40f,  2.9472249e-40f, -8.8976847e-41f,  5.5659155e-40f,  1.8352806e-40f,  2.9861110e-40f, -5.4562358e-41f,
-1.3081401e-40f,  7.4407547e-41f, -5.2892431e-40f,  5.9532764e-40f, -6.1218526e-40f,  4.8298134e-40f,  3.9190394e-40f,  6.1860181e-40f, -3.5968529e-40f,
 3.5576165e-40f, -3.6566743e-40f, -3.1413188e-40f,  4.1493288e-40f, -2.0567979e-40f,  5.3741478e-40f,  8.9003472e-41f,  4.3538904e-40f,  2.7758041e-40f,
 4.9403058e-40f, -3.1892432e-40f,  5.7719484e-42f, -3.7195646e-40f,  3.8059266e-40f,  5.5262027e-40f, -2.9631297e-40f,  4.5458122e-41f, -6.2132032e-40f,
 5.5204433e-40f, -3.7180932e-40f, -5.7237437e-40f,  4.7112775e-40f,  3.9536655e-40f,  2.3530604e-41f, -6.2346571e-40f, -6.2920263e-40f, -5.0633678e-40f,
-3.3259679e-40f,  1.0648327e-40f,  5.9498012e-40f, -2.1257698e-42f,  5.6190947e-40f,  9.9738819e-41f, -1.5156024e-40f, -2.4931902e-41f, -4.8241101e-41f,
 9.4960392e-41f, -5.0639563e-40f, -3.1069449e-40f,  6.1545029e-41f, -1.6077938e-40f, -3.6133742e-40f,  4.3473884e-41f,  5.2207196e-40f,  3.0411119e-40f,
-4.1609596e-40f, -7.6225031e-41f, -1.1111736e-40f, -5.2899578e-40f,  5.2431544e-40f,  6.2961461e-40f, -1.2199004e-40f,  1.3293838e-40f,  6.2009279e-40f,
-1.2219971e-02f, -1.1880197e-02f,  1.1500406e-02f, -5.0427094e-03f,  4.7864495e-03f, -1.2074233e-02f, -1.4883908e-02f, -2.3464460e-03f, -8.6886160e-02f,
-3.1884078e-02f, -3.0674899e-01f, -2.8247458e-03f,  5.7124589e-02f,  1.7646691e-01f,  4.9767215e-02f, -7.3888376e-02f,  1.0714185e-02f, -2.0849796e-02f,
-3.0079488e-02f, -5.3734466e-02f, -1.5468455e-02f,  1.1881614e-02f, -3.0288214e-02f,  3.4701355e-02f,  1.1655953e-02f, -6.8632779e-03f,  1.5080047e-02f,
-1.5918160e-02f, -3.9614192e-03f,  6.4764498e-03f,  8.9874472e-03f, -5.2257383e-04f, -7.3634736e-02f,  1.6421767e-01f, -2.4292015e-01f,  1.8324576e-01f,
-2.9042332e-02f, -2.3742151e-01f, -1.0290240e-01f,  3.8444348e-02f,  5.9426934e-02f,  1.0281119e+00f,  1.2736215e-01f, -1.7834339e-01f,  2.8347415e-01f,
-1.8033478e-01f,  3.1343785e-01f, -5.3735173e-01f,  4.8518227e-03f,  3.5886657e-03f, -1.9513179e-02f, -5.1774257e-03f, -1.0133211e-02f,  2.5866412e-02f,
 5.9734560e-03f, -1.7969985e-03f,  1.3543439e-01f,  2.1179558e-01f, -1.9376110e-02f,  8.0008820e-02f,  8.2744591e-02f,  6.5984532e-02f, -2.0813397e-01f,
 9.0298496e-02f,  1.4667688e-02f, -1.0094018e-01f, -8.5959509e-02f,  5.6295902e-03f, -1.0450244e-01f,  3.7191384e-02f, -6.6144783e-03f,  5.3150959e-02f,
-1.7505171e-02f, -1.5102587e-02f, -1.0240936e-01f,  3.1479832e-02f,  5.9536956e-03f,  5.1046964e-02f,  1.6592372e-02f, -2.6033398e-02f, -2.0691019e-02f,
-4.9074396e-02f, -2.1311875e-02f,  2.0665010e-02f,  1.4050394e-02f, -3.0456882e-02f,  3.0529332e-05f,  1.2972662e-02f, -1.4507233e-02f, -1.7701598e-02f,
-3.1999111e-02f,  2.7805939e-04f,  1.9801766e-04f,  1.2531033e-02f, -1.0179530e-02f,  4.9147261e-03f,  2.6157103e-02f,  7.2119147e-02f, -6.3598111e-02f,
 7.3084936e-02f,  2.4964495e-02f, -1.3252316e-01f, -4.8682503e-02f,  2.3005152e-02f,  7.4108534e-02f,  3.3199273e-02f,  1.5186822e-01f,  7.7660012e-01f,
 1.3077447e-01f,  1.2593366e-01f,  1.4025000e-01f,  1.7044705e-01f,  1.2822320e-02f, -9.7082101e-04f,  1.2278720e-01f,  1.1979148e-01f, -4.7314238e-02f,
-6.3716933e-02f,  2.9237153e-02f,  2.4715457e-02f, -1.9737264e-02f,  5.5383250e-02f,  1.5695428e-03f,  1.9979125e-02f,  6.2743858e-03f,  4.0793948e-02f,
-2.3333665e-02f,  2.7980819e-02f, -4.9280856e-02f,  1.0343226e-01f,  1.1376042e-01f,  1.6629487e-01f, -1.9067654e-01f, -1.4786453e-02f, -9.6638002e-02f,
-8.4661871e-02f,  8.5962061e-03f,  2.5156382e-02f,  5.2648396e-03f,  2.3215760e-02f,  5.2593343e-02f,  1.7138857e-02f, -1.0267905e-02f, -9.4778324e-03f,
 5.6235509e-40f,  2.9049338e-40f,  2.6414896e-40f, -5.9701340e-40f, -2.0550322e-40f,  2.4343497e-40f, -4.9496664e-41f,  5.3018968e-40f,  2.4616190e-40f,
-1.6396593e-40f,  3.0507809e-40f,  9.5582568e-41f, -2.4231393e-40f, -1.7451351e-40f, -5.6376619e-40f, -2.1799720e-40f,  1.6384402e-40f, -8.8847928e-41f,
 3.6407135e-41f,  1.8230753e-40f,  3.3926557e-40f,  2.0168749e-40f, -2.0142404e-40f,  1.5281300e-40f, -3.9469393e-40f, -6.2827497e-40f, -1.4402826e-40f,
-3.3215678e-40f, -3.9609102e-41f, -5.5165757e-40f,  2.1230092e-40f, -1.0282448e-40f, -1.7094440e-40f,  8.1280916e-41f,  2.8942278e-40f, -4.1252545e-40f,
 2.2261868e-40f,  2.4201405e-40f,  1.6066728e-40f,  1.8040316e-41f,  1.9285370e-40f,  5.2908826e-40f, -1.0088508e-40f, -3.3325820e-40f,  1.8865681e-40f,
-2.5701355e-40f,  3.4829834e-40f,  1.3929187e-40f, -1.3633653e-40f, -4.1131613e-40f,  2.2361921e-41f,  1.7130593e-40f,  2.0787702e-40f,  2.9947149e-40f,
-4.9030592e-40f, -5.9679340e-40f, -1.5785067e-40f,  1.5750735e-40f,  1.9842807e-40f,  2.9588277e-40f, -1.8011590e-40f,  2.9321330e-40f, -3.0289627e-40f,
-5.2957591e-40f,  6.4183674e-41f,  1.5400270e-40f, -1.5509011e-40f, -2.2519987e-40f, -1.9374773e-40f, -1.6015160e-40f, -2.9060408e-40f,  1.4428610e-40f,
-1.2752112e-02f, -7.3764801e-02f,  1.3269410e-01f, -1.3336903e-01f, -4.7529563e-03f, -3.6598273e-02f,  3.4052543e-02f,  3.4324698e-02f,  2.3149975e-02f,
-4.9723189e-02f, -3.1030530e-01f, -4.2776915e-01f, -1.2315397e-01f, -1.8519573e-03f, -8.9560233e-02f, -1.7239560e-01f, -5.3355470e-03f,  4.9357250e-02f,
-4.4090912e-02f, -1.3569047e-01f,  8.2372744e-03f, -1.6998751e-01f, -4.4479035e-02f, -4.9645204e-02f, -5.9666917e-02f, -2.4206879e-02f,  4.6385033e-03f,
 2.9915001e-02f, -9.2411920e-02f, -8.6805828e-02f,  4.2127829e-02f, -2.4340795e-02f, -3.9579746e-01f, -1.0290734e-01f,  2.1411242e-02f, -2.7015927e-01f,
 1.7156136e-01f, -7.7265598e-02f,  6.9252864e-02f,  5.2652054e-02f, -7.0032746e-02f, -1.4001107e-03f,  5.7140943e-02f, -3.7454092e-03f,  1.1176291e-02f,
-9.6042246e-02f, -7.1096211e-03f, -1.1188485e-02f, -2.2612074e-02f, -1.2750668e-02f,  2.0724343e-02f, -1.3574206e-02f, -1.4081437e-02f, -2.1341586e-02f,
 4.2358417e-02f, -3.6336221e-03f,  1.9176019e-02f,  4.2805327e-03f, -3.5405844e-02f, -3.6297854e-02f,  1.4693924e-02f,  2.5792947e-02f, -1.7214758e-02f,
 4.2148301e-04f,  1.0588373e-02f,  1.8933790e-03f,  2.5717446e-03f, -1.6571073e-02f, -1.9474650e-02f, -7.2541106e-03f,  9.0389177e-03f,  3.3085903e-03f,
 8.0026634e-04f,  2.6861697e-02f, -5.5922497e-02f,  4.2529710e-02f, -1.5268634e-02f,  3.0666681e-02f,  1.8128905e-02f,  5.5059199e-03f,  3.2242498e-01f,
 1.1634079e-01f,  7.1404076e-01f, -4.2298678e-02f, -3.8429778e-02f, -2.6287398e-01f, -1.4784867e-01f,  1.7744204e-01f, -2.2566313e-02f,  4.5666236e-02f,
-2.9852165e-02f,  1.4319675e-01f, -7.4717335e-02f,  3.0591808e-02f,  1.1266793e-01f, -2.8681118e-02f,  8.7849768e-03f, -4.7351108e-03f,  1.3040604e-02f,
 1.4370547e-02f,  3.3361293e-02f, -4.5559138e-02f, -7.1637392e-02f, -3.4867814e-03f, -2.4024676e-01f, -4.1592684e-01f,  3.9372765e-02f, -1.1289480e-01f,
-1.1955968e-01f, -1.4715660e-01f,  5.5594838e-01f, -1.4568532e-01f,  4.6123046e-02f,  3.6081608e-02f, -2.4514815e-01f, -3.8829338e-02f,  4.2303771e-01f,
 2.0931783e-01f, -1.0569455e-02f,  1.6507564e-02f, -1.9038286e-02f,  1.1445825e-02f,  4.4278344e-03f,  5.1689367e-03f, -2.9924328e-03f, -5.8471807e-03f,
 1.8480990e-02f,  4.6766349e-03f, -8.5749757e-03f, -5.2026003e-03f,  2.1557033e-02f,  1.5803823e-02f, -3.3035345e-02f, -1.0022911e-02f, -4.7556210e-02f,
-1.7962737e-02f, -4.8152581e-03f,  1.8672459e-02f, -8.4939776e-03f,  1.6125445e-03f, -3.6560412e-02f,  1.2134207e-02f, -1.1185195e-02f, -2.6396727e-03f,
-1.3048596e-03f, -7.0960319e-04f,  1.3677015e-02f, -3.4600655e-03f, -1.2385734e-02f, -1.3284143e-02f, -1.1765556e-02f,  4.3618404e-03f, -5.7770512e-03f,
-6.7877108e-03f, -3.5183210e-02f, -7.2087231e-03f,  6.3762087e-03f,  2.0538010e-02f, -8.5959462e-03f, -4.2792684e-03f,  9.6436851e-03f,  9.6674254e-03f,
 1.2390888e-02f, -5.5513927e-04f, -3.7047159e-02f, -5.4475816e-04f, -3.0045995e-02f, -4.7819995e-04f,  3.2476749e-02f, -4.9951798e-03f, -9.2404969e-02f,
 4.4568032e-02f,  1.3839155e-02f,  5.8096070e-02f, -2.1081150e-03f, -4.2795166e-02f,  2.4481994e-01f,  8.8664114e-02f,  2.9649639e-01f,  1.3620830e-01f,
-3.6358010e-02f, -1.4789786e-02f,  1.1517791e-01f,  2.0070101e-01f,  4.0579900e-02f, -2.7707376e-02f,  6.9694869e-02f, -4.3811265e-02f,  4.3609466e-02f,
-2.0158060e-02f, -8.4419452e-02f,  3.8402133e-02f,  1.3194240e-02f,  8.5309178e-02f, -3.3125345e-02f,  1.1350187e-02f, -8.3691711e-03f, -3.9653957e-02f,
-7.5828917e-02f,  5.0585799e-02f, -4.6601906e-01f,  5.5512968e-02f,  3.4699941e-01f, -2.8416532e-01f,  4.5794463e-01f, -2.2069064e-01f,  1.8198521e-01f,
 2.1909508e-01f, -6.6162996e-02f, -7.6230124e-02f,  1.4551777e-01f,  3.1553328e-02f, -3.0760816e-01f, -1.5089101e-01f, -9.7726192e-03f, -3.4381233e-02f,
-1.0647088e-01f,  3.6354281e-02f,  2.7356874e-02f, -7.8854404e-02f,  2.2286711e-02f, -1.8966474e-01f,  3.6473174e-02f,  5.7624541e-02f,  7.3328018e-02f,
 9.7794279e-02f,  5.2132767e-01f, -2.0315568e-01f,  2.5359664e-02f, -1.6833501e-01f,  1.8761480e-01f,  4.2314434e-01f,  2.5871463e-02f,  1.1686801e-02f,
-5.7570502e-02f,  7.7746115e-03f, -6.1253016e-03f,  9.8934196e-02f,  4.9495492e-03f, -1.9732179e-02f, -7.0882894e-02f,  2.6846802e-02f,  2.7580233e-02f,
-1.1436820e-02f, -1.8991748e-02f,  8.2326211e-02f, -6.9640487e-02f,  3.4811173e-02f, -9.2725307e-02f,  3.2564729e-01f,  1.0381167e-01f,  2.1557461e-01f,
-4.0077606e-01f,  7.5584501e-02f, -2.8774559e-01f, -2.3032685e-01f, -1.5184824e-02f, -8.7709799e-03f,  1.3677631e-02f, -1.9478522e-02f,  7.3820844e-02f,
-1.7187810e-02f,  3.6148645e-02f,  1.1476844e-02f,  1.1803678e-02f, -2.0371571e-02f,  4.9259784e-03f, -1.3510593e-02f,  5.6517450e-03f, -1.4984854e-02f,
 9.6345489e-04f, -7.3743947e-03f,  1.7784011e-03f, -1.9090196e-02f, -4.4419408e-02f, -2.0338854e-02f,  4.2348497e-02f,  2.1823315e-02f,  1.3966818e-02f,
 1.9112105e-02f, -4.4098799e-03f, -3.2565850e-03f,  7.0651434e-04f, -1.0275799e-02f, -2.5641559e-02f, -7.7014663e-03f, -6.0014799e-03f,  4.2250552e-03f
}
};

alignas(32)
const float Anime4KCPP::CPU::ACNetHDNL0::kernelsL10[4 * 8] =
{
 0.4907895f, -0.0014691f, -0.2980749f,  0.3330785f,  0.2363579f, -0.3714728f,  0.2377767f, -0.0850692f, -0.0456545f, -0.3152242f,  0.0912283f,  0.2853064f,
 0.0792340f,  0.1403556f,  0.1570414f,  0.2770620f, -0.1715610f,  0.3044945f,  0.0121907f,  0.2210031f,  0.2885413f, -0.0260412f, -0.5734012f,  0.0414966f,
-0.2114614f,  0.0329760f,  0.2280912f,  0.2610858f, -0.7122354f,  0.2143899f,  0.2076892f, -0.1857636f
};

alignas(32)
const float Anime4KCPP::CPU::ACNetHDNL0::biasL1[8] =
{
-0.7576970f, -0.0209786f,  0.0291682f, -0.0188724f,  0.0222594f,  0.0339571f,  0.0150339f, -0.0044279f
};

alignas(32)
const float Anime4KCPP::CPU::ACNetHDNL0::biases[8][8] =
{
{
 0.0271619f, -0.5743008f, -0.0332987f, -0.0334286f,  0.0081869f, -0.0263129f, -0.0047610f, -0.0166656f
}
,
{
-0.0238534f, -0.0385347f,  0.0026002f,  0.0288215f, -0.0224528f,  0.0082199f, -0.0191096f, -0.0184995f
}
,
{
-5.8305287e-03f, -8.6573534e-02f,  4.2228442e-02f, -4.3499764e-02f, -8.1891957e-04f,  3.3171100e-03f, -1.1581778e-02f, -4.1204901e-40f
}
,
{
-0.0053108f,  0.0052781f, -0.0114067f, -0.0127344f, -0.0038591f, -0.0426398f,  0.0052785f, -0.0017417f
}
,
{
-0.0045910f, -0.0104115f, -0.0086935f, -0.0039950f,  0.1076636f,  0.0347268f, -0.0165118f,  0.7296443f
}
,
{
 8.7611541e-02f,  5.9125590e-01f,  4.6709431e-03f, -1.1558919e-39f,  2.3380728e-02f, -1.2136085e-40f, -5.6040000e-39f,  3.7099790e-02f
}
,
{
-3.3245582e-39f, -1.4535975e-02f, -6.3362367e-02f,  8.5347484e-41f,  7.9956360e-02f,  3.0678892e-04f, -1.0257009e-02f, -1.2037124e-02f
}
,
{
-0.0005618f,  0.0117194f,  0.0083430f,  0.0686088f, -0.0046424f,  0.0014692f, -0.0076037f,  0.0078869f
}
};

void Anime4KCPP::CPU::ACNetHDNL1::process(const cv::Mat& src, cv::Mat& dst, int scaleTimes)
{
    ACNET_PROCESS_IMPL
}

alignas(32)
const float Anime4KCPP::CPU::ACNetHDNL1::kernelsL1[9 * 8] =
{
-6.6325761e-02f, -4.6648893e-01f, -2.0316477e-01f,  4.8185702e-02f,  1.1915640e-02f, -5.2737162e-02f,  1.5690731e-01f, -3.4319036e-02f, -2.2316125e-01f,
-6.8788648e-02f,  4.7020923e-02f, -9.3429230e-02f,  2.0412867e-01f,  4.3151182e-01f,  4.7331640e-01f, -7.6372522e-01f,  4.2470794e-02f,  5.3455275e-01f,
-2.2312941e-01f,  2.4492899e-03f, -1.8920409e-02f,  1.7027341e-01f,  2.6651451e-03f, -9.7022183e-02f,  1.7063819e-02f, -5.0941169e-01f,  5.3465288e-02f,
 3.4654373e-01f,  6.0857512e-02f,  2.6647383e-01f,  1.7996596e-02f, -1.4159738e-01f, -6.8304831e-01f,  7.0656784e-02f,  7.0749581e-01f,  7.2624862e-02f,
 8.3547747e-01f,  5.5240065e-01f,  4.1367108e-01f,  2.9566649e-01f, -1.5978320e-01f,  4.5646816e-01f,  9.1366485e-02f,  1.6614833e-01f,  1.4059760e-01f,
 3.4744565e-03f,  1.3238853e-02f,  6.6219968e-01f,  6.7568016e-01f, -2.3656907e-02f, -2.8566208e-01f,  3.2101068e-01f, -9.1827458e-01f,  5.3495042e-02f,
 4.6932451e-02f,  7.3507785e-05f,  3.2211924e-01f,  3.5302330e-02f, -2.0520950e-02f,  3.2923332e-01f, -2.4551472e-01f, -4.7059435e-02f,  1.0278042e-01f,
 1.2682630e-01f,  8.3561480e-02f, -1.8316226e-02f, -7.1785919e-02f, -9.8548338e-02f, -4.6117917e-02f, -2.6593249e-02f,  1.0698959e-02f, -6.3442037e-02f
};

alignas(32)
const float Anime4KCPP::CPU::ACNetHDNL1::kernels[8][9 * 8 * 8] =
{
{
    -7.8587620e-41f, -1.4936270e-01f,  2.3357263e-40f,  4.5038559e-03f, -7.8532569e-02f, -8.6903401e-02f, -6.9570839e-02f,  2.9828137e-02f, -5.0769604e-40f,
    -1.0438186e-01f, -1.4360507e-40f, -1.3303367e-02f,  1.3658082e-01f, -1.0429570e-01f, -5.7887789e-03f,  2.0663691e-01f, -2.3333581e-40f,  2.9826842e-02f,
     2.0497914e-40f,  1.6183385e-01f,  1.0922553e-01f,  3.0130498e-02f,  9.3851522e-02f,  1.9731153e-02f,  5.7173818e-40f,  1.4751390e-02f, -5.2354753e-40f,
     6.5950833e-02f, -3.2529984e-02f,  4.1691061e-02f,  2.8489973e-02f, -8.0378205e-02f,  6.9060192e-41f, -1.6854136e-01f, -6.0151017e-40f, -7.1353413e-02f,
    -2.1342164e-01f, -1.2674697e-01f, -2.7854002e-01f, -3.9481241e-01f,  2.2264391e-40f, -8.8101104e-02f, -2.9263596e-40f,  1.7253710e-01f, -1.2199963e-01f,
    -5.5168831e-01f,  1.4209019e-01f, -1.5395080e-01f, -4.1631456e-40f,  4.9227931e-02f,  1.9714868e-41f, -1.8670674e-03f, -1.9196019e-02f,  8.9643806e-02f,
     1.5372627e-02f, -5.7944093e-02f,  4.5666635e-40f, -3.0743599e-02f,  5.9793405e-41f,  1.0593355e-01f,  1.0450287e-01f,  3.6909953e-02f, -4.3502849e-02f,
    -8.6342692e-02f, -1.8115006e-40f, -1.1512271e-01f, -1.3674711e-40f, -3.6872357e-02f, -8.9044169e-02f, -1.5458618e-01f,  9.6895061e-02f, -5.4324191e-02f,
    -3.1000085e-40f, -3.4995873e-02f,  5.3771185e-40f,  4.9101550e-02f, -2.0109590e-02f,  5.3655542e-03f,  1.1681674e-02f,  7.1664110e-02f,  3.1019423e-40f,
    -2.5023792e-02f,  6.5636820e-41f, -2.4074835e-03f,  6.1439440e-02f,  6.7936145e-02f,  1.5608068e-01f,  1.5293938e-01f,  5.5422615e-40f, -1.8880058e-02f,
    -3.8470688e-40f,  4.8194487e-02f, -2.7404506e-02f,  1.0792517e-01f,  1.5844019e-01f, -1.2112333e-02f, -5.8517663e-40f,  3.0008417e-02f, -3.0820018e-40f,
    -7.0892364e-02f,  6.0823303e-02f, -2.7424384e-02f,  5.8027126e-02f,  2.1022774e-02f,  2.1289787e-40f,  4.8689347e-02f, -1.7003916e-40f, -1.8948135e-01f,
    -6.4267567e-03f, -1.7652327e-01f,  2.6632257e-02f,  1.1945422e-01f, -5.4578613e-40f, -1.3414532e-01f, -1.9371130e-40f, -1.6585569e-01f, -9.1777695e-03f,
    -3.5775501e-01f, -8.5479300e-03f, -7.2998084e-02f, -3.7753223e-40f, -9.1697704e-03f, -5.1158604e-40f, -2.8101526e-02f,  6.4876571e-02f,  2.4592908e-02f,
     1.2836024e-01f, -1.1692855e-02f,  3.6029345e-40f, -1.1019176e-02f,  7.3244469e-41f,  2.0870272e-02f, -6.1227340e-02f, -5.6237042e-01f,  2.0713605e-01f,
    -1.8818086e-01f, -1.7875103e-40f, -5.0654668e-02f,  3.5860629e-41f,  5.9228361e-02f, -5.4465730e-02f, -5.9037662e-01f,  1.0227665e-01f, -9.8692745e-02f,
     4.2295532e-40f, -6.6579483e-02f,  2.8441174e-40f,  1.2673219e-02f,  9.6375041e-02f, -9.4806954e-02f,  1.4647241e-02f, -6.7016900e-02f,  6.5671853e-41f,
    -2.6447492e-02f,  4.5247927e-41f,  3.3907685e-02f,  1.7518532e-01f, -7.5681321e-02f,  5.7609182e-02f,  6.9766983e-02f,  1.4975677e-40f,  1.9791007e-02f,
     1.9771060e-40f,  4.8281614e-02f,  5.0724945e-03f, -3.6989916e-02f, -1.6728463e-02f, -5.0268151e-02f, -3.1478909e-40f, -4.1726701e-02f, -2.4680649e-40f,
     4.4368841e-02f,  1.9158930e-01f,  8.7384619e-03f,  2.1211949e-01f, -9.1106333e-03f, -3.2881048e-40f,  3.6432810e-02f,  3.6053588e-40f,  5.6304194e-02f,
     3.9724541e-01f, -5.7988815e-02f,  3.2672727e-01f,  2.4267361e-01f, -5.9818349e-40f,  3.1515919e-02f,  3.3495798e-40f,  1.2225222e-02f,  1.2850536e-01f,
    -4.9573049e-02f,  4.5669630e-02f,  6.0276516e-02f,  3.2052741e-40f, -5.7619069e-02f, -6.5048275e-42f,  4.1855387e-02f, -6.9197081e-02f, -7.7421814e-02f,
    -6.0844302e-02f,  3.5268817e-02f,  3.0820719e-40f,  2.3401260e-02f, -1.6001147e-40f,  1.1990105e-01f,  4.9371924e-02f, -1.1898594e-01f, -1.1767507e-01f,
     7.7375501e-02f,  5.1321015e-40f,  3.0785436e-02f,  4.8242502e-41f,  6.3799024e-02f, -3.4220587e-02f, -7.4022792e-02f, -1.1232971e-01f,  1.6641540e-02f,
    -2.6556639e-17f, -3.3610407e-02f, -1.0165458e-08f, -7.3883675e-02f,  1.1582557e-01f,  9.1539426e-03f,  5.0123304e-04f, -5.2600071e-02f, -3.8204663e-17f,
     1.2263402e-01f, -9.9139568e-09f,  1.4153093e-02f,  1.3388683e-01f, -1.1760484e-01f,  6.3947178e-02f, -1.8864085e-01f, -3.7076730e-17f,  2.4351321e-02f,
    -9.6054240e-09f,  9.5824569e-02f,  2.9134765e-01f,  4.6824824e-02f, -1.8356289e-01f, -1.1195246e-01f, -2.5168118e-17f,  1.7148385e-02f, -1.0510930e-08f,
     4.2850349e-02f,  1.0289985e-02f,  1.9900905e-02f,  1.4091291e-01f,  3.2118741e-01f, -3.4817114e-17f,  1.7143673e-01f, -1.0256335e-08f, -3.5337370e-02f,
     1.1214256e-01f, -3.9718341e-02f, -2.1568108e-02f, -9.7913183e-02f, -3.4185681e-17f,  4.0304538e-02f, -9.9065645e-09f,  1.3615069e-01f,  1.7560486e-01f,
     1.2996875e-02f,  8.5932560e-02f,  1.4733815e-01f, -1.8056023e-17f,  8.7902136e-03f, -1.0521486e-08f, -2.0900209e-01f, -1.8047811e-02f,  4.2208709e-02f,
    -3.9405752e-02f,  8.6988434e-02f, -2.3104863e-17f, -7.0076786e-02f, -1.0320152e-08f, -2.2834711e-02f,  8.4782086e-02f, -5.2119318e-02f,  8.2921192e-02f,
    -5.3562950e-03f, -2.2581041e-17f, -1.0688389e-01f, -9.9896269e-09f, -8.6986661e-02f,  4.9924552e-02f, -1.2254826e-01f, -1.0601156e-01f, -2.6135782e-03f,
     5.9355219e-40f,  4.7459889e-02f,  2.6042151e-40f, -6.7793302e-02f, -3.8446631e-02f,  2.4262290e-02f,  4.1283812e-02f, -9.1528418e-03f,  2.4052027e-40f,
    -1.4092935e-03f,  4.2015833e-40f,  1.3546941e-01f, -1.3156287e-01f,  5.3676251e-02f, -7.3137514e-02f,  2.8185907e-01f, -1.0027271e-40f, -1.5911341e-02f,
     5.3537308e-40f, -9.9665970e-02f, -1.1072312e-01f, -2.4767189e-01f,  1.7264462e-01f, -1.5933278e-01f,  2.2059521e-40f, -2.2978034e-02f,  1.4593543e-40f,
     3.5497557e-02f,  1.8255915e-01f, -4.2932857e-02f,  2.5883090e-02f,  4.8498739e-02f,  3.4864306e-40f,  9.9025100e-02f,  1.1344492e-40f,  5.3725313e-02f,
     2.2831324e-01f, -2.2473423e-01f,  5.2944952e-01f,  4.5189139e-01f, -5.7402650e-40f,  1.2867451e-02f,  3.5143585e-40f,  1.1501170e-01f, -1.6507715e-01f,
    -4.0310138e-01f,  2.4509621e-01f, -1.6399209e-01f,  4.6936212e-40f,  3.4704100e-02f, -2.5736353e-37f, -1.2237561e-01f,  4.6780851e-02f, -3.5160400e-02f,
     2.7291221e-03f,  5.8163743e-02f, -3.3950799e-40f,  1.4672051e-01f, -1.3590507e-39f,  3.5353791e-02f,  1.4912604e-01f,  1.9857831e-01f,  4.0172890e-02f,
     6.3250691e-02f, -4.7714633e-40f,  7.9188474e-02f,  2.1028726e-40f,  7.4215613e-02f, -8.6956218e-02f, -1.5942858e-01f,  7.8220600e-03f, -2.8737804e-02f,
    -9.7916869e-11f, -4.4222083e-02f, -3.1419577e-07f, -3.5288129e-02f,  5.1364984e-04f,  1.3208216e-01f, -3.5794560e-02f,  2.0423862e-01f, -1.0331189e-10f,
    -3.9479516e-02f, -3.0308604e-07f,  7.0110648e-03f,  6.7873009e-02f, -1.0492521e-01f, -4.8630908e-03f, -7.2818883e-02f, -9.6141491e-11f, -1.9192778e-01f,
    -2.9629720e-07f,  2.4819672e-02f, -3.4786579e-03f, -6.7076020e-02f, -2.2714837e-01f,  2.1902682e-02f, -1.0581489e-10f, -3.1897079e-02f, -3.1195793e-07f,
    -1.0648944e-02f,  1.7689219e-01f, -2.5243935e-01f,  1.2329639e-01f, -3.5630190e-01f, -1.1173236e-10f,  1.0776379e-01f, -2.9966697e-07f,  1.6714685e-01f,
     1.8414427e-01f,  1.1175311e-02f,  7.1739191e-01f,  1.3170515e-01f, -1.0316587e-10f, -5.2742135e-02f, -2.9248980e-07f,  1.2825154e-01f,  2.2285806e-01f,
     2.5568223e-01f, -4.1725174e-01f, -7.6748669e-02f, -1.0192291e-10f,  8.0377288e-02f, -3.1295556e-07f,  3.1144898e-02f,  1.2570724e-01f, -3.3866638e-01f,
     7.5106487e-02f,  3.8848009e-02f, -1.0681455e-10f,  2.5764066e-01f, -3.0086275e-07f,  1.2097090e-01f,  1.7687425e-01f,  3.1952955e-02f,  2.5266666e-02f,
     1.7902066e-01f, -9.8737782e-11f, -9.7329564e-02f, -2.9332082e-07f, -1.2073163e-02f,  1.5948564e-01f,  5.9426314e-01f, -2.8654951e-01f, -1.1902125e-01f,
    -1.0402218e-29f, -1.1593091e-01f, -6.1256343e-12f, -7.0603423e-02f,  5.9903536e-02f,  4.0550817e-02f, -7.8731373e-02f, -4.4220705e-02f, -2.3232529e-29f,
    -5.3752866e-02f, -5.9283442e-12f,  5.5573519e-02f,  1.6258521e-01f,  4.4914316e-03f, -7.5747273e-03f,  1.5032297e-02f, -1.7882120e-29f, -2.8918093e-02f,
    -5.6507650e-12f, -5.0025448e-02f,  1.4312983e-01f, -1.9348282e-02f, -5.5600639e-02f,  2.9077914e-02f, -1.4803749e-29f,  6.7939423e-02f, -6.5297459e-12f,
    -8.2884640e-02f,  2.2233777e-01f, -6.7385629e-02f,  7.9764076e-02f, -1.9737777e-01f, -3.7821493e-29f,  2.3962939e-01f, -6.4117804e-12f,  1.0957233e-01f,
     4.0942916e-01f, -1.5543137e-01f,  1.0523917e-01f, -1.4878002e-02f, -3.0750005e-29f,  2.0855670e-01f, -6.0667274e-12f,  1.3311103e-01f,  3.1468594e-01f,
    -3.0882515e-02f,  8.6742481e-03f,  1.3315031e-02f, -1.0448285e-29f,  2.7964106e-02f, -6.8382132e-12f,  2.9147111e-02f,  1.9799450e-01f,  8.9176960e-02f,
     2.1791402e-02f,  1.3956049e-02f, -2.6740132e-29f,  2.7781364e-01f, -6.8546544e-12f, -1.1848507e-02f,  4.3052387e-01f, -4.6431519e-02f,  3.7304077e-02f,
     1.2855822e-01f, -2.1676057e-29f,  2.1858554e-01f, -6.5224779e-12f,  8.9953259e-02f,  3.0510339e-01f,  6.8227008e-02f, -1.1534469e-01f,  7.0688345e-02f,
     4.2123732e-40f, -1.5195657e-02f, -5.0326583e-26f, -3.2247331e-02f,  1.2258643e-01f,  8.7784171e-02f, -1.2010526e-01f,  2.0932834e-01f,  2.5023547e-40f,
     9.6704466e-03f, -1.0795494e-25f, -1.0747370e-02f, -1.0778181e-02f,  3.6127370e-02f, -7.5160138e-02f,  1.7285931e-01f,  4.5312387e-40f, -8.0135651e-02f,
    -1.8951745e-25f,  9.1431309e-03f,  6.2283636e-03f, -2.0375468e-02f,  1.3737213e-02f,  6.7601286e-02f, -2.4880194e-40f,  8.9441344e-02f, -2.4220233e-26f,
     1.2113974e-01f,  1.4508148e-02f,  4.5461476e-02f, -2.9470393e-01f,  5.5135614e-01f,  2.9837848e-41f,  1.0314292e-01f, -5.9066903e-26f, -5.9780348e-02f,
    -6.9072776e-02f, -4.9070984e-02f,  2.6613116e-01f,  4.6865600e-01f, -2.7214617e-41f, -2.0204289e-02f, -1.1323248e-25f,  5.4821193e-02f,  5.0997619e-02f,
     9.9435396e-02f, -2.3739962e-02f,  1.8401518e-01f, -2.6347494e-40f, -3.3969589e-02f, -2.1499117e-27f, -5.2591644e-02f,  5.2961703e-02f, -2.5700283e-01f,
     1.2956722e-01f,  2.2361915e-01f,  1.5950000e-40f, -1.4562139e-02f, -5.5341790e-27f, -6.9081910e-02f, -1.5290926e-01f, -2.7705824e-01f,  1.4752221e-01f,
     2.4123959e-01f,  9.3734256e-41f,  3.4723446e-02f, -1.0333124e-26f, -7.5980775e-02f, -1.0491217e-02f,  6.2776133e-02f, -9.3654916e-02f,  1.3166921e-01f
    }
    ,
    {
    -5.2307655e-12f, -2.1359292e-40f, -3.3446612e-40f, -3.6574591e-40f,  4.0987420e-40f, -5.1198121e-40f,  3.8907893e-40f, -5.1006058e-18f, -5.4023873e-12f,
    -1.4249664e-40f, -3.9935465e-40f, -3.5707047e-40f,  3.5941484e-40f, -3.4709042e-40f, -4.2139707e-40f, -5.6037950e-18f, -5.0038606e-12f, -4.7123005e-40f,
     2.4649120e-40f, -3.0530090e-41f,  5.1680027e-40f,  6.2940021e-40f,  6.1432925e-40f, -5.8724228e-18f, -5.4553046e-12f, -5.9433272e-41f,  2.0207004e-40f,
     4.2530950e-40f,  5.5563446e-40f, -2.2133509e-41f, -4.7824635e-40f, -5.8909818e-18f, -5.6927835e-12f,  1.9902642e-41f, -3.0244645e-40f, -1.2255196e-40f,
     3.1011155e-40f, -3.6133322e-40f, -3.0139828e-40f, -5.8378694e-18f, -5.2812494e-12f, -1.7701202e-40f, -7.1986103e-41f, -3.9607141e-40f,  4.7068074e-40f,
    -2.7075048e-40f, -5.9562752e-40f, -5.6310684e-18f, -5.0230050e-12f, -5.9940822e-40f,  6.2937639e-40f,  3.5902528e-40f,  1.0425801e-40f, -5.9664486e-40f,
     1.5280319e-40f, -5.2595886e-18f, -5.2149582e-12f, -5.8562085e-40f, -3.6922253e-40f, -5.4630321e-40f, -1.0803030e-40f, -2.3936700e-40f,  2.6155936e-40f,
    -5.1835314e-18f, -4.9132820e-12f, -5.0225620e-40f,  1.5296434e-40f, -3.1459711e-40f,  4.4867335e-40f,  3.0876070e-40f,  5.0361125e-40f, -4.6299739e-18f,
     5.7994157e-02f, -2.6581090e-40f, -6.4982414e-41f,  2.8819525e-40f, -4.9675447e-03f,  9.1814477e-41f,  1.9497083e-01f,  6.4066894e-02f,  1.0050999e-01f,
     1.3006012e-40f,  5.0848917e-41f,  4.9460371e-40f,  1.5411605e-01f,  9.5897860e-41f,  2.3139574e-01f,  1.8889103e-02f, -1.0618387e-01f, -1.4200899e-40f,
     5.7873066e-40f,  6.1460670e-40f, -4.1930340e-03f, -3.1892292e-40f, -3.5244044e-02f, -1.0634398e-01f,  6.8089932e-02f,  5.4263882e-40f,  1.4327156e-40f,
     8.9118378e-41f, -6.1089266e-02f,  3.1092851e-40f,  1.6876021e-01f,  1.7315711e-04f,  1.2788579e-01f,  2.3848418e-40f, -4.2162969e-40f, -4.6579161e-40f,
     2.0405371e-01f,  2.7935025e-40f, -1.7646292e-02f,  1.9934949e-01f,  1.1379559e-01f,  5.6411512e-40f,  1.3806714e-40f, -2.4172399e-40f,  1.9587404e-01f,
     1.7966328e-40f, -2.0413341e-01f, -1.1854206e-02f, -1.5881513e-01f, -2.6378042e-41f,  2.8568972e-40f, -5.5474463e-40f,  3.8771838e-02f, -2.3966548e-40f,
     9.8052330e-02f, -9.3668543e-02f,  8.2322974e-03f, -5.7132200e-40f,  1.9139355e-40f, -8.1848442e-41f,  1.6894369e-01f,  4.0805811e-40f, -6.7905813e-02f,
    -1.1924192e-01f, -9.1424264e-02f, -4.1342649e-40f,  3.2984884e-40f, -1.6910169e-40f, -2.6163053e-02f,  6.2012221e-40f, -3.9834354e-02f, -1.8981151e-02f,
     2.0132428e-07f, -3.2847572e-22f, -5.4410177e-40f, -1.6272495e-25f,  1.0838980e-30f,  5.3770625e-41f, -5.9251759e-15f,  1.7465487e-08f,  2.0907432e-07f,
    -3.6696580e-22f,  2.3070137e-40f, -1.8801935e-25f,  1.8608429e-30f,  6.1000484e-40f, -6.7431090e-15f,  1.7340074e-08f,  2.1344113e-07f, -3.4147378e-22f,
     2.1689578e-40f, -1.7228921e-25f,  1.1385912e-30f, -4.6695469e-40f, -8.1864591e-15f,  1.7565496e-08f,  2.1178944e-07f, -3.5779757e-22f, -1.5964293e-40f,
    -1.7849917e-25f,  1.4863261e-29f,  5.9473909e-41f, -5.7350060e-15f,  1.8233516e-08f,  2.2017606e-07f, -3.9435336e-22f, -2.2780909e-40f, -2.0338282e-25f,
     1.9421839e-29f, -4.9675190e-40f, -6.6893127e-15f,  1.8007738e-08f,  2.2380706e-07f, -3.5988738e-22f,  5.6766321e-40f, -1.8235476e-25f,  1.1638784e-29f,
     5.7402790e-41f, -8.9832842e-15f,  1.8016969e-08f,  2.1094876e-07f, -3.1212358e-22f,  2.2532879e-42f, -1.4714523e-25f,  1.7503870e-29f,  4.7091195e-40f,
    -8.4106348e-15f,  1.9225666e-08f,  2.1919914e-07f, -3.4304809e-22f, -2.5531938e-40f, -1.6733130e-25f,  2.2176846e-29f, -5.0750826e-41f, -1.0631073e-14f,
     1.8956211e-08f,  2.2150094e-07f, -3.0669794e-22f, -5.5821565e-40f, -1.4680610e-25f,  1.3629027e-29f,  3.9864139e-41f, -1.5947819e-14f,  1.8650587e-08f,
     2.9336330e-02f, -1.1748960e-08f,  5.7249068e-40f, -5.5471143e-09f,  6.4484291e-02f, -9.7755982e-41f,  8.9388587e-02f, -1.7294365e-01f,  5.4426856e-02f,
    -1.1601681e-08f,  5.3554825e-40f, -5.6861911e-09f,  6.6295512e-02f,  2.7978185e-40f,  6.6460349e-02f, -1.2199506e-01f, -1.2081614e-01f, -1.1494006e-08f,
    -4.9107103e-41f, -5.7042682e-09f,  2.2838441e-01f, -5.0791184e-40f,  6.8477355e-02f, -4.9577069e-02f,  5.8399227e-02f, -1.2124780e-08f,  1.7538231e-40f,
    -5.8726615e-09f, -1.0212820e-01f, -3.4320882e-40f,  6.1099255e-03f, -3.5086941e-02f,  2.2260830e-01f, -1.1917957e-08f, -1.2312229e-40f, -5.9822947e-09f,
     7.5883120e-02f, -7.0773980e-41f, -8.7535948e-02f, -1.2526442e-01f,  1.1165223e-01f, -1.1718304e-08f,  5.0076802e-40f, -5.8983107e-09f, -1.7530890e-01f,
