#define RELU(x) fmax(x, 0.0f)

__constant sampler_t samplerN = CLK_NORMALIZED_COORDS_FALSE | CLK_ADDRESS_CLAMP_TO_EDGE | CLK_FILTER_NEAREST;

__constant float kernelsL1[9 * 8] = 
{
-6.6326e-02f, -2.2316e-01f,  4.2471e-02f,
 1.7064e-02f, -6.8305e-01f, -1.5978e-01f,
 6.7568e-01f,  3.2212e-01f,  8.3561e-02f,
-4.6649e-01f, -6.8789e-02f,  5.3455e-01f,
-5.0941e-01f,  7.0657e-02f,  4.5647e-01f,
-2.3657e-02f,  3.5302e-02f, -1.8316e-02f,
-2.0316e-01f,  4.7021e-02f, -2.2313e-01f,
 5.3465e-02f,  7.0750e-01f,  9.1366e-02f,
-2.8566e-01f, -2.0521e-02f, -7.1786e-02f,
 4.8186e-02f, -9.3429e-02f,  2.4493e-03f,
 3.4654e-01f,  7.2625e-02f,  1.6615e-01f,
 3.2101e-01f,  3.2923e-01f, -9.8548e-02f,
 1.1916e-02f,  2.0413e-01f, -1.8920e-02f,
 6.0858e-02f,  8.3548e-01f,  1.4060e-01f,
-9.1827e-01f, -2.4551e-01f, -4.6118e-02f,
-5.2737e-02f,  4.3151e-01f,  1.7027e-01f,
 2.6647e-01f,  5.5240e-01f,  3.4745e-03f,
 5.3495e-02f, -4.7059e-02f, -2.6593e-02f,
 1.5691e-01f,  4.7332e-01f,  2.6651e-03f,
 1.7997e-02f,  4.1367e-01f,  1.3239e-02f,
 4.6932e-02f,  1.0278e-01f,  1.0699e-02f,
-3.4319e-02f, -7.6373e-01f, -9.7022e-02f,
-1.4160e-01f,  2.9567e-01f,  6.6220e-01f,
 7.3508e-05f,  1.2683e-01f, -6.3442e-02f
};

__constant float biasL1[8] = 
{
-0.0264f, -0.0229f, -0.3021f, -0.2579f, -0.0327f, -0.0053f, -0.7777f,  0.0232f
};

__constant float kernelsL[8][9 * 8 * 8] = 
{
{
-7.8588e-41f, -5.0770e-40f, -2.3334e-40f,
 5.7174e-40f,  6.9060e-41f,  2.2264e-40f,
-4.1631e-40f,  4.5667e-40f, -1.8115e-40f,
-3.1000e-40f,  3.1019e-40f,  5.5423e-40f,
-5.8518e-40f,  2.1290e-40f, -5.4579e-40f,
-3.7753e-40f,  3.6029e-40f, -1.7875e-40f,
 4.2296e-40f,  6.5672e-41f,  1.4976e-40f,
-3.1479e-40f, -3.2881e-40f, -5.9818e-40f,
 3.2053e-40f,  3.0821e-40f,  5.1321e-40f,
-2.6557e-17f, -3.8205e-17f, -3.7077e-17f,
-2.5168e-17f, -3.4817e-17f, -3.4186e-17f,
-1.8056e-17f, -2.3105e-17f, -2.2581e-17f,
 5.9355e-40f,  2.4052e-40f, -1.0027e-40f,
 2.2060e-40f,  3.4864e-40f, -5.7403e-40f,
 4.6936e-40f, -3.3951e-40f, -4.7715e-40f,
-9.7917e-11f, -1.0331e-10f, -9.6141e-11f,
-1.0581e-10f, -1.1173e-10f, -1.0317e-10f,
-1.0192e-10f, -1.0681e-10f, -9.8738e-11f,
-1.0402e-29f, -2.3233e-29f, -1.7882e-29f,
-1.4804e-29f, -3.7821e-29f, -3.0750e-29f,
-1.0448e-29f, -2.6740e-29f, -2.1676e-29f,
 4.2124e-40f,  2.5024e-40f,  4.5312e-40f,
-2.4880e-40f,  2.9838e-41f, -2.7215e-41f,
-2.6347e-40f,  1.5950e-40f,  9.3734e-41f,
-1.4936e-01f, -1.0438e-01f,  2.9827e-02f,
 1.4751e-02f, -1.6854e-01f, -8.8101e-02f,
 4.9228e-02f, -3.0744e-02f, -1.1512e-01f,
-3.4996e-02f, -2.5024e-02f, -1.8880e-02f,
 3.0008e-02f,  4.8689e-02f, -1.3415e-01f,
-9.1698e-03f, -1.1019e-02f, -5.0655e-02f,
-6.6579e-02f, -2.6447e-02f,  1.9791e-02f,
-4.1727e-02f,  3.6433e-02f,  3.1516e-02f,
-5.7619e-02f,  2.3401e-02f,  3.0785e-02f,
-3.3610e-02f,  1.2263e-01f,  2.4351e-02f,
 1.7148e-02f,  1.7144e-01f,  4.0305e-02f,
 8.7902e-03f, -7.0077e-02f, -1.0688e-01f,
 4.7460e-02f, -1.4093e-03f, -1.5911e-02f,
-2.2978e-02f,  9.9025e-02f,  1.2867e-02f,
 3.4704e-02f,  1.4672e-01f,  7.9188e-02f,
-4.4222e-02f, -3.9480e-02f, -1.9193e-01f,
-3.1897e-02f,  1.0776e-01f, -5.2742e-02f,
 8.0377e-02f,  2.5764e-01f, -9.7330e-02f,
-1.1593e-01f, -5.3753e-02f, -2.8918e-02f,
 6.7939e-02f,  2.3963e-01f,  2.0856e-01f,
 2.7964e-02f,  2.7781e-01f,  2.1859e-01f,
-1.5196e-02f,  9.6704e-03f, -8.0136e-02f,
 8.9441e-02f,  1.0314e-01f, -2.0204e-02f,
-3.3970e-02f, -1.4562e-02f,  3.4723e-02f,
 2.3357e-40f, -1.4361e-40f,  2.0498e-40f,
-5.2355e-40f, -6.0151e-40f, -2.9264e-40f,
 1.9715e-41f,  5.9793e-41f, -1.3675e-40f,
 5.3771e-40f,  6.5637e-41f, -3.8471e-40f,
-3.0820e-40f, -1.7004e-40f, -1.9371e-40f,
-5.1159e-40f,  7.3244e-41f,  3.5861e-41f,
 2.8441e-40f,  4.5248e-41f,  1.9771e-40f,
-2.4681e-40f,  3.6054e-40f,  3.3496e-40f,
-6.5048e-42f, -1.6001e-40f,  4.8243e-41f,
-1.0165e-08f, -9.9140e-09f, -9.6054e-09f,
-1.0511e-08f, -1.0256e-08f, -9.9066e-09f,
-1.0521e-08f, -1.0320e-08f, -9.9896e-09f,
 2.6042e-40f,  4.2016e-40f,  5.3537e-40f,
 1.4594e-40f,  1.1344e-40f,  3.5144e-40f,
-2.5736e-37f, -1.3591e-39f,  2.1029e-40f,
-3.1420e-07f, -3.0309e-07f, -2.9630e-07f,
-3.1196e-07f, -2.9967e-07f, -2.9249e-07f,
-3.1296e-07f, -3.0086e-07f, -2.9332e-07f,
-6.1256e-12f, -5.9283e-12f, -5.6508e-12f,
-6.5297e-12f, -6.4118e-12f, -6.0667e-12f,
-6.8382e-12f, -6.8547e-12f, -6.5225e-12f,
-5.0327e-26f, -1.0795e-25f, -1.8952e-25f,
-2.4220e-26f, -5.9067e-26f, -1.1323e-25f,
-2.1499e-27f, -5.5342e-27f, -1.0333e-26f,
 4.5039e-03f, -1.3303e-02f,  1.6183e-01f,
 6.5951e-02f, -7.1353e-02f,  1.7254e-01f,
-1.8671e-03f,  1.0593e-01f, -3.6872e-02f,
 4.9102e-02f, -2.4075e-03f,  4.8194e-02f,
-7.0892e-02f, -1.8948e-01f, -1.6586e-01f,
-2.8102e-02f,  2.0870e-02f,  5.9228e-02f,
 1.2673e-02f,  3.3908e-02f,  4.8282e-02f,
 4.4369e-02f,  5.6304e-02f,  1.2225e-02f,
 4.1855e-02f,  1.1990e-01f,  6.3799e-02f,
-7.3884e-02f,  1.4153e-02f,  9.5825e-02f,
 4.2850e-02f, -3.5337e-02f,  1.3615e-01f,
-2.0900e-01f, -2.2835e-02f, -8.6987e-02f,
-6.7793e-02f,  1.3547e-01f, -9.9666e-02f,
 3.5498e-02f,  5.3725e-02f,  1.1501e-01f,
-1.2238e-01f,  3.5354e-02f,  7.4216e-02f,
-3.5288e-02f,  7.0111e-03f,  2.4820e-02f,
-1.0649e-02f,  1.6715e-01f,  1.2825e-01f,
 3.1145e-02f,  1.2097e-01f, -1.2073e-02f,
-7.0603e-02f,  5.5574e-02f, -5.0025e-02f,
-8.2885e-02f,  1.0957e-01f,  1.3311e-01f,
 2.9147e-02f, -1.1849e-02f,  8.9953e-02f,
-3.2247e-02f, -1.0747e-02f,  9.1431e-03f,
 1.2114e-01f, -5.9780e-02f,  5.4821e-02f,
-5.2592e-02f, -6.9082e-02f, -7.5981e-02f,
-7.8533e-02f,  1.3658e-01f,  1.0923e-01f,
-3.2530e-02f, -2.1342e-01f, -1.2200e-01f,
-1.9196e-02f,  1.0450e-01f, -8.9044e-02f,
-2.0110e-02f,  6.1439e-02f, -2.7405e-02f,
 6.0823e-02f, -6.4268e-03f, -9.1778e-03f,
 6.4877e-02f, -6.1227e-02f, -5.4466e-02f,
 9.6375e-02f,  1.7519e-01f,  5.0725e-03f,
 1.9159e-01f,  3.9725e-01f,  1.2851e-01f,
-6.9197e-02f,  4.9372e-02f, -3.4221e-02f,
 1.1583e-01f,  1.3389e-01f,  2.9135e-01f,
 1.0290e-02f,  1.1214e-01f,  1.7560e-01f,
-1.8048e-02f,  8.4782e-02f,  4.9925e-02f,
-3.8447e-02f, -1.3156e-01f, -1.1072e-01f,
 1.8256e-01f,  2.2831e-01f, -1.6508e-01f,
 4.6781e-02f,  1.4913e-01f, -8.6956e-02f,
 5.1365e-04f,  6.7873e-02f, -3.4787e-03f,
 1.7689e-01f,  1.8414e-01f,  2.2286e-01f,
 1.2571e-01f,  1.7687e-01f,  1.5949e-01f,
 5.9904e-02f,  1.6259e-01f,  1.4313e-01f,
 2.2234e-01f,  4.0943e-01f,  3.1469e-01f,
 1.9799e-01f,  4.3052e-01f,  3.0510e-01f,
 1.2259e-01f, -1.0778e-02f,  6.2284e-03f,
 1.4508e-02f, -6.9073e-02f,  5.0998e-02f,
 5.2962e-02f, -1.5291e-01f, -1.0491e-02f,
-8.6903e-02f, -1.0430e-01f,  3.0130e-02f,
 4.1691e-02f, -1.2675e-01f, -5.5169e-01f,
 8.9644e-02f,  3.6910e-02f, -1.5459e-01f,
 5.3656e-03f,  6.7936e-02f,  1.0793e-01f,
-2.7424e-02f, -1.7652e-01f, -3.5776e-01f,
 2.4593e-02f, -5.6237e-01f, -5.9038e-01f,
-9.4807e-02f, -7.5681e-02f, -3.6990e-02f,
 8.7385e-03f, -5.7989e-02f, -4.9573e-02f,
-7.7422e-02f, -1.1899e-01f, -7.4023e-02f,
 9.1539e-03f, -1.1760e-01f,  4.6825e-02f,
 1.9901e-02f, -3.9718e-02f,  1.2997e-02f,
 4.2209e-02f, -5.2119e-02f, -1.2255e-01f,
 2.4262e-02f,  5.3676e-02f, -2.4767e-01f,
-4.2933e-02f, -2.2473e-01f, -4.0310e-01f,
-3.5160e-02f,  1.9858e-01f, -1.5943e-01f,
 1.3208e-01f, -1.0493e-01f, -6.7076e-02f,
-2.5244e-01f,  1.1175e-02f,  2.5568e-01f,
-3.3867e-01f,  3.1953e-02f,  5.9426e-01f,
 4.0551e-02f,  4.4914e-03f, -1.9348e-02f,
-6.7386e-02f, -1.5543e-01f, -3.0883e-02f,
 8.9177e-02f, -4.6432e-02f,  6.8227e-02f,
 8.7784e-02f,  3.6127e-02f, -2.0375e-02f,
 4.5461e-02f, -4.9071e-02f,  9.9435e-02f,
-2.5700e-01f, -2.7706e-01f,  6.2776e-02f,
-6.9571e-02f, -5.7888e-03f,  9.3852e-02f,
 2.8490e-02f, -2.7854e-01f,  1.4209e-01f,
 1.5373e-02f, -4.3503e-02f,  9.6895e-02f,
 1.1682e-02f,  1.5608e-01f,  1.5844e-01f,
 5.8027e-02f,  2.6632e-02f, -8.5479e-03f,
 1.2836e-01f,  2.0714e-01f,  1.0228e-01f,
 1.4647e-02f,  5.7609e-02f, -1.6728e-02f,
 2.1212e-01f,  3.2673e-01f,  4.5670e-02f,
-6.0844e-02f, -1.1768e-01f, -1.1233e-01f,
 5.0123e-04f,  6.3947e-02f, -1.8356e-01f,
 1.4091e-01f, -2.1568e-02f,  8.5933e-02f,
-3.9406e-02f,  8.2921e-02f, -1.0601e-01f,
 4.1284e-02f, -7.3138e-02f,  1.7264e-01f,
 2.5883e-02f,  5.2945e-01f,  2.4510e-01f,
 2.7291e-03f,  4.0173e-02f,  7.8221e-03f,
-3.5795e-02f, -4.8631e-03f, -2.2715e-01f,
 1.2330e-01f,  7.1739e-01f, -4.1725e-01f,
 7.5106e-02f,  2.5267e-02f, -2.8655e-01f,
-7.8731e-02f, -7.5747e-03f, -5.5601e-02f,
 7.9764e-02f,  1.0524e-01f,  8.6742e-03f,
 2.1791e-02f,  3.7304e-02f, -1.1534e-01f,
-1.2011e-01f, -7.5160e-02f,  1.3737e-02f,
-2.9470e-01f,  2.6613e-01f, -2.3740e-02f,
 1.2957e-01f,  1.4752e-01f, -9.3655e-02f,
 2.9828e-02f,  2.0664e-01f,  1.9731e-02f,
-8.0378e-02f, -3.9481e-01f, -1.5395e-01f,
-5.7944e-02f, -8.6343e-02f, -5.4324e-02f,
 7.1664e-02f,  1.5294e-01f, -1.2112e-02f,
 2.1023e-02f,  1.1945e-01f, -7.2998e-02f,
-1.1693e-02f, -1.8818e-01f, -9.8693e-02f,
-6.7017e-02f,  6.9767e-02f, -5.0268e-02f,
-9.1106e-03f,  2.4267e-01f,  6.0277e-02f,
 3.5269e-02f,  7.7376e-02f,  1.6642e-02f,
-5.2600e-02f, -1.8864e-01f, -1.1195e-01f,
 3.2119e-01f, -9.7913e-02f,  1.4734e-01f,
 8.6988e-02f, -5.3563e-03f, -2.6136e-03f,
-9.1528e-03f,  2.8186e-01f, -1.5933e-01f,
 4.8499e-02f,  4.5189e-01f, -1.6399e-01f,
 5.8164e-02f,  6.3251e-02f, -2.8738e-02f,
 2.0424e-01f, -7.2819e-02f,  2.1903e-02f,
-3.5630e-01f,  1.3171e-01f, -7.6749e-02f,
 3.8848e-02f,  1.7902e-01f, -1.1902e-01f,
-4.4221e-02f,  1.5032e-02f,  2.9078e-02f,
-1.9738e-01f, -1.4878e-02f,  1.3315e-02f,
 1.3956e-02f,  1.2856e-01f,  7.0688e-02f,
 2.0933e-01f,  1.7286e-01f,  6.7601e-02f,
 5.5136e-01f,  4.6866e-01f,  1.8402e-01f,
 2.2362e-01f,  2.4124e-01f,  1.3167e-01f
}
,
{
-5.2308e-12f, -5.4024e-12f, -5.0039e-12f,
-5.4553e-12f, -5.6928e-12f, -5.2812e-12f,
-5.0230e-12f, -5.2150e-12f, -4.9133e-12f,
 5.7994e-02f,  1.0051e-01f, -1.0618e-01f,
 6.8090e-02f,  1.2789e-01f,  1.1380e-01f,
-1.5882e-01f,  8.2323e-03f, -9.1424e-02f,
 2.0132e-07f,  2.0907e-07f,  2.1344e-07f,
 2.1179e-07f,  2.2018e-07f,  2.2381e-07f,
 2.1095e-07f,  2.1920e-07f,  2.2150e-07f,
 2.9336e-02f,  5.4427e-02f, -1.2082e-01f,
 5.8399e-02f,  2.2261e-01f,  1.1165e-01f,
-9.6098e-02f,  8.3175e-02f, -6.5909e-02f,
 1.2007e-01f,  1.9776e-01f,  7.7464e-02f,
 6.7018e-02f,  3.6536e-01f,  1.3796e-01f,
 6.0724e-02f,  4.6161e-02f,  2.3740e-01f,
-2.1117e-02f, -2.0200e-02f,  9.3703e-02f,
-4.6932e-02f, -1.5910e-01f,  8.8094e-02f,
-5.6641e-02f, -1.7146e-01f, -1.0502e-01f,
-2.5624e-01f,  1.6049e-01f, -3.3267e-02f,
-2.3248e-01f,  5.4036e-01f,  1.0027e-01f,
-2.1680e-01f, -7.0096e-03f, -1.0692e-01f,
-4.8357e-02f,  2.5107e-01f,  4.8323e-02f,
 9.7245e-02f,  5.5015e-01f, -3.4641e-01f,
 1.2458e-02f, -1.3626e-01f, -4.1992e-01f,
-2.1359e-40f, -1.4250e-40f, -4.7123e-40f,
-5.9433e-41f,  1.9903e-41f, -1.7701e-40f,
-5.9941e-40f, -5.8562e-40f, -5.0226e-40f,
-2.6581e-40f,  1.3006e-40f, -1.4201e-40f,
 5.4264e-40f,  2.3848e-40f,  5.6412e-40f,
-2.6378e-41f, -5.7132e-40f, -4.1343e-40f,
-3.2848e-22f, -3.6697e-22f, -3.4147e-22f,
-3.5780e-22f, -3.9435e-22f, -3.5989e-22f,
-3.1212e-22f, -3.4305e-22f, -3.0670e-22f,
-1.1749e-08f, -1.1602e-08f, -1.1494e-08f,
-1.2125e-08f, -1.1918e-08f, -1.1718e-08f,
-1.1779e-08f, -1.1623e-08f, -1.1559e-08f,
-5.0237e-07f, -4.9179e-07f, -4.6744e-07f,
-5.1967e-07f, -5.0826e-07f, -4.8421e-07f,
-5.0226e-07f, -4.9668e-07f, -4.8019e-07f,
 5.6433e-41f, -3.0514e-40f, -5.4526e-40f,
 1.1125e-41f,  2.9485e-40f,  5.5282e-40f,
 3.0229e-40f,  1.5915e-40f,  5.3759e-40f,
-6.1144e-27f, -9.2380e-26f, -2.4302e-25f,
-9.3834e-25f, -1.0289e-23f, -1.9513e-23f,
-4.3746e-24f, -4.4359e-23f, -7.0505e-23f,
-8.1604e-36f, -3.2928e-37f, -2.2994e-40f,
-3.9543e-37f, -9.9513e-39f,  7.4616e-41f,
-4.0044e-39f,  4.4392e-40f,  4.8856e-40f,
-3.3447e-40f, -3.9935e-40f,  2.4649e-40f,
 2.0207e-40f, -3.0245e-40f, -7.1986e-41f,
 6.2938e-40f, -3.6922e-40f,  1.5296e-40f,
-6.4982e-41f,  5.0849e-41f,  5.7873e-40f,
 1.4327e-40f, -4.2163e-40f,  1.3807e-40f,
 2.8569e-40f,  1.9139e-40f,  3.2985e-40f,
-5.4410e-40f,  2.3070e-40f,  2.1690e-40f,
-1.5964e-40f, -2.2781e-40f,  5.6766e-40f,
 2.2533e-42f, -2.5532e-40f, -5.5822e-40f,
 5.7249e-40f,  5.3555e-40f, -4.9107e-41f,
 1.7538e-40f, -1.2312e-40f,  5.0077e-40f,
 6.1500e-40f,  1.9980e-40f,  6.2953e-40f,
-7.5314e-23f, -9.4299e-23f, -7.1342e-23f,
-8.5139e-23f, -1.1237e-22f, -9.0478e-23f,
-6.2038e-23f, -8.5180e-23f, -7.3015e-23f,
 5.0613e-40f,  1.5224e-40f, -1.8977e-40f,
 2.4108e-41f, -5.1771e-40f,  6.2317e-40f,
 1.0465e-40f,  2.8816e-41f,  6.2500e-40f,
 3.5727e-40f,  4.2717e-40f, -3.5900e-40f,
-4.4831e-40f,  3.4260e-40f, -4.8293e-40f,
-2.4133e-40f,  3.1140e-40f, -2.0777e-40f,
-2.2906e-41f,  3.5923e-40f, -4.4443e-40f,
-4.6615e-40f, -2.1123e-40f,  4.5700e-40f,
-4.6360e-40f, -3.6052e-40f, -3.4319e-40f,
-3.6575e-40f, -3.5707e-40f, -3.0530e-41f,
 4.2531e-40f, -1.2255e-40f, -3.9607e-40f,
 3.5903e-40f, -5.4630e-40f, -3.1460e-40f,
 2.8820e-40f,  4.9460e-40f,  6.1461e-40f,
 8.9118e-41f, -4.6579e-40f, -2.4172e-40f,
-5.5474e-40f, -8.1848e-41f, -1.6910e-40f,
-1.6272e-25f, -1.8802e-25f, -1.7229e-25f,
-1.7850e-25f, -2.0338e-25f, -1.8235e-25f,
-1.4715e-25f, -1.6733e-25f, -1.4681e-25f,
-5.5471e-09f, -5.6862e-09f, -5.7043e-09f,
-5.8727e-09f, -5.9823e-09f, -5.8983e-09f,
-5.8040e-09f, -5.8670e-09f, -5.7388e-09f,
-9.7253e-07f, -9.7248e-07f, -9.4623e-07f,
-1.0149e-06f, -1.0042e-06f, -9.6709e-07f,
-1.0139e-06f, -9.9930e-07f, -9.5295e-07f,
-4.5042e-40f,  2.6725e-40f,  2.3181e-40f,
-4.6274e-41f, -1.1799e-40f,  5.0685e-40f,
-1.0765e-40f,  3.3322e-40f, -6.1905e-40f,
-1.3653e-34f, -3.4690e-33f, -1.1578e-32f,
-1.4444e-31f, -2.1995e-30f, -4.8668e-30f,
-1.2965e-30f, -2.0189e-29f, -3.3962e-29f,
-2.5057e-40f,  7.2876e-41f,  4.5731e-41f,
-1.6525e-40f,  5.0987e-40f, -5.4683e-40f,
 8.1836e-41f,  6.2722e-40f, -3.1057e-40f,
 4.0987e-40f,  3.5941e-40f,  5.1680e-40f,
 5.5563e-40f,  3.1011e-40f,  4.7068e-40f,
 1.0426e-40f, -1.0803e-40f,  4.4867e-40f,
-4.9675e-03f,  1.5412e-01f, -4.1930e-03f,
-6.1089e-02f,  2.0405e-01f,  1.9587e-01f,
 3.8772e-02f,  1.6894e-01f, -2.6163e-02f,
 1.0839e-30f,  1.8608e-30f,  1.1386e-30f,
 1.4863e-29f,  1.9422e-29f,  1.1639e-29f,
 1.7504e-29f,  2.2177e-29f,  1.3629e-29f,
 6.4484e-02f,  6.6296e-02f,  2.2838e-01f,
-1.0213e-01f,  7.5883e-02f, -1.7531e-01f,
-1.4869e-01f,  1.0736e-01f,  1.4129e-01f,
-2.8235e-02f, -2.9232e-02f, -9.3912e-02f,
 5.1317e-02f,  9.0256e-02f, -2.4669e-02f,
-3.2465e-02f,  5.8099e-02f,  9.8402e-02f,
-2.3135e-01f, -1.3786e-01f,  2.8581e-01f,
-3.2410e-01f, -2.6623e-01f,  6.1583e-02f,
 1.8696e-01f,  4.7251e-02f, -2.3520e-01f,
 2.5630e-02f, -1.2358e-01f, -1.5735e-01f,
-1.2198e-01f,  5.1970e-01f,  1.9976e-01f,
-1.2515e-01f,  9.8768e-02f,  5.8917e-02f,
-3.8569e-02f, -9.2729e-02f, -1.8982e-01f,
 1.1378e-01f,  5.7195e-01f, -1.8265e-01f,
-3.5724e-02f, -2.1379e-01f, -2.2129e-01f,
-5.1198e-40f, -3.4709e-40f,  6.2940e-40f,
-2.2134e-41f, -3.6133e-40f, -2.7075e-40f,
-5.9664e-40f, -2.3937e-40f,  3.0876e-40f,
 9.1814e-41f,  9.5898e-41f, -3.1892e-40f,
 3.1093e-40f,  2.7935e-40f,  1.7966e-40f,
-2.3967e-40f,  4.0806e-40f,  6.2012e-40f,
 5.3771e-41f,  6.1000e-40f, -4.6695e-40f,
 5.9474e-41f, -4.9675e-40f,  5.7403e-41f,
 4.7091e-40f, -5.0751e-41f,  3.9864e-41f,
-9.7756e-41f,  2.7978e-40f, -5.0791e-40f,
-3.4321e-40f, -7.0774e-41f, -5.2651e-40f,
 2.8034e-40f, -3.3452e-40f,  1.9535e-40f,
-6.2300e-40f, -1.8372e-40f, -1.9038e-40f,
-5.6564e-40f, -6.1257e-40f, -1.0338e-40f,
-1.7191e-41f, -1.2843e-41f,  5.0707e-40f,
-4.4587e-40f,  2.7128e-40f, -1.4155e-40f,
-5.7475e-40f, -3.4612e-40f, -4.7424e-40f,
 1.7235e-40f, -6.0028e-40f, -1.6342e-40f,
-5.1072e-40f, -2.4721e-40f, -2.8477e-41f,
 2.6598e-40f, -4.4078e-40f,  4.1763e-40f,
-3.3947e-40f, -5.5626e-40f,  4.9713e-40f,
 2.1733e-40f, -2.9024e-40f, -4.5514e-42f,
-3.4873e-40f, -1.0737e-40f, -1.4297e-40f,
 2.8514e-40f,  2.6283e-40f,  2.2827e-40f,
 3.8908e-40f, -4.2140e-40f,  6.1433e-40f,
-4.7825e-40f, -3.0140e-40f, -5.9563e-40f,
 1.5280e-40f,  2.6156e-40f,  5.0361e-40f,
 1.9497e-01f,  2.3140e-01f, -3.5244e-02f,
 1.6876e-01f, -1.7646e-02f, -2.0413e-01f,
 9.8052e-02f, -6.7906e-02f, -3.9834e-02f,
-5.9252e-15f, -6.7431e-15f, -8.1865e-15f,
-5.7350e-15f, -6.6893e-15f, -8.9833e-15f,
-8.4106e-15f, -1.0631e-14f, -1.5948e-14f,
 8.9389e-02f,  6.6460e-02f,  6.8477e-02f,
 6.1099e-03f, -8.7536e-02f,  1.1792e-01f,
-1.0079e-01f,  1.5293e-01f,  4.3945e-02f,
 1.0168e-01f,  1.0281e-01f, -7.9173e-02f,
 2.0855e-01f,  1.7537e-01f, -7.1000e-02f,
-1.4157e-01f, -3.8478e-02f, -2.7478e-01f,
 2.2156e-01f, -6.4262e-02f, -7.2841e-02f,
-3.2334e-01f,  6.5591e-02f,  1.1163e-01f,
 7.2151e-02f, -1.6943e-01f,  5.9049e-02f,
-1.4813e-01f, -2.0904e-01f, -8.8010e-02f,
-2.7215e-01f,  5.7668e-01f,  1.7618e-02f,
-7.1365e-02f,  1.2976e-01f, -1.0169e-01f,
-8.9229e-02f,  3.3971e-02f,  1.8295e-01f,
 1.7204e-01f,  3.8082e-01f,  3.7415e-02f,
 5.9309e-02f, -4.9550e-04f,  5.1555e-01f,
-5.1006e-18f, -5.6038e-18f, -5.8724e-18f,
-5.8910e-18f, -5.8379e-18f, -5.6311e-18f,
-5.2596e-18f, -5.1835e-18f, -4.6300e-18f,
 6.4067e-02f,  1.8889e-02f, -1.0634e-01f,
 1.7316e-04f,  1.9935e-01f, -1.1854e-02f,
-9.3669e-02f, -1.1924e-01f, -1.8981e-02f,
 1.7465e-08f,  1.7340e-08f,  1.7565e-08f,
 1.8234e-08f,  1.8008e-08f,  1.8017e-08f,
 1.9226e-08f,  1.8956e-08f,  1.8651e-08f,
-1.7294e-01f, -1.2200e-01f, -4.9577e-02f,
-3.5087e-02f, -1.2526e-01f,  9.3445e-03f,
-7.4374e-02f, -1.1350e-01f,  2.7510e-03f,
 8.5153e-02f,  4.2080e-02f, -5.0111e-02f,
 1.2845e-01f,  1.9630e-01f,  1.0542e-01f,
-1.0095e-01f,  6.2631e-02f,  8.8734e-02f,
 3.4836e-01f,  5.4389e-01f, -2.2360e-01f,
 5.1721e-01f,  5.7094e-01f, -6.7491e-02f,
-3.5972e-02f,  1.0590e-01f, -2.2984e-01f,
-1.5483e-01f, -5.1271e-03f,  4.9780e-02f,
-1.3184e-01f,  2.8028e-01f, -1.1427e-02f,
-3.4093e-02f, -6.7622e-02f, -1.2359e-02f,
 1.3184e-02f,  1.2125e-01f, -1.2502e-02f,
 9.2730e-02f, -6.5974e-02f, -1.6519e-01f,
 1.9546e-01f, -1.5188e-01f, -8.1752e-02f
}
,
{
-3.4905e-04f, -3.5739e-04f, -3.2920e-04f,
-3.8506e-04f, -3.9121e-04f, -3.5635e-04f,
-3.7303e-04f, -3.7698e-04f, -3.4190e-04f,
 2.8622e-41f, -1.2033e-41f,  1.2609e-40f,
-4.9379e-40f, -5.1047e-40f,  5.5085e-41f,
-4.7002e-40f, -5.0136e-40f, -4.5629e-40f,
-5.1095e-40f,  1.8741e-40f,  1.8435e-40f,
 4.1851e-40f, -8.9558e-41f, -9.6681e-41f,
-1.8244e-40f,  2.7992e-40f,  1.8116e-40f,
 2.8655e-40f, -3.0193e-40f,  2.2293e-40f,
 1.6805e-40f,  3.3049e-40f,  6.9542e-41f,
-3.3329e-40f,  4.2212e-40f, -1.3453e-40f,
-8.4502e-15f, -1.1099e-14f, -9.4174e-15f,
-9.8778e-15f, -1.1768e-14f, -9.4875e-15f,
-6.7805e-15f, -7.4561e-15f, -5.8023e-15f,
 6.0452e-40f,  6.9262e-41f,  2.9300e-40f,
-6.1511e-40f, -4.1269e-40f,  4.4012e-40f,
 1.3340e-42f, -2.9020e-40f, -4.5529e-40f,
-1.2289e-22f, -1.3972e-21f, -5.5694e-21f,
-1.7854e-21f, -1.7743e-20f, -5.6749e-20f,
-6.8510e-21f, -6.2353e-20f, -1.6203e-19f,
-5.0003e-07f, -5.1950e-07f, -4.7654e-07f,
-5.5510e-07f, -5.7995e-07f, -5.2753e-07f,
-5.3262e-07f, -5.5802e-07f, -5.0971e-07f,
-1.4922e-02f, -1.1926e-01f, -1.9067e-02f,
-2.6298e-03f,  2.1756e-01f,  3.0148e-02f,
 1.4372e-01f,  3.5066e-02f, -1.0184e-02f,
-4.1698e-12f, -4.8798e-12f, -6.4033e-12f,
-2.3169e-12f, -2.7879e-12f, -3.7276e-12f,
-1.6177e-12f, -2.0021e-12f, -2.6440e-12f,
-5.9514e-40f, -4.4339e-40f, -3.0315e-40f,
 3.5756e-40f,  2.5390e-40f, -1.2253e-40f,
 2.1417e-40f,  4.0569e-40f,  5.3962e-40f,
-5.5825e-13f, -6.8528e-13f, -9.3486e-13f,
-2.9163e-13f, -3.6959e-13f, -5.1183e-13f,
-1.8703e-13f, -2.4740e-13f, -3.4019e-13f,
-2.7137e-01f, -4.5025e-01f,  2.6405e-02f,
-7.9580e-02f,  5.0698e-01f, -7.8794e-02f,
-3.7540e-02f, -7.1115e-03f, -3.9741e-01f,
-5.9910e-40f, -5.5101e-40f,  3.1274e-41f,
-6.9384e-41f, -4.9294e-40f, -1.0818e-40f,
-3.5484e-40f, -4.7965e-41f, -5.2508e-41f,
 4.1917e-01f, -1.6207e-02f, -6.8506e-02f,
-2.7060e-02f,  5.6162e-01f,  1.6696e-01f,
-1.7677e-03f,  1.8842e-01f, -6.0493e-02f,
-3.0696e-01f, -1.7293e-01f, -8.7143e-02f,
-1.6740e-01f,  1.8861e-02f, -1.7112e-01f,
 8.6594e-02f,  3.0025e-01f, -7.6141e-02f,
 1.1317e-02f,  1.0678e-01f, -5.1283e-02f,
-1.2872e-01f,  4.2580e-01f,  4.9678e-02f,
-2.8372e-01f, -1.3479e-01f, -7.3813e-02f,
-1.7038e-15f, -1.1156e-15f, -7.3385e-16f,
-2.6350e-15f, -1.6234e-15f, -1.0598e-15f,
-7.7860e-15f, -4.6981e-15f, -3.0030e-15f,
-3.0246e-40f, -4.1596e-40f,  2.9013e-40f,
 8.5195e-41f, -2.2396e-40f, -2.0322e-40f,
-5.6200e-40f,  2.4820e-40f,  3.1309e-40f,
-3.1822e-17f, -1.6585e-17f, -8.8616e-18f,
-5.9907e-17f, -2.9812e-17f, -1.6126e-17f,
-2.4410e-16f, -1.2541e-16f, -6.7867e-17f,
 1.5795e-01f, -1.4429e-01f, -6.0501e-02f,
 5.9113e-02f,  3.4391e-01f,  1.4165e-01f,
 5.2564e-02f, -1.8209e-01f, -6.8176e-02f,
-7.7363e-41f,  5.9969e-40f,  5.9290e-40f,
-7.4888e-41f, -7.0945e-41f,  5.3120e-40f,
 1.3612e-40f, -4.6718e-40f, -1.0677e-40f,
-1.1498e-01f, -1.2925e-02f,  2.6735e-02f,
-8.1469e-02f,  2.9678e-01f,  1.8971e-01f,
 2.0149e-02f,  2.4207e-03f, -1.2549e-01f,
-6.6799e-02f, -3.5900e-02f, -5.6111e-02f,
 9.5181e-02f,  2.1216e-02f,  2.0477e-01f,
 8.5923e-03f,  6.8615e-03f,  3.8252e-02f,
 4.5098e-03f,  2.1321e-01f,  3.4612e-03f,
 3.5662e-01f,  4.7532e-02f,  2.5319e-01f,
 4.1275e-02f,  1.7951e-01f,  3.2239e-02f,
-2.6628e-21f, -7.7165e-22f, -4.9086e-22f,
-1.4320e-21f, -2.7134e-22f, -1.2712e-22f,
-1.9648e-21f, -3.4172e-22f, -1.3895e-22f,
-2.2836e-40f,  3.2091e-40f, -4.4396e-40f,
 2.9048e-40f,  6.0866e-40f,  3.7804e-40f,
-3.0676e-40f, -2.4897e-40f,  4.9891e-40f,
-1.8955e-28f, -3.4994e-29f, -1.2914e-29f,
-4.7737e-29f, -3.5212e-30f, -6.4003e-31f,
-8.2908e-29f, -3.1692e-30f, -3.6909e-31f,
-9.3327e-02f,  1.5314e-01f,  1.0676e-01f,
 2.5979e-01f, -6.6826e-01f,  2.3727e-01f,
 1.4855e-01f,  1.9205e-01f,  8.8246e-02f,
-5.5197e-40f,  5.3162e-41f, -5.2933e-40f,
 1.0846e-41f, -5.8128e-40f, -3.1273e-40f,
-2.8408e-40f,  1.6989e-40f,  4.8221e-41f,
 7.8403e-02f,  1.6407e-01f,  7.9932e-02f,
 3.2253e-01f, -2.6036e-01f, -8.9727e-02f,
-7.5145e-02f,  1.5536e-02f, -8.2710e-02f,
-2.1608e-01f, -4.4619e-01f, -4.4470e-02f,
-3.9430e-01f, -8.2373e-01f, -7.0646e-01f,
-6.9004e-03f, -4.9697e-01f, -1.4212e-01f,
-1.8932e-06f, -1.8356e-06f, -1.6373e-06f,
-1.9427e-06f, -1.9113e-06f, -1.7028e-06f,
-1.8843e-06f, -1.8616e-06f, -1.6818e-06f,
-4.7452e-29f, -4.4894e-29f, -2.5364e-29f,
-5.6268e-29f, -5.4363e-29f, -3.0876e-29f,
-4.3808e-29f, -4.2767e-29f, -2.4573e-29f,
 3.8855e-40f,  3.5152e-40f, -4.8707e-40f,
 4.3606e-41f, -1.7886e-40f,  5.1970e-40f,
 6.2864e-40f,  5.9972e-40f,  2.2197e-40f,
-2.1903e-37f, -1.9174e-37f, -7.0785e-38f,
-2.7149e-37f, -2.4810e-37f, -9.5619e-38f,
-1.8463e-37f, -1.7136e-37f, -6.7163e-38f,
-2.9062e-30f, -3.1324e-30f, -1.0876e-30f,
-2.7434e-30f, -3.7036e-30f, -1.2821e-30f,
-6.8828e-31f, -9.8708e-31f, -3.7930e-31f,
-6.3329e-41f, -3.8604e-41f, -2.8272e-40f,
-3.3350e-40f, -1.5210e-40f, -4.2620e-41f,
-1.7669e-41f,  5.2291e-40f, -3.3205e-40f,
-3.0738e-25f, -8.2305e-24f, -2.1451e-23f,
-1.4470e-24f, -4.5131e-23f, -1.2177e-22f,
-4.2841e-24f, -1.3077e-22f, -3.5946e-22f,
-8.5637e-08f, -8.4715e-08f, -7.7597e-08f,
-8.7326e-08f, -8.7480e-08f, -8.0290e-08f,
-8.4525e-08f, -8.4963e-08f, -7.8582e-08f,
-5.8581e-27f, -8.8483e-27f, -8.1150e-27f,
-7.4336e-27f, -1.2036e-26f, -1.1909e-26f,
-6.6006e-27f, -1.0685e-26f, -1.0809e-26f,
-5.6355e-40f, -2.3469e-40f, -3.5885e-40f,
-2.0755e-40f,  2.0377e-40f,  3.2259e-40f,
-5.3947e-40f,  4.2747e-41f,  4.8967e-41f,
 4.5073e-41f,  5.0069e-40f,  2.6114e-40f,
-4.8225e-40f, -4.8317e-40f, -5.4316e-40f,
-5.4335e-40f, -5.2994e-40f,  2.6295e-40f,
-1.1702e-40f, -2.3137e-41f, -4.5405e-40f,
-4.6797e-40f,  6.5582e-41f,  1.8111e-40f,
 6.1477e-40f, -1.6827e-40f, -2.0288e-40f,
-2.4220e-41f,  4.7774e-40f,  5.1050e-40f,
 4.9844e-40f,  5.6437e-41f,  4.7749e-40f,
-6.8037e-41f, -5.5944e-41f, -5.2248e-40f,
-2.9382e-40f,  2.3800e-41f,  1.5850e-40f,
-4.5290e-40f, -5.2260e-41f,  2.3726e-40f,
-1.9232e-40f, -2.3502e-40f, -2.9736e-40f,
-2.8081e-40f, -5.2929e-40f, -4.0786e-40f,
-3.0303e-41f,  3.1336e-40f, -5.8450e-40f,
-1.5091e-40f, -2.7371e-40f, -4.5927e-40f,
-4.0985e-38f, -6.9102e-38f, -5.4450e-38f,
-6.2744e-38f, -1.1526e-37f, -9.9374e-38f,
-4.8587e-38f, -9.1819e-38f, -8.0593e-38f,
-2.9266e-29f, -4.5005e-29f, -3.9891e-29f,
-3.8505e-29f, -6.3370e-29f, -6.0017e-29f,
-3.2761e-29f, -5.4145e-29f, -5.1812e-29f,
 3.3692e-40f,  1.0044e-40f, -6.6821e-41f,
 9.2910e-41f,  6.2137e-40f, -3.5625e-40f,
 1.8601e-40f,  3.1653e-40f, -1.1506e-40f,
 1.2093e-40f, -5.7191e-40f,  5.6828e-40f,
-2.3177e-40f, -2.1648e-40f,  5.3642e-40f,
 4.8826e-40f,  5.2760e-40f, -4.9059e-40f,
-2.0721e-40f,  2.0122e-40f, -5.9485e-40f,
 3.8843e-40f, -6.0861e-41f, -4.0542e-40f,
-3.4308e-40f, -4.2822e-40f, -3.9605e-40f,
-5.7429e-40f,  4.9242e-40f, -5.9141e-40f,
 4.6267e-40f, -2.4953e-40f, -2.9300e-40f,
 5.3466e-40f, -5.2403e-40f,  3.5178e-40f,
-1.8309e-40f,  2.9157e-40f, -7.7367e-41f,
-5.8922e-40f,  3.2359e-40f, -6.1293e-40f,
 6.1138e-40f,  2.2121e-40f, -5.0657e-42f,
 4.7910e-40f, -1.4080e-40f,  1.9220e-40f,
-3.5670e-40f,  3.4204e-40f, -5.0215e-40f,
 1.1877e-41f,  2.3114e-40f, -4.7794e-40f,
-3.6520e-40f,  4.3222e-40f, -5.2866e-40f,
-6.0703e-40f, -4.0896e-40f, -1.2521e-40f,
-4.1981e-40f,  5.4404e-41f,  3.3337e-40f,
 1.3733e-01f,  1.8485e-01f,  7.6179e-02f,
 8.1719e-02f,  3.3343e-01f,  2.9857e-02f,
-4.2753e-03f,  2.0957e-01f,  1.8582e-02f,
 2.9948e-07f,  3.3403e-07f,  3.7619e-07f,
 3.4854e-07f,  3.8224e-07f,  4.1507e-07f,
 3.7511e-07f,  4.0398e-07f,  4.3743e-07f,
-1.7150e-41f, -2.4088e-41f, -1.5593e-40f,
 6.3817e-41f,  4.8004e-41f, -1.1053e-40f,
-2.5225e-40f, -2.7111e-40f, -4.2970e-40f,
 1.0496e-06f,  1.0916e-06f,  1.1376e-06f,
 1.1364e-06f,  1.1756e-06f,  1.2051e-06f,
 1.1762e-06f,  1.2105e-06f,  1.2358e-06f,
 1.0037e-02f,  1.4957e-01f, -4.9010e-02f,
 2.6877e-02f,  1.9067e-01f, -1.9339e-03f,
-2.2081e-02f, -1.5137e-01f, -1.6088e-01f,
 1.6880e-41f, -2.0352e-41f, -4.1857e-42f,
 2.0926e-40f, -2.1394e-41f, -5.4341e-40f,
 4.6824e-40f,  6.2682e-40f,  4.9865e-40f,
-3.2967e-01f, -2.5981e-01f, -1.3016e-01f,
-2.6507e-01f,  3.2282e-01f,  4.3204e-01f,
-7.0936e-02f,  1.9800e-01f,  9.4916e-02f,
-1.0122e-02f,  7.4127e-02f, -7.1554e-02f,
 7.7869e-02f,  1.5734e-01f,  1.3287e-01f,
-9.5431e-02f,  1.0984e-01f, -7.6759e-02f
}
,
{
-5.5262e-40f,  3.7699e-40f, -1.4920e-40f,
 4.0064e-40f, -2.0632e-40f, -4.4801e-41f,
-3.6749e-40f,  5.9043e-40f, -1.5942e-40f,
-5.9219e-42f, -4.1286e-40f, -1.6920e-40f,
-2.5927e-40f, -4.5458e-41f,  2.0990e-40f,
-4.6860e-40f,  5.0483e-40f,  2.8004e-40f,
-4.0641e-40f,  6.0770e-40f, -3.8297e-42f,
 5.7537e-40f,  5.7772e-40f, -1.0048e-40f,
 1.5945e-40f,  3.9582e-40f, -2.6190e-40f,
-5.1046e-40f, -5.5028e-40f,  5.8786e-40f,
-3.5033e-40f, -1.2031e-40f, -3.4156e-40f,
 3.0058e-40f,  4.3043e-40f,  5.9825e-40f,
 4.9197e-40f,  2.5974e-40f, -4.3461e-41f,
-4.1935e-40f, -1.6383e-41f, -1.4680e-40f,
-5.3501e-40f, -2.6348e-40f,  3.0631e-40f,
-5.2019e-40f, -4.4123e-40f,  2.3984e-40f,
-4.4682e-41f, -4.6000e-40f, -5.0418e-40f,
-4.1263e-40f,  4.5391e-40f,  2.8844e-40f,
 5.2179e-40f, -1.3188e-40f,  5.1600e-40f,
-2.2913e-40f, -3.1127e-40f,  5.4478e-40f,
 2.3395e-41f,  5.4758e-40f,  2.0998e-40f,
-1.9914e-10f, -2.0700e-10f, -1.9815e-10f,
-2.1098e-10f, -2.1989e-10f, -2.1131e-10f,
-2.0797e-10f, -2.1693e-10f, -2.0860e-10f,
-2.1061e-40f, -2.1208e-40f, -3.3698e-40f,
 3.2370e-40f,  2.9276e-40f, -3.6860e-40f,
 3.4752e-40f, -2.0660e-40f, -3.8183e-40f,
-8.0136e-02f,  1.3809e-02f,  1.6846e-03f,
 3.7960e-02f,  8.7557e-02f, -3.5498e-01f,
 9.8165e-03f,  9.8384e-02f,  1.2395e-01f,
-2.8751e-02f,  9.9172e-02f,  5.5841e-02f,
-4.0383e-02f,  1.0856e-01f, -5.4339e-01f,
 1.3245e-02f, -4.7642e-02f, -1.0427e-01f,
-7.4696e-03f,  5.0806e-02f, -1.7179e-01f,
 5.0303e-02f, -4.0322e-01f,  7.4760e-01f,
-9.2342e-02f,  1.1958e-01f, -1.8871e-01f,
 3.7044e-40f, -4.6951e-40f, -1.9873e-40f,
 5.3289e-41f,  2.7689e-40f, -4.6994e-41f,
-3.1404e-40f, -5.9106e-40f,  6.0436e-40f,
-6.0294e-40f, -3.6565e-40f, -1.1884e-40f,
 5.5933e-40f, -9.5741e-41f,  4.4736e-40f,
 4.3267e-40f, -4.9583e-40f,  3.4437e-40f,
-1.7432e-40f,  1.4518e-40f,  2.1033e-40f,
-3.4667e-40f,  1.7222e-40f, -2.5651e-40f,
-5.2517e-40f,  2.8983e-41f, -1.3832e-40f,
-1.4153e-01f,  9.4023e-02f, -9.8526e-02f,
 2.0678e-01f,  4.0842e-01f, -1.1853e-01f,
-1.4108e-01f, -1.1005e-01f, -8.1274e-02f,
 3.4336e-41f,  1.5625e-40f,  2.7213e-40f,
-5.3447e-40f, -3.7330e-40f, -3.3637e-40f,
-4.3563e-40f, -3.7094e-40f,  1.2820e-41f,
-8.1700e-02f, -1.8215e-01f, -1.6011e-01f,
-1.4203e-01f,  5.3791e-02f, -3.7663e-02f,
-1.1705e-01f, -1.2604e-01f, -8.4890e-03f,
-6.1578e-02f, -3.3907e-01f,  2.2344e-03f,
 1.5060e-01f, -1.9199e-01f, -5.5274e-02f,
 6.2300e-02f,  9.1084e-02f,  1.3788e-02f,
 4.9025e-02f,  3.3738e-01f, -1.8104e-01f,
-2.5051e-01f,  8.2363e-02f,  2.0325e-01f,
 5.6988e-02f, -1.5118e-01f,  6.8897e-02f,
-4.6233e-40f,  1.2244e-40f, -3.9802e-40f,
 5.8530e-40f, -2.4162e-40f,  4.6793e-40f,
-4.8362e-40f,  3.3071e-40f,  1.7094e-40f,
 3.5249e-40f, -4.8579e-40f,  1.9374e-40f,
 6.2372e-42f,  5.8402e-41f,  3.2851e-40f,
 6.1488e-40f,  1.8086e-40f, -5.2451e-40f,
-3.0723e-40f, -5.6704e-40f, -5.9899e-40f,
-3.5975e-40f, -1.3818e-40f, -2.7285e-40f,
 2.4468e-40f,  8.3606e-41f,  1.8818e-40f,
-2.3749e-01f, -2.7008e-01f, -1.5222e-03f,
 1.4806e-01f,  9.0783e-02f,  2.7170e-02f,
 1.8706e-01f,  1.8162e-01f, -1.1799e-01f,
-1.9852e-40f, -4.8879e-40f, -3.1971e-40f,
-1.0245e-40f,  9.1421e-41f,  5.3018e-40f,
 2.2240e-40f, -1.4666e-40f, -4.4259e-40f,
 1.1835e-01f, -2.7624e-01f,  1.1446e-01f,
 1.3574e-01f,  4.3109e-01f,  1.3227e-01f,
 3.2554e-02f,  1.7139e-01f, -1.1988e-01f,
 3.5376e-02f,  8.9191e-02f,  6.7643e-02f,
-8.2716e-02f,  2.4178e-01f,  6.0818e-02f,
-6.7722e-02f, -3.3712e-02f,  3.0664e-02f,
-6.6948e-02f,  2.2886e-01f,  1.8143e-01f,
 1.8636e-01f, -2.4800e-01f,  1.7185e-01f,
-6.5479e-03f,  1.8828e-01f, -7.4464e-02f,
-2.8281e-30f, -5.8969e-31f, -2.3180e-31f,
-1.6163e-30f, -3.8426e-31f, -1.6788e-31f,
-1.9412e-30f, -4.1995e-31f, -1.7651e-31f,
-2.0525e-40f,  4.6680e-40f,  5.9108e-41f,
 1.0336e-40f, -5.7226e-41f, -6.1906e-40f,
-1.8693e-40f,  5.5777e-40f,  6.0898e-40f,
-3.4735e-41f, -3.2674e-40f, -2.3864e-41f,
-3.3596e-40f,  3.3107e-40f,  1.0843e-40f,
 5.1103e-40f,  6.0598e-40f, -3.6267e-40f,
-4.5583e-03f, -1.0635e-01f, -7.4962e-02f,
-1.2741e-01f,  2.7234e-01f,  1.0508e-01f,
-2.1207e-01f,  9.6720e-02f,  3.4641e-02f,
 1.1304e-12f,  1.1614e-12f,  9.7086e-13f,
 1.3361e-12f,  1.3697e-12f,  1.1286e-12f,
 1.2620e-12f,  1.2938e-12f,  1.0680e-12f,
-8.4197e-02f,  6.3834e-02f,  2.3157e-02f,
-2.1280e-02f,  2.9074e-01f,  8.5883e-02f,
-1.3695e-01f, -1.6047e-01f, -4.5834e-02f,
-1.3848e-01f, -6.6090e-02f, -7.7201e-02f,
-5.1963e-02f,  6.0643e-02f, -4.9932e-02f,
 1.1779e-01f,  1.7521e-01f,  3.0366e-02f,
 4.7601e-03f,  4.3941e-02f, -3.5985e-02f,
 1.7692e-02f, -2.3705e-01f,  2.1062e-01f,
 7.7174e-02f, -7.6616e-02f,  2.0102e-02f,
-3.6353e-06f, -3.5534e-06f, -3.2461e-06f,
-3.6813e-06f, -3.6196e-06f, -3.3222e-06f,
-3.5581e-06f, -3.5179e-06f, -3.2504e-06f,
-7.3892e-11f, -7.2930e-11f, -6.8104e-11f,
-7.9244e-11f, -7.7770e-11f, -7.2319e-11f,
-7.7297e-11f, -7.5673e-11f, -7.0195e-11f,
-1.5180e-10f, -1.5027e-10f, -1.4244e-10f,
-1.6013e-10f, -1.5761e-10f, -1.4940e-10f,
-1.5682e-10f, -1.5395e-10f, -1.4553e-10f,
-9.1167e-02f,  1.2374e-01f, -3.8304e-02f,
 2.2641e-01f,  2.4855e-01f, -4.3174e-02f,
 1.4364e-01f,  1.8438e-01f,  1.1617e-02f,
 6.1925e-40f,  3.3333e-40f,  1.8962e-40f,
 3.2481e-40f, -1.7566e-40f, -3.0456e-40f,
 2.7654e-40f,  3.8422e-41f,  4.9191e-40f,
 7.5657e-02f, -1.0697e-03f,  3.0319e-02f,
-4.7642e-02f, -9.4454e-02f, -2.6543e-02f,
-5.3129e-02f, -1.9667e-01f, -1.0851e-01f,
-8.5909e-03f,  1.2177e-01f,  2.6434e-01f,
 2.4468e-02f,  5.0484e-02f,  3.4698e-01f,
-1.4764e-03f,  3.7374e-02f,  1.2658e-01f,
 2.0602e-02f, -2.4624e-02f,  1.3741e-01f,
 1.8641e-02f,  4.0484e-01f,  3.2976e-01f,
-4.4809e-01f, -3.2104e-03f,  1.6290e-03f,
 8.1306e-41f,  2.0311e-40f,  2.9683e-40f,
-5.7636e-40f,  4.4291e-40f,  4.3356e-40f,
-7.1797e-41f,  4.5366e-40f,  3.9953e-40f,
-4.5418e-40f,  4.1805e-40f, -3.2458e-41f,
-9.4881e-41f, -8.6365e-41f, -1.9294e-40f,
 7.1954e-41f, -9.8565e-41f, -5.5540e-40f,
-5.3769e-40f,  1.4094e-40f, -1.5355e-40f,
 8.8038e-41f, -3.6848e-40f, -1.2237e-40f,
-2.8267e-41f, -1.7583e-40f, -5.9647e-40f,
 1.0929e-01f,  2.9895e-02f, -1.4923e-01f,
-1.1234e-01f, -1.0514e-01f, -1.3280e-02f,
 2.2255e-01f,  6.4152e-03f, -1.6309e-02f,
-1.5899e-40f, -7.2549e-41f, -2.6734e-40f,
-3.3842e-40f,  3.3255e-40f,  4.2694e-40f,
 5.2940e-40f,  3.2455e-40f, -3.7081e-40f,
 6.3639e-02f, -3.3720e-02f, -2.3453e-02f,
 1.9477e-01f,  5.2267e-02f,  1.8565e-02f,
 1.6048e-01f,  2.7636e-01f,  1.5930e-02f,
 1.7673e-03f,  6.3646e-02f, -1.5127e-02f,
-3.7787e-02f, -1.4037e-01f, -3.6231e-02f,
-1.5636e-02f, -7.8742e-02f, -2.4137e-02f,
-5.0748e-02f,  6.5641e-02f, -2.5353e-03f,
 8.4955e-02f,  7.4231e-01f,  1.3795e-01f,
-1.4552e-01f,  2.0869e-01f,  4.0739e-02f,
-2.0015e-41f,  5.2988e-40f,  2.7578e-40f,
 4.1051e-40f,  1.2834e-40f, -3.4898e-40f,
-1.1975e-40f,  4.2374e-40f, -3.0404e-41f,
-6.3014e-40f,  4.6330e-40f, -4.4141e-41f,
 2.5442e-41f,  5.7456e-40f,  2.3848e-40f,
-1.0788e-40f, -5.0563e-40f, -5.3638e-41f,
 3.5728e-40f,  1.9752e-40f,  6.1004e-40f,
 2.8189e-41f, -6.2151e-40f,  1.1807e-41f,
 6.5305e-41f,  5.2028e-40f,  1.3692e-40f,
 6.4391e-02f, -1.3079e-01f, -3.7980e-02f,
-3.2362e-01f, -3.7239e-01f, -8.0182e-02f,
-2.6787e-01f, -3.1240e-01f, -1.2798e-02f,
-1.2072e-40f,  5.3996e-40f, -3.4352e-40f,
-8.0996e-41f, -3.0208e-40f,  3.1848e-40f,
-5.6407e-40f,  2.4674e-41f, -2.1055e-40f,
-9.2897e-02f,  1.8040e-01f, -4.3269e-01f,
-7.6669e-02f,  4.3554e-01f, -4.4870e-02f,
-2.3249e-02f, -1.1805e-01f,  1.0507e-01f,
-5.2540e-02f, -3.6856e-01f,  1.1246e-01f,
-2.3632e-02f,  1.3165e-01f, -1.5380e-02f,
-1.1467e-02f, -5.3754e-02f, -4.1619e-02f,
-1.5635e-01f,  3.8584e-01f, -1.4434e-01f,
 1.7523e-01f,  3.7253e-02f,  4.9784e-01f,
 5.8484e-02f, -8.4711e-02f, -7.7498e-02f,
-1.6956e-40f,  5.4293e-41f, -2.5140e-40f,
-3.1995e-40f, -4.8337e-40f,  2.5539e-40f,
-1.1449e-40f,  1.9503e-40f, -1.7368e-40f,
 5.4753e-40f,  5.9720e-40f, -4.7821e-40f,
 3.8830e-40f, -3.1984e-40f, -2.7163e-40f,
-5.3411e-40f,  7.2638e-41f,  4.3186e-40f,
 4.6654e-40f, -5.9540e-40f, -2.8155e-40f,
-1.4801e-40f, -1.6945e-40f,  1.9723e-40f,
 5.8380e-40f, -6.1587e-40f,  3.3667e-40f,
-2.9327e-02f, -4.2746e-02f, -1.5018e-01f,
 8.6354e-02f,  2.8140e-01f,  1.2970e-02f,
-2.0755e-01f,  6.7548e-02f, -3.6049e-02f
}
,
{
 9.5728e-41f,  5.3991e-40f, -1.3764e-40f,
-2.0389e-40f,  2.4254e-40f,  3.3492e-40f,
 6.5289e-41f, -3.0842e-40f,  5.5850e-40f,
 7.7599e-02f,  2.5043e-02f, -1.4099e-02f,
-3.3184e-02f,  5.6863e-01f, -2.7001e-02f,
-5.2659e-02f,  5.4713e-02f,  2.3991e-03f,
 2.2010e-02f, -3.9120e-02f, -1.1558e-01f,
 9.1633e-02f,  1.3070e-01f,  1.2489e-01f,
-4.4040e-02f, -1.6324e-02f, -4.9631e-02f,
-7.3548e-02f, -2.0492e-01f,  1.4043e-01f,
-6.0411e-02f,  5.7710e-02f, -3.6840e-02f,
 1.3173e-02f,  2.3215e-03f,  1.1820e-02f,
 2.5772e-02f, -1.3436e-01f, -5.9285e-02f,
-9.3983e-02f,  1.1545e-01f,  1.1602e-01f,
-1.8505e-02f,  6.1498e-02f, -1.3097e-02f,
 9.8690e-03f, -2.1338e-02f, -1.2175e-01f,
 1.7936e-02f, -2.7811e-02f,  6.7037e-02f,
-5.1401e-03f,  7.6421e-02f, -1.0794e-01f,
 4.6409e-02f,  3.4701e-01f,  2.6587e-02f,
 8.4175e-02f,  5.2712e-01f,  6.8999e-02f,
-8.0756e-02f,  1.9648e-01f, -8.4639e-02f,
 1.2818e-01f,  4.0660e-02f,  7.6715e-02f,
 8.7991e-02f,  4.6556e-01f, -4.0025e-02f,
 2.1251e-03f, -8.3784e-03f,  5.9859e-02f,
 1.9835e-40f, -3.4675e-40f, -7.9692e-41f,
-1.4304e-40f,  2.3927e-40f, -5.9796e-40f,
 3.8209e-40f, -6.3260e-41f, -9.2501e-41f,
 3.2007e-01f,  1.5800e-01f, -1.9594e-02f,
-4.5315e-02f,  1.0536e-01f, -8.0692e-02f,
 2.1185e-01f, -3.1418e-01f, -1.5257e-01f,
 8.6294e-02f, -1.3398e-01f, -1.0694e-01f,
 8.6084e-02f, -1.2393e-03f,  1.7549e-02f,
-1.5504e-01f, -1.3112e-01f, -3.5905e-02f,
-3.8190e-01f,  3.8393e-01f,  1.6587e-02f,
 1.5002e-01f,  1.9586e-01f, -2.6260e-01f,
-4.0159e-02f, -8.2891e-02f, -1.7761e-01f,
-1.8611e-01f, -1.1241e-02f, -4.2538e-02f,
-5.7898e-02f,  2.4583e-01f,  4.1590e-02f,
 2.4890e-02f,  7.9409e-03f, -2.7418e-02f,
 6.6194e-03f, -4.2441e-02f, -1.1167e-01f,
-1.3236e-01f, -7.9642e-02f, -6.0623e-02f,
-4.7198e-03f,  5.6904e-02f,  1.2651e-01f,
 1.2925e-01f, -5.9162e-02f, -9.1949e-04f,
 1.8668e-02f, -2.6361e-02f, -7.1042e-03f,
-4.3178e-02f,  2.6050e-04f,  4.4799e-02f,
 7.9674e-02f,  2.7656e-02f,  7.1211e-03f,
 1.1463e-01f,  1.0765e-01f,  7.6066e-02f,
-8.0780e-02f, -5.4875e-02f,  1.5209e-02f,
-3.7365e-13f, -3.7819e-13f, -3.5929e-13f,
-4.0298e-13f, -4.0881e-13f, -3.9033e-13f,
-3.9409e-13f, -3.9950e-13f, -3.8277e-13f,
-1.7847e-02f, -1.7537e-02f, -3.7313e-03f,
 2.6531e-02f,  7.5951e-02f, -4.0134e-03f,
 1.7387e-02f,  6.0044e-02f, -9.0211e-02f,
 2.7091e-02f,  8.8333e-02f,  1.0619e-01f,
 5.0470e-02f,  1.2406e-02f,  1.5503e-01f,
-1.5936e-02f, -2.2422e-01f, -2.4640e-02f,
-8.2430e-03f, -1.4097e-02f, -6.2474e-02f,
 8.0534e-02f,  1.8603e-01f, -3.1725e-02f,
-3.1621e-03f,  2.0362e-03f, -1.4002e-01f,
-7.3799e-03f,  1.5881e-01f,  6.7195e-02f,
 4.5946e-02f,  2.4358e-01f,  1.4677e-01f,
-7.4788e-02f,  6.7297e-02f,  9.0735e-02f,
-8.4553e-03f, -1.1877e-02f,  4.4209e-02f,
-1.4281e-02f, -6.8849e-02f, -4.1386e-03f,
 3.2286e-02f,  4.7128e-02f, -1.2988e-02f,
-2.2990e-02f, -8.9265e-02f,  6.4050e-02f,
-2.3354e-02f,  1.3846e-01f, -1.6256e-01f,
-6.5661e-02f, -2.8983e-02f, -4.3497e-02f,
 1.0597e-02f, -2.3534e-02f, -2.6068e-02f,
-7.8812e-02f,  1.9502e-01f,  6.8938e-03f,
 3.2025e-02f,  2.3353e-02f,  4.9225e-02f,
-5.0273e-40f,  1.2403e-41f,  5.8127e-40f,
 3.2777e-40f, -3.5740e-40f,  4.9781e-40f,
-2.4198e-40f, -4.6311e-40f,  1.3330e-40f,
-3.0803e-01f,  1.7804e-01f,  1.0604e-01f,
 4.1405e-01f,  1.9740e-01f, -5.3067e-02f,
 2.3738e-01f, -1.6828e-01f,  1.5338e-01f,
 6.6857e-03f,  1.8623e-01f, -1.2126e-01f,
-1.6323e-01f, -1.2719e-02f, -1.7743e-01f,
-1.3612e-01f, -3.4442e-02f, -1.0552e-01f,
-1.4560e-01f,  1.8771e-01f,  8.4508e-02f,
 5.8732e-02f, -2.2378e-01f,  1.2673e-01f,
 3.0455e-03f,  3.8438e-02f, -6.2235e-02f,
 1.9951e-02f,  2.6963e-01f, -1.8594e-01f,
-8.6550e-02f, -1.3097e-01f, -3.5032e-02f,
 2.0423e-02f, -9.0499e-02f,  1.7130e-01f,
-1.8592e-01f,  6.6808e-02f, -1.5768e-01f,
-6.4402e-02f, -1.2265e-01f,  6.8487e-02f,
 1.9899e-02f,  9.3376e-02f,  7.8577e-02f,
-1.3384e-01f, -7.6429e-02f,  1.7142e-02f,
-1.2385e-01f, -1.1821e-01f, -1.2716e-03f,
 5.3770e-02f,  1.4973e-01f,  1.4762e-01f,
-4.7688e-02f, -1.1733e-01f, -1.5032e-01f,
-2.0699e-01f, -9.4949e-02f, -2.6374e-02f,
 4.4489e-02f,  1.8376e-02f, -7.6844e-02f,
 1.8831e-40f, -2.6056e-40f, -4.7602e-40f,
-3.4079e-40f,  1.5054e-40f,  1.2387e-40f,
 2.3040e-40f,  1.4644e-40f,  5.6365e-40f,
-2.0809e-02f,  5.3674e-03f,  1.7057e-03f,
 2.4160e-01f,  4.1348e-01f,  3.5215e-02f,
 8.2154e-02f,  2.0431e-01f,  1.0366e-01f,
-1.5149e-02f,  1.0521e-01f, -4.1706e-02f,
-5.0651e-02f,  2.3615e-02f, -9.3860e-02f,
-1.0823e-01f, -6.3645e-02f, -1.1573e-01f,
-2.4116e-02f,  1.3546e-02f, -1.0298e-03f,
 1.2102e-02f,  2.2630e-02f,  1.1375e-01f,
 1.3966e-02f,  1.0754e-01f,  1.6621e-01f,
 1.6213e-02f,  2.0816e-01f,  8.9441e-02f,
-7.5452e-02f,  3.4580e-03f, -3.3317e-01f,
 5.0917e-02f,  1.3898e-01f, -1.0723e-01f,
 6.0473e-03f,  8.9741e-02f, -6.8206e-02f,
-7.1770e-02f, -3.5661e-01f, -2.8935e-01f,
-1.6324e-02f,  2.5728e-02f, -1.1281e-02f,
-1.3390e-01f, -9.3090e-02f,  4.3366e-02f,
 4.8620e-02f,  1.4917e-01f,  1.6295e-01f,
 2.4123e-03f, -7.6347e-02f, -8.0226e-02f,
 6.0740e-03f,  3.7065e-02f,  4.5518e-04f,
-1.3793e-01f,  2.3848e-01f, -1.1199e-01f,
 1.0422e-01f,  1.1214e-01f,  3.3457e-02f,
-3.2827e-40f,  5.9135e-40f,  3.3773e-40f,
-5.8903e-40f, -5.9439e-41f,  1.9973e-40f,
-3.6141e-40f, -4.7563e-40f, -1.0222e-40f,
 7.3457e-02f, -8.2031e-02f, -2.9504e-02f,
-5.3420e-02f,  4.9697e-02f,  7.6779e-03f,
 2.1180e-02f,  1.1069e-02f, -1.1940e-02f,
 1.7302e-02f,  9.9063e-02f,  4.8847e-02f,
 4.9513e-02f,  2.4240e-01f,  2.7174e-01f,
 2.7487e-01f,  1.9410e-01f,  3.1165e-01f,
-6.7532e-03f, -1.1608e-01f, -5.0876e-02f,
 1.2107e-01f,  3.1073e-01f,  7.1681e-02f,
-1.1411e-01f, -1.7902e-01f,  7.8898e-02f,
-2.0117e-02f,  3.6394e-01f,  1.4546e-01f,
-8.0861e-03f, -4.3956e-02f, -1.3473e-01f,
 5.1519e-02f, -3.1122e-01f, -4.6847e-02f,
 5.0405e-02f, -1.0611e-02f, -1.0557e-01f,
-4.4346e-02f, -1.4505e-01f,  5.3977e-02f,
-2.6288e-01f,  1.8247e-02f, -1.1606e-01f,
 1.0706e-01f, -9.3675e-02f,  1.1757e-01f,
-5.0440e-02f, -1.1784e-01f, -4.0599e-02f,
 1.9618e-01f,  9.9370e-02f,  8.2258e-02f,
 2.6762e-02f, -5.0740e-02f, -1.8302e-02f,
 5.3340e-02f,  6.5710e-02f,  6.1552e-03f,
-7.2158e-02f, -3.5563e-02f,  8.2140e-02f,
 3.1534e-40f,  3.6427e-40f,  3.0437e-40f,
 4.2856e-41f, -4.7870e-40f,  5.6317e-40f,
-2.4673e-40f, -6.9736e-41f,  8.1050e-41f,
 1.4544e-01f,  8.2490e-02f, -9.2349e-03f,
 2.6124e-01f,  2.7494e-01f, -5.4946e-02f,
 1.8233e-01f,  1.2428e-01f, -6.7498e-03f,
 9.7639e-02f, -6.2085e-03f,  4.8154e-02f,
 2.7379e-02f, -1.8443e-01f,  4.0402e-02f,
 1.8893e-03f, -5.2282e-03f,  6.7548e-03f,
-1.6559e-01f,  9.7901e-02f, -1.1869e-01f,
-2.1287e-01f,  4.1023e-01f, -9.7379e-02f,
-1.3767e-03f, -1.6343e-01f, -9.5059e-02f,
-1.3547e-01f,  2.0094e-01f,  1.0102e-01f,
-2.1311e-01f, -1.5088e-01f,  1.8175e-01f,
 4.6946e-02f, -1.3963e-01f,  1.0220e-01f,
 1.7536e-01f, -2.4758e-01f, -1.1481e-02f,
 6.1596e-02f, -4.0352e-01f, -1.4348e-01f,
 3.1690e-02f,  1.7240e-01f,  7.0780e-02f,
 9.9953e-02f, -1.4154e-01f, -8.3038e-02f,
 1.4527e-01f, -2.1430e-01f, -7.5840e-02f,
 1.6146e-01f,  3.7508e-02f,  5.3833e-02f,
 1.6723e-01f,  1.7113e-01f, -4.8512e-02f,
 2.1319e-01f,  4.7031e-01f,  1.1570e-01f,
 2.0330e-01f,  2.4636e-01f,  6.9924e-02f,
-2.1165e-40f, -1.9259e-40f, -5.0990e-41f,
-7.1298e-42f, -4.2590e-41f,  3.1709e-40f,
 4.1065e-40f, -4.2585e-41f,  3.4243e-40f,
-1.0338e-40f,  4.6039e-40f, -3.3818e-40f,
-3.9589e-41f,  5.9574e-40f, -5.8014e-41f,
 1.4505e-41f, -3.5326e-40f, -3.9806e-40f,
 4.2423e-40f, -1.7055e-40f, -4.9666e-40f,
 2.2853e-40f, -2.4684e-40f, -1.3794e-40f,
-5.6764e-40f, -1.7905e-40f, -5.8915e-40f,
-1.4755e-27f, -2.0405e-28f, -4.8677e-30f,
-7.1151e-28f, -9.7603e-29f, -3.5264e-30f,
-2.7455e-29f, -5.7734e-30f, -2.8633e-31f,
-5.9960e-06f, -5.9595e-06f, -5.8686e-06f,
-6.0381e-06f, -6.0191e-06f, -5.9605e-06f,
-5.9849e-06f, -5.9981e-06f, -5.9654e-06f,
-4.8277e-22f, -7.0529e-22f, -8.7179e-22f,
-4.6334e-22f, -6.3505e-22f, -8.8438e-22f,
-3.3883e-22f, -4.2421e-22f, -5.9002e-22f,
-2.9574e-40f,  4.0860e-40f, -1.5966e-40f,
-6.7527e-41f,  7.6661e-41f, -5.9491e-40f,
 3.0843e-40f,  8.1079e-41f, -2.5140e-40f,
-3.7315e-40f,  9.4787e-41f,  4.6794e-40f,
 1.9383e-40f,  5.0336e-41f,  3.0561e-40f,
-5.4286e-40f,  5.5999e-40f, -4.6977e-40f
}
,
{
-1.7778e-01f,  5.2351e-03f,  1.6035e-02f,
-9.7482e-02f, -1.1056e-02f, -5.0999e-02f,
 1.7460e-01f, -4.0005e-02f, -5.0911e-02f,
-9.3843e-02f,  1.2640e-01f, -1.5016e-02f,
-5.2880e-01f,  1.9469e-01f, -9.0037e-02f,
-8.9136e-02f,  9.8632e-02f, -1.5009e-01f,
-1.8080e-01f,  1.1396e-01f, -2.6178e-02f,
-1.6689e-02f,  1.4132e-01f, -6.7769e-03f,
-2.1120e-02f,  6.8616e-02f, -7.8209e-02f,
 4.8237e-02f, -2.5303e-02f,  1.7882e-02f,
-4.2852e-02f, -1.5071e-02f, -3.3818e-02f,
 1.3635e-01f,  4.5330e-01f,  2.1489e-01f,
 2.7362e-02f, -7.4152e-02f,  2.3185e-03f,
 1.8771e-01f, -2.0827e-02f, -7.5581e-02f,
 1.4675e-01f, -6.5552e-02f,  4.2292e-02f,
 1.3990e-01f, -4.1598e-01f,  2.1609e-03f,
 1.5997e-01f,  1.1375e-01f, -1.8272e-02f,
 1.9045e-02f, -4.2702e-02f, -2.5602e-02f,
 1.6432e-01f, -1.2783e-01f, -1.8285e-03f,
 2.9414e-01f,  1.7401e-01f, -2.6321e-01f,
-1.0125e-01f,  1.3565e-01f,  1.5894e-02f,
-3.7351e-40f,  6.3010e-40f, -1.2071e-40f,
-4.6380e-40f,  1.8442e-40f, -3.5994e-40f,
-2.1459e-40f, -4.3455e-40f, -6.1978e-41f,
-2.3638e-40f, -4.6965e-40f, -3.4232e-40f,
-1.6517e-40f,  4.7178e-40f, -1.6757e-40f,
 6.7890e-41f, -4.3000e-40f,  1.8323e-40f,
 4.5416e-40f, -2.9010e-40f, -1.5200e-40f,
-3.5533e-40f, -8.7351e-41f,  6.5595e-42f,
 5.1625e-40f, -6.0418e-40f, -2.7846e-40f,
-2.1861e-10f, -2.2422e-10f, -2.1298e-10f,
-2.2653e-10f, -2.3500e-10f, -2.2512e-10f,
-2.1802e-10f, -2.2681e-10f, -2.1608e-10f,
-3.2862e-40f,  3.4241e-40f, -1.3264e-40f,
 2.8762e-40f,  1.3843e-40f,  3.0949e-40f,
-3.7702e-40f,  2.6194e-40f,  2.1451e-40f,
-3.2283e-40f, -5.5487e-40f,  5.8744e-40f,
 1.6124e-40f,  3.3512e-40f,  3.1454e-40f,
-3.5417e-40f, -5.7692e-40f,  5.5184e-40f,
 3.5641e-40f, -4.3187e-40f, -3.5314e-40f,
 4.9246e-40f,  5.9593e-40f,  8.3132e-41f,
-2.3841e-40f, -5.6196e-40f, -3.2230e-41f,
 4.3824e-40f, -3.8344e-40f, -9.9086e-42f,
-2.9323e-40f,  2.1916e-40f,  4.4739e-40f,
 5.6837e-41f,  5.1796e-41f, -2.4338e-40f,
-2.2853e-40f, -3.8920e-40f,  6.1587e-40f,
-2.9474e-41f,  4.6214e-40f, -3.6292e-40f,
-1.4928e-40f, -3.6708e-41f,  5.2020e-40f,
-1.2983e-12f, -2.6539e-12f, -1.9817e-12f,
-6.5613e-12f, -1.0255e-11f, -6.6919e-12f,
-8.3217e-12f, -1.7832e-11f, -1.1086e-11f,
-4.9138e-40f, -9.0061e-42f,  4.6251e-40f,
-2.9970e-41f, -2.5468e-40f, -3.5660e-40f,
 2.5450e-40f, -9.5634e-38f, -3.2369e-32f,
-1.0233e-06f, -8.2108e-07f, -1.1668e-06f,
-5.9592e-07f, -3.9529e-07f, -5.7435e-07f,
-6.0253e-07f, -3.8785e-07f, -4.9365e-07f,
-8.9372e-37f, -2.1590e-36f, -2.1060e-40f,
-1.5666e-35f, -1.1466e-38f, -2.3366e-40f,
-5.4077e-38f,  5.0487e-40f, -3.3736e-40f,
-1.5357e-13f, -8.4607e-14f, -1.9206e-16f,
-5.5373e-13f, -3.0787e-13f, -1.0513e-15f,
-1.0468e-13f, -8.6069e-14f, -2.2453e-16f,
-4.7501e-14f, -1.3426e-13f, -1.1133e-13f,
-1.3801e-14f, -2.4024e-14f, -3.5120e-14f,
-1.9817e-17f, -1.3229e-17f, -3.2854e-17f,
-1.4365e-18f, -4.1143e-15f, -9.2614e-14f,
-1.1174e-19f, -1.6235e-15f, -1.5600e-13f,
-1.2643e-21f, -3.9578e-17f, -1.2038e-14f,
-2.9789e-40f, -4.6452e-40f,  1.5649e-40f,
-1.8445e-40f, -5.2942e-40f,  2.5130e-40f,
 6.2269e-40f,  3.9166e-41f, -2.4197e-40f,
 9.0835e-02f, -5.2035e-03f, -2.5980e-02f,
-1.0090e-01f, -7.4167e-02f,  1.3364e-01f,
 1.0302e-01f, -1.5250e-01f,  1.2417e-01f,
 4.7205e-02f, -2.3839e-01f, -1.4983e-02f,
 5.6824e-02f, -1.8259e-02f,  9.6426e-02f,
 5.9740e-03f, -1.4198e-01f, -2.1076e-01f,
-1.5837e-01f,  6.4749e-02f, -2.1417e-01f,
-3.4048e-02f,  4.9638e-01f,  2.0984e-03f,
-1.4335e-01f,  4.8295e-02f, -9.2209e-02f,
 1.9450e-01f, -1.3603e-01f,  1.2008e-01f,
 1.6803e-01f,  5.6805e-02f,  1.1518e-01f,
 5.9320e-02f, -3.8200e-02f, -1.1340e-01f,
-8.6877e-02f,  1.1533e-01f, -4.9870e-02f,
-7.2811e-03f,  2.5730e-01f, -1.8536e-01f,
-6.4965e-02f,  1.0364e-01f,  1.3706e-02f,
 4.6974e-02f, -1.0049e-01f, -1.7460e-01f,
-1.7910e-01f,  3.0771e-01f, -2.5757e-01f,
-2.2846e-02f, -3.7491e-03f, -5.2171e-03f,
-4.7762e-02f, -4.7776e-02f,  5.1125e-01f,
-2.0210e-01f,  6.4815e-02f, -6.1606e-02f,
 7.3686e-04f, -1.6226e-01f, -3.0327e-02f,
 5.6501e-40f,  5.2828e-40f, -5.9773e-40f,
-4.3530e-40f, -1.1658e-40f,  4.9705e-41f,
 4.8101e-40f,  5.0236e-40f,  2.0476e-40f,
-1.1412e-01f,  1.3391e-01f, -1.2279e-01f,
 1.4370e-01f,  3.7617e-01f,  7.1407e-02f,
 6.9661e-02f,  3.1963e-01f, -1.7089e-02f,
-4.7530e-02f,  6.5411e-02f, -2.4915e-02f,
 3.3429e-02f, -1.3899e-01f, -3.3875e-02f,
-1.9261e-02f, -1.3162e-01f,  1.1415e-01f,
 2.0599e-02f, -3.8667e-02f, -7.2190e-02f,
-2.1112e-01f, -1.6525e-01f, -2.3430e-02f,
-1.2287e-02f, -2.6637e-01f,  1.0859e-03f,
-2.8564e-02f,  4.8846e-02f,  4.2412e-02f,
 1.4632e-01f,  1.5974e-02f, -1.0699e-01f,
 5.5661e-02f, -2.0952e-01f,  2.4151e-02f,
-2.3510e-02f, -5.0570e-02f,  1.0799e-01f,
 1.7495e-01f, -1.5788e-03f, -1.6447e-02f,
 7.7642e-02f, -9.3888e-02f,  1.3891e-03f,
 2.2658e-02f,  1.4058e-01f,  1.0639e-01f,
-5.5626e-02f, -3.0794e-01f, -5.7160e-02f,
 1.0874e-01f, -8.3907e-02f,  4.2106e-02f,
 1.7688e-02f,  1.8090e-01f, -2.1718e-03f,
-1.0659e-02f, -2.1302e-01f,  1.0056e-01f,
-6.0693e-02f, -2.3624e-02f,  6.3688e-03f,
-2.7320e-40f, -1.3336e-40f,  2.4202e-41f,
-7.1225e-41f,  1.2848e-40f,  1.5426e-40f,
-4.2798e-40f,  6.5075e-41f,  6.2629e-40f,
 1.6905e-01f, -1.7379e-01f, -2.1360e-02f,
-2.9396e-01f,  1.1782e-01f,  7.9111e-02f,
-6.4767e-03f, -1.9949e-01f,  5.4243e-02f,
-3.2753e-02f, -1.5810e-01f,  5.2257e-02f,
-1.8133e-02f,  2.0548e-01f, -2.8071e-01f,
-5.3725e-02f,  8.4067e-02f, -7.4639e-02f,
 8.9137e-02f, -2.3078e-01f, -1.9626e-01f,
 3.1276e-01f,  1.5332e-01f, -1.9590e-01f,
-1.8318e-02f,  6.8460e-02f,  9.1476e-03f,
 8.2398e-02f,  8.5883e-03f,  7.6830e-02f,
-1.4580e-01f,  4.6253e-01f, -3.1900e-01f,
-1.1051e-01f,  6.3807e-02f, -2.5130e-02f,
-1.2029e-01f, -3.8982e-03f,  2.1654e-02f,
-3.2017e-01f,  2.0265e-01f, -1.7311e-01f,
-1.3229e-02f,  1.3805e-01f, -6.2689e-02f,
-3.6619e-02f, -1.9366e-01f,  2.7177e-01f,
 5.5937e-02f,  7.9713e-02f, -2.3872e-01f,
-3.9690e-02f,  2.2914e-02f, -1.7779e-02f,
 1.1110e-01f,  1.6618e-01f,  3.6139e-01f,
 7.9777e-02f,  4.3655e-01f,  3.0597e-01f,
-5.5125e-02f,  6.1229e-02f,  1.2414e-01f,
 2.1644e-40f,  7.2343e-41f,  5.5580e-40f,
-4.3927e-40f,  5.0561e-40f, -1.5560e-41f,
-3.2783e-40f, -8.8219e-41f,  5.4415e-40f,
-6.7176e-02f, -3.4930e-02f, -2.7087e-02f,
 1.0489e-01f,  2.1178e-01f, -1.6752e-01f,
-1.2627e-01f, -2.4207e-01f, -7.4667e-02f,
-3.1470e-02f, -1.3365e-02f,  8.7742e-02f,
-2.2809e-02f, -4.7991e-01f,  2.4740e-02f,
 6.4418e-02f,  3.4818e-02f, -2.9275e-01f,
-2.8830e-01f, -7.0458e-02f,  7.8922e-02f,
-1.4436e-01f,  4.1068e-02f,  6.2896e-02f,
 4.1061e-03f,  2.1844e-01f,  9.0488e-02f,
-1.1085e-01f,  8.3761e-02f,  3.2634e-02f,
 3.2470e-01f, -2.7760e-01f,  4.1235e-02f,
 8.6625e-02f,  2.6816e-01f, -1.3560e-01f,
 3.8789e-01f,  3.2406e-01f,  1.0631e-01f,
 7.5131e-02f, -2.0206e-01f,  1.3027e-01f,
 4.0382e-02f,  2.4350e-01f, -3.6042e-03f,
-1.0063e-01f,  1.9418e-01f, -7.7039e-02f,
 9.4531e-03f,  7.1605e-02f,  1.4004e-01f,
-2.0591e-02f,  4.5944e-02f, -2.6721e-03f,
-3.4665e-03f,  2.2560e-01f, -8.2930e-02f,
-1.5507e-01f,  2.7206e-01f, -2.8665e-02f,
-3.4909e-03f,  1.7696e-02f, -8.5492e-02f,
 2.1541e-40f, -3.3029e-40f,  1.7678e-40f,
-3.9857e-40f, -1.1965e-40f, -8.6754e-41f,
-4.0721e-40f,  2.2073e-41f,  4.2728e-40f,
-1.0496e-02f,  5.4120e-02f, -1.6498e-02f,
-5.9387e-02f,  2.3757e-01f, -8.0381e-02f,
 2.3739e-02f, -1.3715e-01f, -3.0906e-02f,
-8.5760e-03f,  2.4518e-02f, -6.9090e-02f,
 2.1623e-02f,  8.9641e-02f,  9.9031e-02f,
-1.0052e-02f,  4.6506e-02f, -1.5756e-01f,
 8.5003e-02f, -3.6434e-03f,  1.3816e-02f,
 9.0532e-02f,  2.3661e-01f,  1.8077e-01f,
 2.8120e-02f,  4.3753e-02f,  2.2981e-02f,
 3.5830e-02f,  5.7995e-02f, -5.6879e-03f,
 3.7708e-02f, -2.6373e-01f,  2.0886e-01f,
-4.0632e-02f,  1.6891e-01f, -6.8996e-02f,
-1.1972e-01f, -4.3628e-02f,  2.0278e-02f,
-1.4818e-01f,  4.0844e-02f,  1.5917e-01f,
-4.5684e-02f,  1.4075e-01f, -2.0784e-02f,
-1.1533e-03f, -2.7897e-01f, -8.8707e-02f,
-1.7907e-02f,  1.8400e-01f,  1.1026e-01f,
-2.3183e-03f,  6.3875e-02f, -4.2394e-03f,
 3.2021e-02f, -8.8955e-02f, -2.2298e-02f,
 8.1353e-02f,  3.3079e-01f, -2.0616e-01f,
-3.5802e-02f,  4.9804e-02f, -9.2712e-02f,
-1.5940e-07f, -1.6158e-07f, -1.5812e-07f,
-1.6273e-07f, -1.6555e-07f, -1.6260e-07f,
-1.5867e-07f, -1.6192e-07f, -1.5975e-07f
}
,
{
-1.5080e-02f,  1.1294e-01f,  7.1187e-02f,
 1.1628e-02f, -8.4938e-01f,  8.5457e-02f,
-3.9642e-02f, -2.3879e-02f,  1.0029e-02f,
 2.6648e-40f,  9.1590e-41f,  3.3285e-40f,
-3.3445e-40f, -2.5194e-40f, -2.0946e-40f,
 3.6800e-40f, -1.1584e-40f,  6.2195e-40f,
-1.3560e-41f, -8.0151e-41f,  4.4048e-40f,
-4.1209e-40f,  2.7411e-40f,  3.2419e-40f,
 5.8333e-40f,  1.1503e-40f, -5.0783e-40f,
-5.5301e-02f, -2.4971e-02f,  4.9251e-02f,
-2.5589e-01f,  1.6560e-01f, -8.0956e-02f,
 4.0518e-01f,  3.1320e-02f, -1.4262e-01f,
 1.2250e-02f,  5.1989e-02f,  3.0706e-03f,
-7.9534e-02f, -1.9801e-01f, -2.7791e-02f,
 2.1768e-01f,  6.9978e-02f, -4.2325e-02f,
-1.9165e-02f, -2.1179e-02f, -2.1558e-02f,
 3.6816e-01f, -5.2929e-02f,  9.5790e-02f,
 2.8095e-01f, -1.4731e-01f,  3.4182e-02f,
 2.3702e-02f,  4.0764e-02f,  3.5767e-02f,
-8.4586e-02f,  1.9025e-01f, -1.6794e-01f,
-1.0273e-02f,  3.2259e-01f, -1.5841e-01f,
 2.6794e-01f,  5.2084e-02f,  1.2761e-02f,
-1.1169e-01f, -1.7808e-01f,  1.1363e-01f,
-1.3808e-01f, -1.7764e-02f, -1.7420e-02f,
 1.5840e-02f, -2.3405e-01f,  7.6361e-03f,
-6.6082e-02f,  7.9778e-02f, -2.0423e-01f,
-1.9594e-02f, -6.3370e-02f,  3.3351e-02f,
-2.0396e-40f, -3.0207e-40f, -3.2364e-40f,
 2.3575e-40f,  5.8301e-41f, -3.7432e-40f,
-3.6291e-40f,  3.3441e-40f,  1.4574e-40f,
-4.3792e-40f, -2.5814e-40f, -3.4986e-41f,
-3.4920e-40f, -4.4757e-40f,  3.2192e-40f,
 4.7222e-40f, -7.3197e-41f, -3.4635e-40f,
 5.1495e-02f,  7.8843e-02f,  4.2243e-02f,
-2.1245e-01f,  1.9568e-01f,  7.9369e-03f,
 2.2795e-02f,  2.2801e-02f,  7.6895e-02f,
 3.0044e-01f, -1.4041e-01f, -2.3677e-02f,
-1.1656e-01f, -7.5113e-02f,  1.0625e-02f,
-1.2133e-02f,  5.0658e-02f, -7.2944e-02f,
-3.3652e-02f, -2.0452e-01f, -4.1048e-02f,
 2.8531e-01f,  1.2116e-01f, -2.1526e-02f,
-2.4564e-01f, -4.1870e-02f, -5.5819e-02f,
-2.3157e-01f, -2.5594e-02f,  1.1154e-01f,
 2.1234e-01f,  3.2762e-01f, -2.9000e-01f,
 1.8591e-02f, -5.9820e-02f, -9.0807e-02f,
-3.0027e-01f, -1.8370e-01f,  1.2086e-02f,
 2.1178e-02f,  2.9559e-01f,  1.2966e-01f,
 6.8542e-02f,  7.7710e-03f, -6.0304e-02f,
 3.3019e-03f, -1.9135e-02f,  9.3227e-03f,
-9.9003e-03f, -1.0101e-01f, -3.3513e-01f,
-8.4091e-03f, -1.5918e-02f, -3.4323e-02f,
 3.8770e-40f, -2.8639e-40f,  4.6953e-40f,
 4.2631e-40f,  6.2568e-41f, -5.3500e-40f,
-2.1987e-40f,  1.3435e-40f,  4.4101e-40f,
-3.9973e-40f,  6.3046e-40f,  1.6046e-40f,
 4.4338e-40f,  1.6940e-41f,  4.1598e-40f,
 2.6132e-40f, -2.9888e-40f, -7.5708e-41f,
-1.5991e-02f,  8.2749e-02f, -6.3776e-02f,
-3.2220e-03f,  4.1443e-02f, -8.1219e-02f,
-1.1231e-01f,  6.7586e-01f, -1.7600e-01f,
-4.0371e-02f, -7.9044e-02f,  1.2451e-01f,
 4.1907e-02f, -8.8159e-02f, -1.1229e-01f,
-4.0654e-03f, -4.4087e-03f,  1.2942e-01f,
 9.3318e-03f, -6.5085e-02f,  1.0165e-02f,
-2.8758e-02f, -4.9997e-02f,  4.6069e-02f,
 4.2107e-04f,  2.1718e-01f,  3.1080e-03f,
-9.1277e-03f, -2.8568e-02f,  1.6202e-02f,
-8.2490e-03f,  1.2888e-01f, -1.3159e-01f,
 1.6065e-02f,  4.0143e-02f,  2.7043e-01f,
-3.4809e-02f, -8.1302e-03f,  6.0786e-02f,
 5.1845e-02f,  4.6995e-01f, -1.0392e-02f,
 2.3359e-02f, -1.8364e-01f, -3.7343e-01f,
-8.2996e-02f,  9.7724e-02f, -6.1012e-02f,
 2.8225e-02f,  8.8706e-02f,  1.3443e-02f,
 3.7515e-03f,  1.7772e-02f,  6.5945e-03f,
-7.3847e-12f, -7.5629e-12f, -6.9337e-12f,
-7.6292e-12f, -7.8624e-12f, -7.2877e-12f,
-7.0582e-12f, -7.3197e-12f, -6.8467e-12f,
 1.5445e-11f,  2.0754e-11f,  2.0524e-11f,
 2.1239e-11f,  2.5909e-11f,  2.5983e-11f,
 2.0986e-11f,  2.5190e-11f,  2.2478e-11f,
-4.7164e-02f, -2.4754e-02f, -1.8256e-02f,
 1.0526e-01f, -4.6010e-03f, -2.2784e-02f,
-5.2028e-02f, -1.6408e-01f,  7.9112e-03f,
-8.1863e-02f,  4.2772e-02f, -9.9446e-04f,
-5.5521e-02f, -1.1264e-01f, -4.5782e-02f,
-1.1026e-01f,  2.1443e-02f, -4.5120e-02f,
-1.4141e-02f, -2.8116e-03f,  2.6990e-02f,
-2.0201e-01f,  4.3214e-01f,  2.9373e-02f,
-2.1768e-01f, -2.7230e-02f,  5.5396e-03f,
 5.0196e-02f,  1.5506e-01f, -5.7328e-02f,
 4.8323e-02f,  3.8243e-02f, -1.3533e-01f,
-9.8862e-03f, -5.6971e-02f, -7.1500e-02f,
 1.0272e-01f,  7.4686e-02f,  7.4732e-02f,
 8.3744e-02f,  1.5834e-01f,  2.9221e-02f,
 6.5641e-02f,  7.7697e-02f,  3.5746e-02f,
-1.6614e-01f, -2.3128e-01f,  4.4691e-02f,
 6.3546e-02f, -3.8105e-01f,  3.4110e-02f,
-3.5022e-02f, -2.3782e-02f,  2.8664e-02f,
-3.8813e-41f, -2.8626e-40f, -9.0218e-41f,
 4.1216e-40f, -4.4215e-40f,  3.1198e-40f,
 5.6281e-40f,  2.0477e-40f,  2.7797e-40f,
-4.4903e-40f, -6.2574e-41f,  4.9971e-40f,
 5.0135e-40f, -3.1945e-40f, -2.4694e-40f,
 2.6587e-40f, -4.9583e-40f, -4.9771e-40f,
 3.7139e-02f,  5.2936e-04f, -2.3658e-02f,
-3.6199e-01f, -5.1912e-02f, -5.1969e-02f,
 2.5415e-01f,  2.4109e-01f,  9.8721e-03f,
 5.5061e-02f, -4.7469e-02f,  3.0045e-02f,
 2.1565e-03f, -2.3866e-02f, -2.3496e-02f,
 6.0892e-02f, -4.6442e-04f, -5.0200e-02f,
 5.4971e-02f, -1.7234e-02f, -3.2759e-03f,
 4.8225e-01f, -1.1234e-01f,  3.8257e-02f,
 5.2105e-02f, -2.8473e-03f, -1.0355e-02f,
-9.5654e-03f, -1.8751e-01f,  1.7079e-02f,
 7.0133e-02f,  7.6363e-01f, -8.7388e-02f,
-5.6536e-02f, -1.9152e-01f, -1.6043e-01f,
 2.0359e-01f,  7.4214e-02f,  3.1970e-02f,
-1.8199e-01f, -1.9386e-01f, -2.5967e-03f,
-3.4609e-02f,  3.3870e-02f,  5.8835e-02f,
 8.8220e-02f,  9.9265e-02f,  7.1240e-03f,
-9.1395e-02f, -3.1699e-01f, -2.9120e-02f,
-1.8436e-02f, -2.1432e-02f, -4.5465e-02f,
-3.2013e-40f,  3.2019e-40f,  4.8747e-41f,
 2.6585e-40f,  6.1463e-40f,  1.4176e-40f,
-1.5286e-40f,  3.0543e-40f,  7.2032e-41f,
-6.0758e-40f, -3.6200e-40f,  1.2123e-40f,
 1.3627e-40f,  3.2983e-40f,  3.6171e-40f,
-4.2148e-40f,  1.1102e-40f,  3.2714e-40f,
-3.4763e-02f, -3.1632e-02f,  3.0044e-02f,
-2.0935e-01f,  1.3533e-01f, -9.1607e-03f,
-1.5931e-01f,  1.0771e-01f, -6.6518e-02f,
 2.4399e-02f,  2.2923e-03f,  5.1575e-02f,
-1.4154e-01f, -1.0013e-02f, -7.5696e-02f,
 1.0849e-01f,  1.2575e-01f, -7.3161e-02f,
-1.5217e-02f, -2.7659e-02f, -3.1401e-02f,
 3.4960e-01f,  7.2390e-02f,  2.0722e-02f,
 3.9440e-01f,  9.1821e-04f,  1.7842e-02f,
-1.5670e-02f,  5.3020e-02f,  6.0536e-02f,
-1.8853e-01f,  2.7532e-01f, -1.9681e-01f,
 8.3258e-02f,  9.4285e-02f, -1.2695e-01f,
 2.7593e-01f,  1.1456e-01f,  1.6048e-02f,
-5.1675e-01f,  1.4727e-01f,  7.5170e-02f,
-6.9143e-02f, -9.2948e-02f,  3.4687e-02f,
 1.4128e-02f, -7.9962e-02f,  8.0446e-02f,
 3.7011e-02f, -1.3400e-01f, -2.0725e-02f,
-6.4981e-03f,  7.0724e-02f,  6.6167e-02f,
-4.5940e-41f,  2.5437e-40f, -3.3111e-40f,
 5.9661e-40f,  6.2521e-40f,  5.6418e-40f,
 1.9187e-40f, -5.8872e-40f,  5.5747e-40f,
-1.6402e-11f, -2.2097e-11f, -1.7224e-11f,
-2.2755e-11f, -2.9977e-11f, -2.1231e-11f,
-1.3688e-11f, -1.7479e-11f, -1.3081e-11f,
 6.4790e-03f, -3.8464e-03f, -1.0008e-02f,
-2.6001e-02f, -7.9483e-02f,  3.3711e-02f,
 2.6659e-03f, -3.2634e-02f,  1.0767e-02f,
 4.9939e-03f,  1.4064e-02f, -3.4294e-02f,
 4.8529e-02f,  6.3386e-01f, -3.6805e-02f,
-1.3703e-01f,  2.5878e-02f, -4.8617e-02f,
 3.2186e-02f,  6.6382e-02f,  1.9305e-02f,
 7.0196e-02f, -1.6892e-01f, -2.8980e-02f,
 9.7762e-02f,  9.7998e-03f, -5.1620e-03f,
 5.0753e-02f, -4.5071e-03f, -3.9836e-02f,
-6.0381e-02f, -9.2016e-02f,  9.5433e-02f,
-1.0045e-02f,  8.7955e-03f,  4.9429e-02f,
-1.8363e-02f, -1.1912e-01f,  9.7347e-03f,
-1.5657e-01f, -2.1035e-01f, -4.9737e-02f,
-3.0025e-02f, -6.4959e-02f, -5.6107e-02f,
 3.2927e-40f,  5.7263e-40f,  6.2889e-40f,
-6.0716e-39f,  5.3050e-41f, -1.7152e-40f,
-3.2493e-38f, -1.5841e-40f, -1.9343e-40f,
 4.9763e-40f,  5.5142e-40f, -4.3462e-40f,
-2.2649e-40f,  1.4321e-40f, -2.6779e-40f,
 2.3072e-41f,  5.4080e-40f, -6.4200e-41f,
 2.2827e-40f, -5.4515e-41f, -4.1768e-40f,
 3.9033e-40f,  6.1988e-41f,  5.9877e-40f,
-4.3355e-41f, -5.1088e-40f,  5.9845e-40f,
-4.8238e-40f, -1.8586e-40f,  4.8699e-40f,
-9.7225e-41f,  4.3387e-40f, -4.3683e-40f,
-7.9278e-41f, -5.3614e-40f,  2.1911e-40f,
-3.3982e-40f, -5.3335e-40f,  3.8540e-40f,
 1.9051e-40f, -2.0840e-40f,  2.2868e-40f,
-3.5020e-40f, -3.4276e-40f,  2.7395e-42f,
 3.9197e-40f,  6.1843e-40f, -1.5888e-40f,
 4.3516e-40f, -6.1852e-40f, -5.3692e-40f,
-4.3268e-40f,  3.5154e-40f,  3.4477e-40f,
-4.8414e-40f,  2.2647e-40f, -2.5591e-40f,
 4.6326e-40f, -3.0462e-40f,  4.7817e-40f,
-4.9853e-40f, -5.3425e-40f, -2.9848e-40f,
-1.3329e-07f, -1.3784e-07f, -1.3049e-07f,
-1.3376e-07f, -1.3905e-07f, -1.3204e-07f,
-1.2479e-07f, -1.2994e-07f, -1.2410e-07f
}
,
{
-2.5964e-02f,  2.9670e-02f,  1.2100e-01f,
-3.0371e-02f, -1.5277e-02f, -1.8589e-01f,
-1.8650e-02f, -1.2852e-01f, -6.6297e-02f,
 9.7934e-04f, -5.1835e-02f, -1.0278e-03f,
-1.2336e-02f,  2.2130e-01f, -1.2373e-01f,
-2.3451e-02f,  3.4217e-02f, -1.0118e-02f,
-3.0558e-01f, -8.5390e-02f, -1.4360e-02f,
 1.2473e-01f, -1.7005e-02f, -3.6816e-02f,
-8.9125e-02f, -6.1400e-02f, -2.0623e-02f,
 1.3736e-02f,  1.2441e-02f, -4.3491e-02f,
 6.4806e-02f,  3.7012e-01f,  3.8064e-02f,
-1.3731e-02f, -2.4859e-01f, -2.5450e-01f,
-6.5111e-03f, -1.4271e-01f, -5.0481e-02f,
 5.3240e-02f, -3.4843e-02f, -2.2703e-02f,
 3.7414e-02f,  1.0334e-01f, -7.2237e-02f,
 1.4216e-02f,  3.4231e-02f, -2.0890e-02f,
 2.7879e-02f,  1.3717e-01f,  4.5864e-03f,
 3.0460e-03f, -1.1734e-01f,  4.4439e-02f,
 6.4825e-03f,  1.6324e-02f,  1.4928e-02f,
-8.8420e-02f, -1.0779e-01f, -9.0653e-02f,
 3.1086e-02f, -2.9067e-02f, -8.8488e-02f,
-1.6779e-40f, -6.3646e-41f, -6.2486e-40f,
 2.3154e-40f,  2.8049e-40f,  3.7718e-40f,
-3.3950e-40f, -3.1501e-40f,  5.8709e-40f,
 2.1435e-02f, -4.3732e-01f,  1.5520e-02f,
 3.4080e-02f,  1.9912e-01f, -8.1413e-02f,
-3.2816e-02f,  5.7844e-02f,  8.9258e-03f,
-1.1662e-02f, -1.1721e-02f,  4.3033e-02f,
 5.2135e-02f, -2.2503e-01f,  2.3941e-01f,
 3.8400e-02f,  1.8075e-01f, -1.4776e-01f,
 2.6784e-01f,  2.2817e-01f, -3.0553e-03f,
-6.7998e-02f, -1.2050e-01f,  1.4714e-02f,
 2.4045e-02f, -1.4329e-02f, -1.6705e-02f,
-1.1421e-02f,  4.2139e-02f,  4.2944e-02f,
 1.8809e-02f, -2.5221e-01f,  9.7562e-02f,
-4.1600e-02f,  4.0069e-03f,  7.5290e-02f,
-2.0092e-02f,  2.3537e-01f,  2.4356e-02f,
 3.1957e-02f, -4.8573e-02f,  2.9379e-02f,
 6.4562e-03f, -1.1527e-01f, -9.1223e-02f,
-2.3432e-02f,  5.2881e-02f, -7.3239e-02f,
-3.7048e-02f, -2.1481e-01f,  5.9801e-05f,
-4.2646e-02f, -1.8366e-02f, -1.0681e-01f,
-1.3366e-01f, -1.7123e-01f, -3.5629e-02f,
 1.1216e-01f,  1.1479e-01f,  9.5297e-02f,
 2.4728e-02f, -7.3135e-03f, -3.4373e-02f,
-2.3917e-40f, -4.1869e-41f,  3.7775e-41f,
 2.8931e-40f, -9.4850e-41f,  2.5694e-40f,
 3.3549e-40f, -2.4334e-40f, -5.5933e-41f,
-2.0900e-02f,  2.1203e-02f, -4.7169e-02f,
 2.3632e-02f, -7.1148e-01f,  4.9722e-02f,
-7.8963e-03f,  5.0689e-02f,  2.2619e-02f,
-4.7364e-03f,  3.2037e-02f,  1.1004e-02f,
-4.3001e-03f,  2.5245e-01f,  5.9112e-02f,
 2.8932e-02f, -1.1267e-01f, -2.3739e-01f,
-6.5379e-02f,  5.2462e-03f, -1.6807e-02f,
 1.0960e-01f,  1.7943e-01f, -6.3043e-03f,
 9.3102e-02f,  7.3103e-02f,  2.5259e-02f,
 5.6835e-02f,  4.0467e-02f,  2.5447e-03f,
 9.4599e-02f,  2.5222e-01f,  6.9855e-02f,
 4.4758e-02f,  1.8073e-01f,  1.5075e-01f,
 2.0329e-02f, -4.9412e-02f,  2.0663e-02f,
-7.1648e-03f,  1.4986e-01f,  2.1212e-01f,
 2.7657e-02f, -6.8660e-02f,  1.7321e-02f,
 1.0629e-02f, -1.0722e-02f,  2.8247e-02f,
-1.1303e-02f,  1.0076e-01f, -4.0592e-01f,
 2.6744e-02f,  7.3650e-02f,  5.7966e-02f,
 2.8122e-02f, -7.5961e-02f, -9.4797e-03f,
-1.3010e-01f, -5.4184e-01f, -1.3619e-01f,
-1.8661e-03f, -1.4357e-01f,  7.9520e-03f,
-1.3538e-09f, -1.6580e-09f, -1.7289e-09f,
-1.2386e-09f, -1.5132e-09f, -1.5987e-09f,
-1.1157e-09f, -1.3420e-09f, -1.4090e-09f,
 1.5441e-02f, -1.8142e-01f, -8.6802e-02f,
-4.0983e-02f,  2.4351e-01f, -5.8181e-02f,
-2.9568e-02f,  3.9561e-03f,  3.4181e-02f,
-2.9210e-02f,  2.5403e-02f,  9.1331e-02f,
 2.3621e-02f,  2.3954e-01f,  5.2487e-02f,
 1.6509e-02f, -6.2728e-02f,  1.3448e-02f,
 1.2855e-01f,  1.1892e-02f, -1.3356e-02f,
 1.0810e-01f,  1.6760e-01f, -3.2040e-02f,
 6.2209e-02f,  4.0682e-02f,  3.9772e-02f,
-6.1711e-03f,  5.0588e-02f, -1.0811e-01f,
 1.5744e-02f,  1.6091e-01f, -6.1739e-02f,
-5.6717e-02f, -1.0657e-02f, -3.7943e-02f,
-4.0595e-02f,  8.0149e-02f,  2.0216e-02f,
 3.8838e-02f, -6.3586e-01f,  2.3785e-01f,
-1.0472e-02f,  6.3899e-02f, -8.2184e-02f,
-1.9137e-02f,  8.1163e-02f,  6.7065e-02f,
-2.2377e-03f,  1.1860e-01f,  3.4122e-02f,
 1.0501e-02f,  2.9851e-02f,  7.5841e-02f,
 5.8970e-02f, -1.2188e-01f,  7.7982e-02f,
-2.6516e-02f, -4.1289e-01f,  2.1471e-02f,
 3.3957e-02f,  3.5762e-02f, -5.7857e-02f,
-2.7357e-30f, -3.4780e-30f, -3.0306e-30f,
-1.5188e-30f, -1.9888e-30f, -1.8755e-30f,
-7.7431e-31f, -9.7571e-31f, -9.7402e-31f,
-1.8497e-02f, -2.4554e-02f,  1.4428e-01f,
 1.4217e-02f, -2.3647e-01f,  8.4097e-02f,
-1.0251e-02f, -4.2137e-03f,  6.0831e-03f,
 1.7742e-03f,  2.1487e-02f,  3.3147e-02f,
-1.0971e-02f,  3.0162e-01f,  5.2391e-02f,
 1.8341e-02f, -1.3390e-01f,  9.4303e-02f,
-1.5685e-01f,  9.8434e-02f, -1.2502e-03f,
 3.1370e-01f, -2.8879e-02f,  2.6313e-03f,
 1.7548e-02f,  6.6741e-03f, -1.7681e-03f,
 5.2062e-02f,  6.6914e-02f,  7.5256e-03f,
 2.4966e-02f,  2.8081e-01f,  2.9815e-02f,
 2.2375e-02f,  1.4257e-03f, -7.4702e-02f,
 1.5372e-02f,  3.9587e-02f,  4.6909e-02f,
-2.2911e-02f, -1.4568e-01f, -3.8964e-01f,
 2.2850e-02f, -4.2297e-02f,  6.5736e-02f,
-6.9905e-03f, -6.3972e-02f, -1.8430e-01f,
 4.4453e-03f,  2.0687e-01f,  3.0032e-01f,
 1.7243e-02f,  9.8548e-03f, -9.7476e-02f,
-7.9682e-04f, -2.1199e-01f, -4.3461e-02f,
-4.2929e-02f, -2.8227e-01f,  2.8997e-02f,
-1.8741e-03f,  1.1166e-02f,  1.8381e-03f,
-5.6725e-16f, -1.0368e-15f, -1.1480e-15f,
-5.5537e-16f, -9.9929e-16f, -1.1499e-15f,
-3.8787e-16f, -6.4019e-16f, -7.7595e-16f,
 4.4505e-02f,  8.8803e-02f,  1.1384e-02f,
-3.9434e-02f,  1.9319e-01f, -1.2016e-02f,
-4.6072e-02f,  1.1769e-01f,  7.4816e-03f,
-3.7856e-02f, -1.7147e-02f,  1.5984e-01f,
-2.6459e-02f,  1.7469e-01f,  1.2584e-01f,
 1.6387e-02f,  1.7370e-01f, -1.7350e-01f,
-3.0008e-01f,  2.1485e-01f, -5.4302e-02f,
 5.7724e-02f,  3.2168e-01f, -2.5261e-02f,
 6.9277e-02f,  7.5035e-02f,  6.3485e-02f,
-1.1688e-01f,  2.6068e-02f, -1.3490e-01f,
-1.6085e-01f,  1.9409e-01f,  1.1434e-01f,
-7.3819e-02f, -7.7880e-02f,  7.3699e-03f,
-9.9972e-02f,  1.3554e-01f,  2.1656e-02f,
-8.8303e-02f,  5.4435e-01f, -4.0582e-02f,
-3.4805e-02f, -1.5291e-01f, -3.6917e-02f,
-3.4377e-02f, -3.3086e-02f, -9.5097e-02f,
-7.4538e-03f,  2.2545e-01f, -2.6380e-02f,
 1.4440e-02f,  1.3205e-01f,  1.6164e-01f,
 9.2164e-02f, -8.4307e-02f,  7.8922e-02f,
 1.2519e-01f, -6.1809e-01f, -1.0895e-01f,
 6.2744e-02f, -4.4951e-02f, -3.2548e-02f,
-2.5422e-21f, -6.3849e-21f, -9.5560e-21f,
-1.9248e-21f, -4.7107e-21f, -6.4244e-21f,
-1.4638e-21f, -3.1947e-21f, -3.7663e-21f,
-8.6113e-03f, -7.0987e-02f,  5.8265e-02f,
-1.3148e-02f,  5.6371e-01f,  5.0580e-02f,
 1.1741e-02f, -3.5614e-02f, -6.1265e-02f,
 1.4758e-03f,  3.3349e-02f, -1.0867e-02f,
-4.0234e-02f,  1.9894e-01f,  1.3972e-01f,
-1.9167e-02f, -4.1723e-02f, -1.9982e-01f,
-3.0756e-01f,  2.6284e-02f, -1.9058e-02f,
-7.9349e-04f,  1.2644e-01f,  2.9567e-02f,
-3.9274e-02f,  1.1030e-02f, -9.4885e-03f,
 1.3541e-02f,  1.7044e-01f,  8.9626e-02f,
 6.6814e-02f,  2.6430e-01f,  1.7409e-01f,
-6.1034e-04f,  1.7569e-02f,  1.3090e-01f,
-4.1941e-03f,  8.9599e-02f, -3.3684e-02f,
-1.1310e-02f, -4.3731e-01f,  5.7177e-02f,
-4.5718e-04f,  1.0175e-01f,  4.1211e-02f,
 2.9756e-02f, -1.1601e-01f, -7.3171e-02f,
 2.7939e-02f,  2.1334e-01f, -4.0210e-01f,
-8.6847e-03f,  8.1829e-02f,  4.4225e-02f,
-1.1411e-01f, -1.7697e-01f, -5.8087e-02f,
 7.9613e-02f, -4.2814e-01f, -1.0814e-01f,
-3.0610e-02f,  1.1342e-03f, -2.2322e-03f,
-1.1254e-10f, -1.4207e-10f, -1.5402e-10f,
-9.9123e-11f, -1.2394e-10f, -1.3338e-10f,
-8.8840e-11f, -1.0857e-10f, -1.1463e-10f,
 3.0283e-02f, -5.6191e-02f, -1.0447e-01f,
-1.4578e-02f, -2.8745e-01f,  1.9089e-01f,
-2.7251e-02f,  9.8069e-02f, -1.4580e-02f,
-3.0276e-02f,  1.4366e-02f,  2.6363e-02f,
-8.4962e-02f,  7.8998e-02f, -4.7717e-02f,
-3.2004e-02f, -2.1579e-02f,  1.1247e-02f,
 1.3895e-01f, -3.3900e-01f,  7.7998e-03f,
 2.4769e-01f, -1.8506e-01f, -2.3116e-03f,
 3.1361e-02f, -1.1718e-02f, -1.8286e-02f,
-1.3020e-01f,  1.4334e-01f, -5.5700e-02f,
-3.5386e-02f,  1.0992e-01f, -8.0235e-02f,
-5.8978e-03f,  7.7039e-02f, -7.4619e-02f,
-8.1603e-02f,  1.2982e-01f, -7.3193e-02f,
-6.1469e-02f,  1.7131e-01f,  4.0255e-01f,
-6.4582e-03f, -8.2741e-02f, -2.2220e-02f,
 1.6876e-02f, -3.2590e-02f,  5.5645e-02f,
 2.5231e-02f,  2.9984e-01f, -3.6995e-02f,
 9.3322e-03f,  2.0758e-01f, -2.1986e-02f,
-4.9568e-02f,  2.1857e-03f,  8.6127e-02f,
 8.6593e-02f, -5.8134e-01f,  3.4507e-01f,
 4.8855e-02f, -1.0506e-01f,  4.1584e-02f,
 2.5428e-40f, -4.4558e-40f, -2.2090e-40f,
-2.9727e-40f, -4.8454e-40f,  3.0397e-40f,
 1.1696e-40f, -3.3028e-40f, -2.2959e-40f
}
};

__constant float biasL[8][8] = 
{
{
-3.1869e-08f, -3.8279e-01f, -6.3693e-05f, -5.9054e-02f,  9.3774e-04f, -2.9944e-02f, -1.1156e-03f, -7.5635e-02f
}
,
{
-1.7701e-01f, -1.3417e-06f, -3.0706e-40f, -1.9022e-06f, -1.2965e-02f, -6.6444e-40f,  1.4699e-02f,  2.6082e-02f
}
,
{
-3.7577e-07f,  4.4550e-03f, -8.1266e-04f,  3.2408e-01f, -1.1321e-07f, -1.8907e-23f, -1.9770e-25f, -3.2394e-02f
}
,
{
-2.1525e-14f, -1.4130e-02f, -1.9410e-02f, -1.8703e-02f, -2.9177e-02f, -4.0635e-02f,  7.8097e-02f, -1.1643e-01f
}
,
{
-2.6309e-02f, -2.2238e-02f,  6.8700e-03f, -1.7973e-02f, -1.0893e-02f, -1.1888e-02f, -4.9598e-03f, -6.3663e-06f
}
,
{
-1.2406e-03f, -2.4901e-12f, -9.7265e-07f,  6.3490e-03f,  1.3495e-01f, -3.8411e-03f, -6.6630e-03f, -7.3614e-03f
}
,
{
-2.7729e-03f, -4.8174e-03f, -6.3012e-03f,  2.0491e-01f, -2.0110e-03f, -3.0974e-03f,  5.1407e-01f, -3.5016e-08f
}
,
{
0.0324f, 0.0140f, 0.6750f, 0.2661f, 0.3646f, 0.3591f, 0.5597f, 0.0816f
}
};

__constant float kernelsL10[4 * 8] = 
{
 0.0882f,  0.0422f,
 0.3775f,  0.4754f,
-0.3209f, -0.4870f,
-0.0384f,  0.0530f,
 0.1034f,  0.0173f,
 0.5011f,  0.3900f,
 0.3621f, -0.1645f,
-0.1304f,  0.0013f,
 0.2230f,  0.3026f,
 0.1618f, -0.4514f,
-0.2097f,  0.1894f,
-0.0326f,  0.1434f,
 0.2421f,  0.3363f,
-0.0938f,  0.3156f,
 0.1137f, -0.2165f,
 0.2273f, -0.1284f
};


__kernel void conv1To8(
    __read_only image2d_t srcImg, 
    __write_only image2d_array_t tmpImgOut)
{
    const int x = get_global_id(0), y = get_global_id(1);
    if(x >= get_image_width(srcImg) || y >= get_image_height(srcImg))
        return;
    
    const int2 imgIndex1 = (int2)(0, 0);
    const int2 imgIndex2 = (int2)(1, 0);
    int2 coord = (int2)(x, y);

    float4 tl = read_imagef(srcImg, samplerN, (int2)(x-1, y-1));
    float4 tc = read_imagef(srcImg, samplerN, (int2)(x, y-1));
    float4 tr = read_imagef(srcImg, samplerN, (int2)(x+1, y-1));
    float4 ml = read_imagef(srcImg, samplerN, (int2)(x-1, y));
    float4 mc = read_imagef(srcImg, samplerN, coord);
    float4 mr = read_imagef(srcImg, samplerN, (int2)(x+1, y));
    float4 bl = read_imagef(srcImg, samplerN, (int2)(x-1, y+1));
    float4 bc = read_imagef(srcImg, samplerN, (int2)(x, y+1));
    float4 br = read_imagef(srcImg, samplerN, (int2)(x+1, y+1));

    float4 c1234 = RELU((float4)(
        tl.x * kernelsL1[0*9+0] + tc.x * kernelsL1[0*9+1] + tr.x * kernelsL1[0*9+2] +
        ml.x * kernelsL1[0*9+3] + mc.x * kernelsL1[0*9+4] + mr.x * kernelsL1[0*9+5] +
        bl.x * kernelsL1[0*9+6] + bc.x * kernelsL1[0*9+7] + br.x * kernelsL1[0*9+8] + biasL1[0],

        tl.x * kernelsL1[1*9+0] + tc.x * kernelsL1[1*9+1] + tr.x * kernelsL1[1*9+2] +
        ml.x * kernelsL1[1*9+3] + mc.x * kernelsL1[1*9+4] + mr.x * kernelsL1[1*9+5] +
        bl.x * kernelsL1[1*9+6] + bc.x * kernelsL1[1*9+7] + br.x * kernelsL1[1*9+8] + biasL1[1],

        tl.x * kernelsL1[2*9+0] + tc.x * kernelsL1[2*9+1] + tr.x * kernelsL1[2*9+2] +
        ml.x * kernelsL1[2*9+3] + mc.x * kernelsL1[2*9+4] + mr.x * kernelsL1[2*9+5] +
        bl.x * kernelsL1[2*9+6] + bc.x * kernelsL1[2*9+7] + br.x * kernelsL1[2*9+8] + biasL1[2],

        tl.x * kernelsL1[3*9+0] + tc.x * kernelsL1[3*9+1] + tr.x * kernelsL1[3*9+2] +
        ml.x * kernelsL1[3*9+3] + mc.x * kernelsL1[3*9+4] + mr.x * kernelsL1[3*9+5] +
        bl.x * kernelsL1[3*9+6] + bc.x * kernelsL1[3*9+7] + br.x * kernelsL1[3*9+8] + biasL1[3]
    ));
    float4 c5678 = RELU((float4)(
        tl.x * kernelsL1[4*9+0] + tc.x * kernelsL1[4*9+1] + tr.x * kernelsL1[4*9+2] +
        ml.x * kernelsL1[4*9+3] + mc.x * kernelsL1[4*9+4] + mr.x * kernelsL1[4*9+5] +
        bl.x * kernelsL1[4*9+6] + bc.x * kernelsL1[4*9+7] + br.x * kernelsL1[4*9+8] + biasL1[4],

        tl.x * kernelsL1[5*9+0] + tc.x * kernelsL1[5*9+1] + tr.x * kernelsL1[5*9+2] +
        ml.x * kernelsL1[5*9+3] + mc.x * kernelsL1[5*9+4] + mr.x * kernelsL1[5*9+5] +
        bl.x * kernelsL1[5*9+6] + bc.x * kernelsL1[5*9+7] + br.x * kernelsL1[5*9+8] + biasL1[5],

        tl.x * kernelsL1[6*9+0] + tc.x * kernelsL1[6*9+1] + tr.x * kernelsL1[6*9+2] +
        ml.x * kernelsL1[6*9+3] + mc.x * kernelsL1[6*9+4] + mr.x * kernelsL1[6*9+5] +
        bl.x * kernelsL1[6*9+6] + bc.x * kernelsL1[6*9+7] + br.x * kernelsL1[6*9+8] + biasL1[6],

        tl.x * kernelsL1[7*9+0] + tc.x * kernelsL1[7*9+1] + tr.x * kernelsL1[7*9+2] +
        ml.x * kernelsL1[7*9+3] + mc.x * kernelsL1[7*9+4] + mr.x * kernelsL1[7*9+5] +
        bl.x * kernelsL1[7*9+6] + bc.x * kernelsL1[7*9+7] + br.x * kernelsL1[7*9+8] + biasL1[7]
    ));

    write_imagef(tmpImgOut, (int4)(coord, imgIndex1), c1234);
    write_imagef(tmpImgOut, (int4)(coord, imgIndex2), c5678);
}

__kernel void conv8To8(
    __read_only image2d_array_t tmpImgIn,
    __write_only image2d_array_t tmpImgOut,
    int l)
{
    const int x = get_global_id(0), y = get_global_id(1);
    if(x >= get_image_width(tmpImgIn) || y >= get_image_height(tmpImgIn))
        return;

    const int2 imgIndex1 = (int2)(0, 0);
    const int2 imgIndex2 = (int2)(1, 0);
    int4 coord1 = (int4)(x, y, imgIndex1);
    int4 coord2 = (int4)(x, y, imgIndex2);

    float4 tl1 = read_imagef(tmpImgIn, samplerN, (int4)(x-1, y-1, imgIndex1));
    float4 tc1 = read_imagef(tmpImgIn, samplerN, (int4)(x, y-1, imgIndex1));
    float4 tr1 = read_imagef(tmpImgIn, samplerN, (int4)(x+1, y-1, imgIndex1));
    float4 ml1 = read_imagef(tmpImgIn, samplerN, (int4)(x-1, y, imgIndex1));
    float4 mc1 = read_imagef(tmpImgIn, samplerN, coord1);
    float4 mr1 = read_imagef(tmpImgIn, samplerN, (int4)(x+1, y, imgIndex1));
    float4 bl1 = read_imagef(tmpImgIn, samplerN, (int4)(x-1, y+1, imgIndex1));
    float4 bc1 = read_imagef(tmpImgIn, samplerN, (int4)(x, y+1, imgIndex1));
    float4 br1 = read_imagef(tmpImgIn, samplerN, (int4)(x+1, y+1, imgIndex1));

    float4 tl2 = read_imagef(tmpImgIn, samplerN, (int4)(x-1, y-1, imgIndex2));
    float4 tc2 = read_imagef(tmpImgIn, samplerN, (int4)(x, y-1, imgIndex2));
    float4 tr2 = read_imagef(tmpImgIn, samplerN, (int4)(x+1, y-1, imgIndex2));
    float4 ml2 = read_imagef(tmpImgIn, samplerN, (int4)(x-1, y, imgIndex2));
    float4 mc2 = read_imagef(tmpImgIn, samplerN, coord2);
    float4 mr2 = read_imagef(tmpImgIn, samplerN, (int4)(x+1, y, imgIndex2));
    float4 bl2 = read_imagef(tmpImgIn, samplerN, (int4)(x-1, y+1, imgIndex2));
    float4 bc2 = read_imagef(tmpImgIn, samplerN, (int4)(x, y+1, imgIndex2));
    float4 br2 = read_imagef(tmpImgIn, samplerN, (int4)(x+1, y+1, imgIndex2));
    
    float4 c1234 = RELU((float4)(
        tl1.x * kernelsL[l][0*72+0*9+0] + tc1.x * kernelsL[l][0*72+0*9+1] + tr1.x * kernelsL[l][0*72+0*9+2] +
        ml1.x * kernelsL[l][0*72+0*9+3] + mc1.x * kernelsL[l][0*72+0*9+4] + mr1.x * kernelsL[l][0*72+0*9+5] +
        bl1.x * kernelsL[l][0*72+0*9+6] + bc1.x * kernelsL[l][0*72+0*9+7] + br1.x * kernelsL[l][0*72+0*9+8] + 

        tl1.y * kernelsL[l][0*72+1*9+0] + tc1.y * kernelsL[l][0*72+1*9+1] + tr1.y * kernelsL[l][0*72+1*9+2] +
        ml1.y * kernelsL[l][0*72+1*9+3] + mc1.y * kernelsL[l][0*72+1*9+4] + mr1.y * kernelsL[l][0*72+1*9+5] +
        bl1.y * kernelsL[l][0*72+1*9+6] + bc1.y * kernelsL[l][0*72+1*9+7] + br1.y * kernelsL[l][0*72+1*9+8] + 

        tl1.z * kernelsL[l][0*72+2*9+0] + tc1.z * kernelsL[l][0*72+2*9+1] + tr1.z * kernelsL[l][0*72+2*9+2] +
        ml1.z * kernelsL[l][0*72+2*9+3] + mc1.z * kernelsL[l][0*72+2*9+4] + mr1.z * kernelsL[l][0*72+2*9+5] +
        bl1.z * kernelsL[l][0*72+2*9+6] + bc1.z * kernelsL[l][0*72+2*9+7] + br1.z * kernelsL[l][0*72+2*9+8] + 

        tl1.w * kernelsL[l][0*72+3*9+0] + tc1.w * kernelsL[l][0*72+3*9+1] + tr1.w * kernelsL[l][0*72+3*9+2] +
        ml1.w * kernelsL[l][0*72+3*9+3] + mc1.w * kernelsL[l][0*72+3*9+4] + mr1.w * kernelsL[l][0*72+3*9+5] +
        bl1.w * kernelsL[l][0*72+3*9+6] + bc1.w * kernelsL[l][0*72+3*9+7] + br1.w * kernelsL[l][0*72+3*9+8] +

        tl2.x * kernelsL[l][0*72+4*9+0] + tc2.x * kernelsL[l][0*72+4*9+1] + tr2.x * kernelsL[l][0*72+4*9+2] +
        ml2.x * kernelsL[l][0*72+4*9+3] + mc2.x * kernelsL[l][0*72+4*9+4] + mr2.x * kernelsL[l][0*72+4*9+5] +
        bl2.x * kernelsL[l][0*72+4*9+6] + bc2.x * kernelsL[l][0*72+4*9+7] + br2.x * kernelsL[l][0*72+4*9+8] + 

        tl2.y * kernelsL[l][0*72+5*9+0] + tc2.y * kernelsL[l][0*72+5*9+1] + tr2.y * kernelsL[l][0*72+5*9+2] +
        ml2.y * kernelsL[l][0*72+5*9+3] + mc2.y * kernelsL[l][0*72+5*9+4] + mr2.y * kernelsL[l][0*72+5*9+5] +
        bl2.y * kernelsL[l][0*72+5*9+6] + bc2.y * kernelsL[l][0*72+5*9+7] + br2.y * kernelsL[l][0*72+5*9+8] + 

        tl2.z * kernelsL[l][0*72+6*9+0] + tc2.z * kernelsL[l][0*72+6*9+1] + tr2.z * kernelsL[l][0*72+6*9+2] +
        ml2.z * kernelsL[l][0*72+6*9+3] + mc2.z * kernelsL[l][0*72+6*9+4] + mr2.z * kernelsL[l][0*72+6*9+5] +
        bl2.z * kernelsL[l][0*72+6*9+6] + bc2.z * kernelsL[l][0*72+6*9+7] + br2.z * kernelsL[l][0*72+6*9+8] + 

        tl2.w * kernelsL[l][0*72+7*9+0] + tc2.w * kernelsL[l][0*72+7*9+1] + tr2.w * kernelsL[l][0*72+7*9+2] +
        ml2.w * kernelsL[l][0*72+7*9+3] + mc2.w * kernelsL[l][0*72+7*9+4] + mr2.w * kernelsL[l][0*72+7*9+5] +
        bl2.w * kernelsL[l][0*72+7*9+6] + bc2.w * kernelsL[l][0*72+7*9+7] + br2.w * kernelsL[l][0*72+7*9+8] + biasL[l][0]
        ,
        tl1.x * kernelsL[l][1*72+0*9+0] + tc1.x * kernelsL[l][1*72+0*9+1] + tr1.x * kernelsL[l][1*72+0*9+2] +
        ml1.x * kernelsL[l][1*72+0*9+3] + mc1.x * kernelsL[l][1*72+0*9+4] + mr1.x * kernelsL[l][1*72+0*9+5] +
        bl1.x * kernelsL[l][1*72+0*9+6] + bc1.x * kernelsL[l][1*72+0*9+7] + br1.x * kernelsL[l][1*72+0*9+8] + 

        tl1.y * kernelsL[l][1*72+1*9+0] + tc1.y * kernelsL[l][1*72+1*9+1] + tr1.y * kernelsL[l][1*72+1*9+2] +
        ml1.y * kernelsL[l][1*72+1*9+3] + mc1.y * kernelsL[l][1*72+1*9+4] + mr1.y * kernelsL[l][1*72+1*9+5] +
        bl1.y * kernelsL[l][1*72+1*9+6] + bc1.y * kernelsL[l][1*72+1*9+7] + br1.y * kernelsL[l][1*72+1*9+8] + 

        tl1.z * kernelsL[l][1*72+2*9+0] + tc1.z * kernelsL[l][1*72+2*9+1] + tr1.z * kernelsL[l][1*72+2*9+2] +
        ml1.z * kernelsL[l][1*72+2*9+3] + mc1.z * kernelsL[l][1*72+2*9+4] + mr1.z * kernelsL[l][1*72+2*9+5] +
        bl1.z * kernelsL[l][1*72+2*9+6] + bc1.z * kernelsL[l][1*72+2*9+7] + br1.z * kernelsL[l][1*72+2*9+8] + 

        tl1.w * kernelsL[l][1*72+3*9+0] + tc1.w * kernelsL[l][1*72+3*9+1] + tr1.w * kernelsL[l][1*72+3*9+2] +
        ml1.w * kernelsL[l][1*72+3*9+3] + mc1.w * kernelsL[l][1*72+3*9+4] + mr1.w * kernelsL[l][1*72+3*9+5] +
        bl1.w * kernelsL[l][1*72+3*9+6] + bc1.w * kernelsL[l][1*72+3*9+7] + br1.w * kernelsL[l][1*72+3*9+8] +

        tl2.x * kernelsL[l][1*72+4*9+0] + tc2.x * kernelsL[l][1*72+4*9+1] + tr2.x * kernelsL[l][1*72+4*9+2] +
        ml2.x * kernelsL[l][1*72+4*9+3] + mc2.x * kernelsL[l][1*72+4*9+4] + mr2.x * kernelsL[l][1*72+4*9+5] +
        bl2.x * kernelsL[l][1*72+4*9+6] + bc2.x * kernelsL[l][1*72+4*9+7] + br2.x * kernelsL[l][1*72+4*9+8] + 

        tl2.y * kernelsL[l][1*72+5*9+0] + tc2.y * kernelsL[l][1*72+5*9+1] + tr2.y * kernelsL[l][1*72+5*9+2] +
        ml2.y * kernelsL[l][1*72+5*9+3] + mc2.y * kernelsL[l][1*72+5*9+4] + mr2.y * kernelsL[l][1*72+5*9+5] +
        bl2.y * kernelsL[l][1*72+5*9+6] + bc2.y * kernelsL[l][1*72+5*9+7] + br2.y * kernelsL[l][1*72+5*9+8] + 

        tl2.z * kernelsL[l][1*72+6*9+0] + tc2.z * kernelsL[l][1*72+6*9+1] + tr2.z * kernelsL[l][1*72+6*9+2] +
        ml2.z * kernelsL[l][1*72+6*9+3] + mc2.z * kernelsL[l][1*72+6*9+4] + mr2.z * kernelsL[l][1*72+6*9+5] +
        bl2.z * kernelsL[l][1*72+6*9+6] + bc2.z * kernelsL[l][1*72+6*9+7] + br2.z * kernelsL[l][1*72+6*9+8] + 

        tl2.w * kernelsL[l][1*72+7*9+0] + tc2.w * kernelsL[l][1*72+7*9+1] + tr2.w * kernelsL[l][1*72+7*9+2] +
        ml2.w * kernelsL[l][1*72+7*9+3] + mc2.w * kernelsL[l][1*72+7*9+4] + mr2.w * kernelsL[l][1*72+7*9+5] +
        bl2.w * kernelsL[l][1*72+7*9+6] + bc2.w * kernelsL[l][1*72+7*9+7] + br2.w * kernelsL[l][1*72+7*9+8] + biasL[l][1]
        ,
        tl1.x * kernelsL[l][2*72+0*9+0] + tc1.x * kernelsL[l][2*72+0*9+1] + tr1.x * kernelsL[l][2*72+0*9+2] +
        ml1.x * kernelsL[l][2*72+0*9+3] + mc1.x * kernelsL[l][2*72+0*9+4] + mr1.x * kernelsL[l][2*72+0*9+5] +
        bl1.x * kernelsL[l][2*72+0*9+6] + bc1.x * kernelsL[l][2*72+0*9+7] + br1.x * kernelsL[l][2*72+0*9+8] + 

        tl1.y * kernelsL[l][2*72+1*9+0] + tc1.y * kernelsL[l][2*72+1*9+1] + tr1.y * kernelsL[l][2*72+1*9+2] +
        ml1.y * kernelsL[l][2*72+1*9+3] + mc1.y * kernelsL[l][2*72+1*9+4] + mr1.y * kernelsL[l][2*72+1*9+5] +
        bl1.y * kernelsL[l][2*72+1*9+6] + bc1.y * kernelsL[l][2*72+1*9+7] + br1.y * kernelsL[l][2*72+1*9+8] + 

        tl1.z * kernelsL[l][2*72+2*9+0] + tc1.z * kernelsL[l][2*72+2*9+1] + tr1.z * kernelsL[l][2*72+2*9+2] +
        ml1.z * kernelsL[l][2*72+2*9+3] + mc1.z * kernelsL[l][2*72+2*9+4] + mr1.z * kernelsL[l][2*72+2*9+5] +
        bl1.z * kernelsL[l][2*72+2*9+6] + bc1.z * kernelsL[l][2*72+2*9+7] + br1.z * kernelsL[l][2*72+2*9+8] + 

        tl1.w * kernelsL[l][2*72+3*9+0] + tc1.w * kernelsL[l][2*72+3*9+1] + tr1.w * kernelsL[l][2*72+3*9+2] +
        ml1.w * kernelsL[l][2*72+3*9+3] + mc1.w * kernelsL[l][2*72+3*9+4] + mr1.w * kernelsL[l][2*72+3*9+5] +
        bl1.w * kernelsL[l][2*72+3*9+6] + bc1.w * kernelsL[l][2*72+3*9+7] + br1.w * kernelsL[l][2*72+3*9+8] +

        tl2.x * kernelsL[l][2*72+4*9+0] + tc2.x * kernelsL[l][2*72+4*9+1] + tr2.x * kernelsL[l][2*72+4*9+2] +
        ml2.x * kernelsL[l][2*72+4*9+3] + mc2.x * kernelsL[l][2*72+4*9+4] + mr2.x * kernelsL[l][2*72+4*9+5] +
        bl2.x * kernelsL[l][2*72+4*9+6] + bc2.x * kernelsL[l][2*72+4*9+7] + br2.x * kernelsL[l][2*72+4*9+8] + 

        tl2.y * kernelsL[l][2*72+5*9+0] + tc2.y * kernelsL[l][2*72+5*9+1] + tr2.y * kernelsL[l][2*72+5*9+2] +
        ml2.y * kernelsL[l][2*72+5*9+3] + mc2.y * kernelsL[l][2*72+5*9+4] + mr2.y * kernelsL[l][2*72+5*9+5] +
        bl2.y * kernelsL[l][2*72+5*9+6] + bc2.y * kernelsL[l][2*72+5*9+7] + br2.y * kernelsL[l][2*72+5*9+8] + 

        tl2.z * kernelsL[l][2*72+6*9+0] + tc2.z * kernelsL[l][2*72+6*9+1] + tr2.z * kernelsL[l][2*72+6*9+2] +
        ml2.z * kernelsL[l][2*72+6*9+3] + mc2.z * kernelsL[l][2*72+6*9+4] + mr2.z * kernelsL[l][2*72+6*9+5] +
        bl2.z * kernelsL[l][2*72+6*9+6] + bc2.z * kernelsL[l][2*72+6*9+7] + br2.z * kernelsL[l][2*72+6*9+8] + 

        tl2.w * kernelsL[l][2*72+7*9+0] + tc2.w * kernelsL[l][2*72+7*9+1] + tr2.w * kernelsL[l][2*72+7*9+2] +
        ml2.w * kernelsL[l][2*72+7*9+3] + mc2.w * kernelsL[l][2*72+7*9+4] + mr2.w * kernelsL[l][2*72+7*9+5] +
        bl2.w * kernelsL[l][2*72+7*9+6] + bc2.w * kernelsL[l][2*72+7*9+7] + br2.w * kernelsL[l][2*72+7*9+8] + biasL[l][2]
        ,
        tl1.x * kernelsL[l][3*72+0*9+0] + tc1.x * kernelsL[l][3*72+0*9+1] + tr1.x * kernelsL[l][3*72+0*9+2] +
        ml1.x * kernelsL[l][3*72+0*9+3] + mc1.x * kernelsL[l][3*72+0*9+4] + mr1.x * kernelsL[l][3*72+0*9+5] +
        bl1.x * kernelsL[l][3*72+0*9+6] + bc1.x * kernelsL[l][3*72+0*9+7] + br1.x * kernelsL[l][3*72+0*9+8] + 

        tl1.y * kernelsL[l][3*72+1*9+0] + tc1.y * kernelsL[l][3*72+1*9+1] + tr1.y * kernelsL[l][3*72+1*9+2] +
        ml1.y * kernelsL[l][3*72+1*9+3] + mc1.y * kernelsL[l][3*72+1*9+4] + mr1.y * kernelsL[l][3*72+1*9+5] +
        bl1.y * kernelsL[l][3*72+1*9+6] + bc1.y * kernelsL[l][3*72+1*9+7] + br1.y * kernelsL[l][3*72+1*9+8] + 

        tl1.z * kernelsL[l][3*72+2*9+0] + tc1.z * kernelsL[l][3*72+2*9+1] + tr1.z * kernelsL[l][3*72+2*9+2] +
        ml1.z * kernelsL[l][3*72+2*9+3] + mc1.z * kernelsL[l][3*72+2*9+4] + mr1.z * kernelsL[l][3*72+2*9+5] +
        bl1.z * kernelsL[l][3*72+2*9+6] + bc1.z * kernelsL[l][3*72+2*9+7] + br1.z * kernelsL[l][3*72+2*9+8] + 

        tl1.w * kernelsL[l][3*72+3*9+0] + tc1.w * kernelsL[l][3*72+3*9+1] + tr1.w * kernelsL[l][3*72+3*9+2] +
        ml1.w * kernelsL[l][3*72+3*9+3] + mc1.w * kernelsL[l][3*72+3*9+4] + mr1.w * kernelsL[l][3*72+3*9+5] +
        bl1.w * kernelsL[l][3*72+3*9+6] + bc1.w * kernelsL[l][3*72+3*9+7] + br1.w * kernelsL[l][3*72+3*9+8] +

        tl2.x * kernelsL[l][3*72+4*9+0] + tc2.x * kernelsL[l][3*72+4*9+1] + tr2.x * kernelsL[l][3*72+4*9+2] +
        ml2.x * kernelsL[l][3*72+4*9+3] + mc2.x * kernelsL[l][3*72+4*9+4] + mr2.x * kernelsL[l][3*72+4*9+5] +
        bl2.x * kernelsL[l][3*72+4*9+6] + bc2.x * kernelsL[l][3*72+4*9+7] + br2.x * kernelsL[l][3*72+4*9+8] + 

        tl2.y * kernelsL[l][3*72+5*9+0] + tc2.y * kernelsL[l][3*72+5*9+1] + tr2.y * kernelsL[l][3*72+5*9+2] +
        ml2.y * kernelsL[l][3*72+5*9+3] + mc2.y * kernelsL[l][3*72+5*9+4] + mr2.y * kernelsL[l][3*72+5*9+5] +
        bl2.y * kernelsL[l][3*72+5*9+6] + bc2.y * kernelsL[l][3*72+5*9+7] + br2.y * kernelsL[l][3*72+5*9+8] + 

        tl2.z * kernelsL[l][3*72+6*9+0] + tc2.z * kernelsL[l][3*72+6*9+1] + tr2.z * kernelsL[l][3*72+6*9+2] +
        ml2.z * kernelsL[l][3*72+6*9+3] + mc2.z * kernelsL[l][3*72+6*9+4] + mr2.z * kernelsL[l][3*72+6*9+5] +
        bl2.z * kernelsL[l][3*72+6*9+6] + bc2.z * kernelsL[l][3*72+6*9+7] + br2.z * kernelsL[l][3*72+6*9+8] + 

        tl2.w * kernelsL[l][3*72+7*9+0] + tc2.w * kernelsL[l][3*72+7*9+1] + tr2.w * kernelsL[l][3*72+7*9+2] +
        ml2.w * kernelsL[l][3*72+7*9+3] + mc2.w * kernelsL[l][3*72+7*9+4] + mr2.w * kernelsL[l][3*72+7*9+5] +
        bl2.w * kernelsL[l][3*72+7*9+6] + bc2.w * kernelsL[l][3*72+7*9+7] + br2.w * kernelsL[l][3*72+7*9+8] + biasL[l][3]
    ));
    float4 c5678 = RELU((float4)(
        tl1.x * kernelsL[l][4*72+0*9+0] + tc1.x * kernelsL[l][4*72+0*9+1] + tr1.x * kernelsL[l][4*72+0*9+2] +
        ml1.x * kernelsL[l][4*72+0*9+3] + mc1.x * kernelsL[l][4*72+0*9+4] + mr1.x * kernelsL[l][4*72+0*9+5] +
        bl1.x * kernelsL[l][4*72+0*9+6] + bc1.x * kernelsL[l][4*72+0*9+7] + br1.x * kernelsL[l][4*72+0*9+8] + 

        tl1.y * kernelsL[l][4*72+1*9+0] + tc1.y * kernelsL[l][4*72+1*9+1] + tr1.y * kernelsL[l][4*72+1*9+2] +
        ml1.y * kernelsL[l][4*72+1*9+3] + mc1.y * kernelsL[l][4*72+1*9+4] + mr1.y * kernelsL[l][4*72+1*9+5] +
        bl1.y * kernelsL[l][4*72+1*9+6] + bc1.y * kernelsL[l][4*72+1*9+7] + br1.y * kernelsL[l][4*72+1*9+8] + 

        tl1.z * kernelsL[l][4*72+2*9+0] + tc1.z * kernelsL[l][4*72+2*9+1] + tr1.z * kernelsL[l][4*72+2*9+2] +
        ml1.z * kernelsL[l][4*72+2*9+3] + mc1.z * kernelsL[l][4*72+2*9+4] + mr1.z * kernelsL[l][4*72+2*9+5] +
        bl1.z * kernelsL[l][4*72+2*9+6] + bc1.z * kernelsL[l][4*72+2*9+7] + br1.z * kernelsL[l][4*72+2*9+8] + 

        tl1.w * kernelsL[l][4*72+3*9+0] + tc1.w * kernelsL[l][4*72+3*9+1] + tr1.w * kernelsL[l][4*72+3*9+2] +
        ml1.w * kernelsL[l][4*72+3*9+3] + mc1.w * kernelsL[l][4*72+3*9+4] + mr1.w * kernelsL[l][4*72+3*9+5] +
        bl1.w * kernelsL[l][4*72+3*9+6] + bc1.w * kernelsL[l][4*72+3*9+7] + br1.w * kernelsL[l][4*72+3*9+8] +

        tl2.x * kernelsL[l][4*72+4*9+0] + tc2.x * kernelsL[l][4*72+4*9+1] + tr2.x * kernelsL[l][4*72+4*9+2] +
        ml2.x * kernelsL[l][4*72+4*9+3] + mc2.x * kernelsL[l][4*72+4*9+4] + mr2.x * kernelsL[l][4*72+4*9+5] +
        bl2.x * kernelsL[l][4*72+4*9+6] + bc2.x * kernelsL[l][4*72+4*9+7] + br2.x * kernelsL[l][4*72+4*9+8] + 

        tl2.y * kernelsL[l][4*72+5*9+0] + tc2.y * kernelsL[l][4*72+5*9+1] + tr2.y * kernelsL[l][4*72+5*9+2] +
        ml2.y * kernelsL[l][4*72+5*9+3] + mc2.y * kernelsL[l][4*72+5*9+4] + mr2.y * kernelsL[l][4*72+5*9+5] +
        bl2.y * kernelsL[l][4*72+5*9+6] + bc2.y * kernelsL[l][4*72+5*9+7] + br2.y * kernelsL[l][4*72+5*9+8] + 

        tl2.z * kernelsL[l][4*72+6*9+0] + tc2.z * kernelsL[l][4*72+6*9+1] + tr2.z * kernelsL[l][4*72+6*9+2] +
        ml2.z * kernelsL[l][4*72+6*9+3] + mc2.z * kernelsL[l][4*72+6*9+4] + mr2.z * kernelsL[l][4*72+6*9+5] +
        bl2.z * kernelsL[l][4*72+6*9+6] + bc2.z * kernelsL[l][4*72+6*9+7] + br2.z * kernelsL[l][4*72+6*9+8] + 

        tl2.w * kernelsL[l][4*72+7*9+0] + tc2.w * kernelsL[l][4*72+7*9+1] + tr2.w * kernelsL[l][4*72+7*9+2] +
        ml2.w * kernelsL[l][4*72+7*9+3] + mc2.w * kernelsL[l][4*72+7*9+4] + mr2.w * kernelsL[l][4*72+7*9+5] +
        bl2.w * kernelsL[l][4*72+7*9+6] + bc2.w * kernelsL[l][4*72+7*9+7] + br2.w * kernelsL[l][4*72+7*9+8] + biasL[l][4]
        ,
        tl1.x * kernelsL[l][5*72+0*9+0] + tc1.x * kernelsL[l][5*72+0*9+1] + tr1.x * kernelsL[l][5*72+0*9+2] +
        ml1.x * kernelsL[l][5*72+0*9+3] + mc1.x * kernelsL[l][5*72+0*9+4] + mr1.x * kernelsL[l][5*72+0*9+5] +
        bl1.x * kernelsL[l][5*72+0*9+6] + bc1.x * kernelsL[l][5*72+0*9+7] + br1.x * kernelsL[l][5*72+0*9+8] + 

        tl1.y * kernelsL[l][5*72+1*9+0] + tc1.y * kernelsL[l][5*72+1*9+1] + tr1.y * kernelsL[l][5*72+1*9+2] +
        ml1.y * kernelsL[l][5*72+1*9+3] + mc1.y * kernelsL[l][5*72+1*9+4] + mr1.y * kernelsL[l][5*72+1*9+5] +
        bl1.y * kernelsL[l][5*72+1*9+6] + bc1.y * kernelsL[l][5*72+1*9+7] + br1.y * kernelsL[l][5*72+1*9+8] + 

        tl1.z * kernelsL[l][5*72+2*9+0] + tc1.z * kernelsL[l][5*72+2*9+1] + tr1.z * kernelsL[l][5*72+2*9+2] +
        ml1.z * kernelsL[l][5*72+2*9+3] + mc1.z * kernelsL[l][5*72+2*9+4] + mr1.z * kernelsL[l][5*72+2*9+5] +
        bl1.z * kernelsL[l][5*72+2*9+6] + bc1.z * kernelsL[l][5*72+2*9+7] + br1.z * kernelsL[l][5*72+2*9+8] + 

        tl1.w * kernelsL[l][5*72+3*9+0] + tc1.w * kernelsL[l][5*72+3*9+1] + tr1.w * kernelsL[l][5*72+3*9+2] +
        ml1.w * kernelsL[l][5*72+3*9+3] + mc1.w * kernelsL[l][5*72+3*9+4] + mr1.w * kernelsL[l][5*72+3*9+5] +
        bl1.w * kernelsL[l][5*72+3*9+6] + bc1.w * kernelsL[l][5*72+3*9+7] + br1.w * kernelsL[l][5*72+3*9+8] +

        tl2.x * kernelsL[l][5*72+4*9+0] + tc2.x * kernelsL[l][5*72+4*9+1] + tr2.x * kernelsL[l][5*72+4*9+2] +
        ml2.x * kernelsL[l][5*72+4*9+3] + mc2.x * kernelsL[l][5*72+4*9+4] + mr2.x * kernelsL[l][5*72+4*9+5] +
        bl2.x * kernelsL[l][5*72+4*9+6] + bc2.x * kernelsL[l][5*72+4*9+7] + br2.x * kernelsL[l][5*72+4*9+8] + 

        tl2.y * kernelsL[l][5*72+5*9+0] + tc2.y * kernelsL[l][5*72+5*9+1] + tr2.y * kernelsL[l][5*72+5*9+2] +
        ml2.y * kernelsL[l][5*72+5*9+3] + mc2.y * kernelsL[l][5*72+5*9+4] + mr2.y * kernelsL[l][5*72+5*9+5] +
        bl2.y * kernelsL[l][5*72+5*9+6] + bc2.y * kernelsL[l][5*72+5*9+7] + br2.y * kernelsL[l][5*72+5*9+8] + 

        tl2.z * kernelsL[l][5*72+6*9+0] + tc2.z * kernelsL[l][5*72+6*9+1] + tr2.z * kernelsL[l][5*72+6*9+2] +
        ml2.z * kernelsL[l][5*72+6*9+3] + mc2.z * kernelsL[l][5*72+6*9+4] + mr2.z * kernelsL[l][5*72+6*9+5] +
        bl2.z * kernelsL[l][5*72+6*9+6] + bc2.z * kernelsL[l][5*72+6*9+7] + br2.z * kernelsL[l][5*72+6*9+8] + 

        tl2.w * kernelsL[l][5*72+7*9+0] + tc2.w * kernelsL[l][5*72+7*9+1] + tr2.w * kernelsL[l][5*72+7*9+2] +
        ml2.w * kernelsL[l][5*72+7*9+3] + mc2.w * kernelsL[l][5*72+7*9+4] + mr2.w * kernelsL[l][5*72+7*9+5] +
        bl2.w * kernelsL[l][5*72+7*9+6] + bc2.w * kernelsL[l][5*72+7*9+7] + br2.w * kernelsL[l][5*72+7*9+8] + biasL[l][5]
        ,
        tl1.x * kernelsL[l][6*72+0*9+0] + tc1.x * kernelsL[l][6*72+0*9+1] + tr1.x * kernelsL[l][6*72+0*9+2] +
        ml1.x * kernelsL[l][6*72+0*9+3] + mc1.x * kernelsL[l][6*72+0*9+4] + mr1.x * kernelsL[l][6*72+0*9+5] +
        bl1.x * kernelsL[l][6*72+0*9+6] + bc1.x * kernelsL[l][6*72+0*9+7] + br1.x * kernelsL[l][6*72+0*9+8] + 

        tl1.y * kernelsL[l][6*72+1*9+0] + tc1.y * kernelsL[l][6*72+1*9+1] + tr1.y * kernelsL[l][6*72+1*9+2] +
        ml1.y * kernelsL[l][6*72+1*9+3] + mc1.y * kernelsL[l][6*72+1*9+4] + mr1.y * kernelsL[l][6*72+1*9+5] +
        bl1.y * kernelsL[l][6*72+1*9+6] + bc1.y * kernelsL[l][6*72+1*9+7] + br1.y * kernelsL[l][6*72+1*9+8] + 

        tl1.z * kernelsL[l][6*72+2*9+0] + tc1.z * kernelsL[l][6*72+2*9+1] + tr1.z * kernelsL[l][6*72+2*9+2] +
        ml1.z * kernelsL[l][6*72+2*9+3] + mc1.z * kernelsL[l][6*72+2*9+4] + mr1.z * kernelsL[l][6*72+2*9+5] +
        bl1.z * kernelsL[l][6*72+2*9+6] + bc1.z * kernelsL[l][6*72+2*9+7] + br1.z * kernelsL[l][6*72+2*9+8] + 

        tl1.w * kernelsL[l][6*72+3*9+0] + tc1.w * kernelsL[l][6*72+3*9+1] + tr1.w * kernelsL[l][6*72+3*9+2] +
        ml1.w * kernelsL[l][6*72+3*9+3] + mc1.w * kernelsL[l][6*72+3*9+4] + mr1.w * kernelsL[l][6*72+3*9+5] +
        bl1.w * kernelsL[l][6*72+3*9+6] + bc1.w * kernelsL[l][6*72+3*9+7] + br1.w * kernelsL[l][6*72+3*9+8] +

        tl2.x * kernelsL[l][6*72+4*9+0] + tc2.x * kernelsL[l][6*72+4*9+1] + tr2.x * kernelsL[l][6*72+4*9+2] +
        ml2.x * kernelsL[l][6*72+4*9+3] + mc2.x * kernelsL[l][6*72+4*9+4] + mr2.x * kernelsL[l][6*72+4*9+5] +
        bl2.x * kernelsL[l][6*72+4*9+6] + bc2.x * kernelsL[l][6*72+4*9+7] + br2.x * kernelsL[l][6*72+4*9+8] + 

        tl2.y * kernelsL[l][6*72+5*9+0] + tc2.y * kernelsL[l][6*72+5*9+1] + tr2.y * kernelsL[l][6*72+5*9+2] +
        ml2.y * kernelsL[l][6*72+5*9+3] + mc2.y * kernelsL[l][6*72+5*9+4] + mr2.y * kernelsL[l][6*72+5*9+5] +
        bl2.y * kernelsL[l][6*72+5*9+6] + bc2.y * kernelsL[l][6*72+5*9+7] + br2.y * kernelsL[l][6*72+5*9+8] + 

        tl2.z * kernelsL[l][6*72+6*9+0] + tc2.z * kernelsL[l][6*72+6*9+1] + tr2.z * kernelsL[l][6*72+6*9+2] +
        ml2.z * kernelsL[l][6*72+6*9+3] + mc2.z * kernelsL[l][6*72+6*9+4] + mr2.z * kernelsL[l][6*72+6*9+5] +
        bl2.z * kernelsL[l][6*72+6*9+6] + bc2.z * kernelsL[l][6*72+6*9+7] + br2.z * kernelsL[l][6*72+6*9+8] + 

        tl2.w * kernelsL[l][6*72+7*9+0] + tc2.w * kernelsL[l][6*72+7*9+1] + tr2.w * kernelsL[l][6*72+7*9+2] +
        ml2.w * kernelsL[l][6*72+7*9+3] + mc2.w * kernelsL[l][6*72+7*9+4] + mr2.w * kernelsL[l][6*72+7*9+5] +
        bl2.w * kernelsL[l][6*72+7*9+6] + bc2.w * kernelsL[l][6*72+7*9+7] + br2.w * kernelsL[l][6*72+7*9+8] + biasL[l][6]
        ,
        tl1.x * kernelsL[l][7*72+0*9+0] + tc1.x * kernelsL[l][7*72+0*9+1] + tr1.x * kernelsL[l][7*72+0*9+2] +
        ml1.x * kernelsL[l][7*72+0*9+3] + mc1.x * kernelsL[l][7*72+0*9+4] + mr1.x * kernelsL[l][7*72+0*9+5] +
        bl1.x * kernelsL[l][7*72+0*9+6] + bc1.x * kernelsL[l][7*72+0*9+7] + br1.x * kernelsL[l][7*72+0*9+8] + 

        tl1.y * kernelsL[l][7*72+1*9+0] + tc1.y * kernelsL[l][7*72+1*9+1] + tr1.y * kernelsL[l][7*72+1*9+2] +
        ml1.y * kernelsL[l][7*72+1*9+3] + mc1.y * kernelsL[l][7*72+1*9+4] + mr1.y * kernelsL[l][7*72+1*9+5] +
        bl1.y * kernelsL[l][7*72+1*9+6] + bc1.y * kernelsL[l][7*72+1*9+7] + br1.y * kernelsL[l][7*72+1*9+8] + 

        tl1.z * kernelsL[l][7*72+2*9+0] + tc1.z * kernelsL[l][7*72+2*9+1] + tr1.z * kernelsL[l][7*72+2*9+2] +
        ml1.z * kernelsL[l][7*72+2*9+3] + mc1.z * kernelsL[l][7*72+2*9+4] + mr1.z * kernelsL[l][7*72+2*9+5] +
        bl1.z * kernelsL[l][7*72+2*9+6] + bc1.z * kernelsL[l][7*72+2*9+7] + br1.z * kernelsL[l][7*72+2*9+8] + 

        tl1.w * kernelsL[l][7*72+3*9+0] + tc1.w * kernelsL[l][7*72+3*9+1] + tr1.w * kernelsL[l][7*72+3*9+2] +
        ml1.w * kernelsL[l][7*72+3*9+3] + mc1.w * kernelsL[l][7*72+3*9+4] + mr1.w * kernelsL[l][7*72+3*9+5] +
        bl1.w * kernelsL[l][7*72+3*9+6] + bc1.w * kernelsL[l][7*72+3*9+7] + br1.w * kernelsL[l][7*72+3*9+8] +

        tl2.x * kernelsL[l][7*72+4*9+0] + tc2.x * kernelsL[l][7*72+4*9+1] + tr2.x * kernelsL[l][7*72+4*9+2] +
        ml2.x * kernelsL[l][7*72+4*9+3] + mc2.x * kernelsL[l][7*72+4*9+4] + mr2.x * kernelsL[l][7*72+4*9+5] +
        bl2.x * kernelsL[l][7*72+4*9+6] + bc2.x * kernelsL[l][7*72+4*9+7] + br2.x * kernelsL[l][7*72+4*9+8] + 

        tl2.y * kernelsL[l][7*72+5*9+0] + tc2.y * kernelsL[l][7*72+5*9+1] + tr2.y * kernelsL[l][7*72+5*9+2] +
        ml2.y * kernelsL[l][7*72+5*9+3] + mc2.y * kernelsL[l][7*72+5*9+4] + mr2.y * kernelsL[l][7*72+5*9+5] +
        bl2.y * kernelsL[l][7*72+5*9+6] + bc2.y * kernelsL[l][7*72+5*9+7] + br2.y * kernelsL[l][7*72+5*9+8] + 

        tl2.z * kernelsL[l][7*72+6*9+0] + tc2.z * kernelsL[l][7*72+6*9+1] + tr2.z * kernelsL[l][7*72+6*9+2] +
        ml2.z * kernelsL[l][7*72+6*9+3] + mc2.z * kernelsL[l][7*72+6*9+4] + mr2.z * kernelsL[l][7*72+6*9+5] +
        bl2.z * kernelsL[l][7*72+6*9+6] + bc2.z * kernelsL[l][7*72+6*9+7] + br2.z * kernelsL[l][7*72+6*9+8] + 

        tl2.w * kernelsL[l][7*72+7*9+0] + tc2.w * kernelsL[l][7*72+7*9+1] + tr2.w * kernelsL[l][7*72+7*9+2] +
        ml2.w * kernelsL[l][7*72+7*9+3] + mc2.w * kernelsL[l][7*72+7*9+4] + mr2.w * kernelsL[l][7*72+7*9+5] +
        bl2.w * kernelsL[l][7*72+7*9+6] + bc2.w * kernelsL[l][7*72+7*9+7] + br2.w * kernelsL[l][7*72+7*9+8] + biasL[l][7]
    ));

    write_imagef(tmpImgOut, coord1, c1234);
    write_imagef(tmpImgOut, coord2, c5678);
}

__kernel void convTranspose8To1(
    __read_only image2d_array_t tmpImgIn,
    __write_only image2d_t dstImg)
{
    const int x = get_global_id(0), y = get_global_id(1);
    if(x >= get_image_width(dstImg) || y >= get_image_height(dstImg))
        return;

    int2 coord = (int2)(x, y);
    int2 orgCoord = coord / 2;

    int2 pos = coord & 1;
    int index = pos.y * 2 + pos.x;

    float4 mc1 = read_imagef(tmpImgIn, samplerN, (int4)(orgCoord, 0, 0));
    float4 mc2 = read_imagef(tmpImgIn, samplerN, (int4)(orgCoord, 1, 0));

    float c = clamp(
        mc1.x * kernelsL10[0 + index] +
        mc1.y * kernelsL10[4 + index] +
        mc1.z * kernelsL10[8 + index] +
        mc1.w * kernelsL10[12 + index] +
        mc2.x * kernelsL10[16 + index] +
        mc2.y * kernelsL10[20 + index] +
        mc2.z * kernelsL10[24 + index] +
        mc2.w * kernelsL10[28 + index], 0.0f, 1.0f);

    write_imagef(dstImg, coord, (float4)(c, 0.0f, 0.0f, 1.0f));
}
